%YAML:1.0
---
opencv_ml_svm:
   format: 3
   svmType: C_SVC
   kernel:
      type: RBF
      gamma: 3.3750000000000002e-02
   C: 2.5000000000000000e+00
   term_criteria: { epsilon:1.1920928955078125e-07, iterations:1000 }
   var_count: 144
   class_count: 5
   class_labels: !!opencv-matrix
      rows: 5
      cols: 1
      dt: i
      data: [ 0, 1, 2, 3, 4 ]
   sv_total: 209
   support_vectors:
      - [ 4.73482192e-01, 4.73482192e-01, 1.07283391e-01, 0.,
          4.73482192e-01, 2.92038709e-01, 4.16287147e-02, 0.,
          4.73482192e-01, 4.38808352e-01, 4.38808352e-01, 1.56192422e-01,
          0., 4.38808352e-01, 4.38808352e-01, 9.15333852e-02,
          8.85266252e-03, 4.38808352e-01, 4.04687494e-01, 4.04687494e-01,
          4.04687494e-01, 0., 4.04687494e-01, 4.04687494e-01,
          1.15349665e-01, 4.44381405e-03, 4.04687494e-01, 4.36543524e-01,
          2.70732176e-02, 1.90546233e-02, 0., 4.36543524e-01,
          4.36543524e-01, 4.36543524e-01, 2.04186320e-01, 4.36543524e-01,
          3.69743973e-01, 3.69743973e-01, 3.69743973e-01, 0.,
          3.69743973e-01, 3.69743973e-01, 3.69743973e-01, 2.49784097e-01,
          3.37120473e-01, 4.55778450e-01, 4.55778450e-01, 1.34176657e-01,
          0., 4.55778450e-01, 4.55778450e-01, 3.36430311e-01,
          3.26890871e-02, 1.79593742e-01, 1.53131261e-01, 2.29678750e-01,
          4.56197798e-01, 0., 5.01246929e-01, 5.01246929e-01,
          4.40964490e-01, 4.88222986e-02, 1.06516168e-01, 0.,
          2.74570775e-03, 8.23712349e-03, 0., 6.26293123e-01,
          6.26293123e-01, 4.45077002e-01, 1.05317861e-01, 0.,
          1.85436636e-01, 4.30969000e-01, 4.30969000e-01, 0.,
          1.17052808e-01, 4.30969000e-01, 4.30969000e-01, 4.30969000e-01,
          1.37606323e-01, 2.36654878e-01, 3.83619100e-01, 8.40217173e-02,
          0., 5.07562459e-01, 5.07562459e-01, 5.07562459e-01,
          1.06352150e-01, 2.30705328e-02, 0., 0., 0., 0., 6.91967309e-01,
          6.91967309e-01, 1.88294217e-01, 0., 0., 0., 0., 0., 0., 0., 0.,
          0., 0., 0., 0., 3.17867726e-01, 4.27217782e-01, 0.,
          4.27217782e-01, 4.27217782e-01, 4.27217782e-01, 4.05749321e-01,
          0., 0., 0., 0., 0., 0., 0., 7.04615593e-01, 7.04615593e-01, 0.,
          0., 0., 0., 0., 0., 0., 0., 0., 0., 0., 0., 0., 0., 0., 0., 0.,
          0., 0. ]
      - [ 4.20679301e-01, 4.20679301e-01, 4.20679301e-01, 0.,
          2.38008931e-01, 4.20679301e-01, 2.29243457e-01, 4.17321026e-02,
          4.20679301e-01, 4.44088519e-01, 4.44088519e-01, 2.26760749e-02,
          0., 4.44088519e-01, 4.44088519e-01, 9.46655050e-02,
          3.91038554e-03, 4.44088519e-01, 5.18444717e-01, 6.45462498e-02,
          6.03492595e-02, 4.23368365e-01, 5.18444717e-01, 0.,
          3.57307382e-02, 1.19102458e-02, 5.18444717e-01, 4.19737965e-01,
          0., 2.61704009e-02, 1.83593318e-01, 4.43002135e-01, 0.,
          4.43002135e-01, 4.43002135e-01, 4.43002135e-01, 2.20053762e-01,
          4.61534262e-01, 4.61534262e-01, 0., 8.46825615e-02,
          4.61534262e-01, 4.61534262e-01, 2.95214981e-01, 2.42443141e-02,
          8.98785293e-02, 2.92663723e-02, 5.92440441e-02, 0.,
          5.62084019e-01, 5.62084019e-01, 5.62084019e-01, 1.64450631e-01,
          8.41616914e-02, 0., 0., 1.07088253e-01, 7.00365543e-01,
          7.00365543e-01, 0., 2.15685554e-02, 7.18951831e-03, 0., 0., 0.,
          3.82056907e-02, 2.68024504e-01, 6.55478895e-01, 0.,
          6.55478895e-01, 2.46685937e-01, 0., 0., 4.33474749e-01,
          4.54802603e-01, 2.16871560e-01, 0., 3.72615308e-02,
          4.54802603e-01, 4.54802603e-01, 3.72288704e-01, 0., 0., 0., 0.,
          0., 4.09046970e-02, 6.42218292e-01, 6.42218292e-01,
          4.08688426e-01, 0., 0., 0., 0., 0., 0., 0., 0., 0., 0., 0., 0.,
          0., 0., 0., 0., 0., 0., 0., 3.71939659e-01, 4.11036819e-01,
          4.11036819e-01, 2.04812378e-01, 1.97390988e-01, 4.11036819e-01,
          4.11036819e-01, 3.17550421e-01, 0., 3.98267470e-02,
          1.38989538e-01, 1.36863589e-01, 2.20199957e-01, 3.32300276e-01,
          5.31288028e-01, 5.31288028e-01, 4.81261849e-01, 0., 0., 0., 0.,
          0., 0., 0., 0., 0., 0., 0., 0., 0., 0., 0., 0., 0., 0. ]
      - [ 0., 0., 0., 0., 0., 0., 0., 0., 0., 4.91387993e-01,
          4.91387993e-01, 4.91387993e-01, 0., 1.50911644e-01, 0.,
          7.63037726e-02, 2.54345909e-02, 4.91387993e-01, 3.95272583e-01,
          3.95272583e-01, 3.52103740e-01, 0., 3.01450163e-01, 0.,
          3.95272583e-01, 3.95272583e-01, 3.95272583e-01, 0.,
          3.20049711e-02, 9.60149094e-02, 0., 0., 0., 5.72723806e-01,
          5.72723806e-01, 5.72723806e-01, 5.53999126e-01, 5.53999126e-01,
          5.53999126e-01, 0., 0., 0., 0., 0., 2.71519154e-01,
          4.42299277e-01, 4.42299277e-01, 4.42299277e-01, 0.,
          3.25929821e-01, 1.76045641e-01, 4.42299277e-01, 2.11828426e-01,
          1.75993323e-01, 3.43616635e-01, 3.43616635e-01, 3.43616635e-01,
          3.43616635e-01, 3.43616635e-01, 2.28007928e-01, 3.43616635e-01,
          3.43616635e-01, 3.43616635e-01, 4.17536736e-01, 8.52223709e-02,
          2.05036387e-01, 2.67921180e-01, 5.53147905e-02, 4.17536736e-01,
          4.17536736e-01, 4.17536736e-01, 4.17536736e-01, 4.72136110e-01,
          4.72136110e-01, 4.72136110e-01, 1.34919018e-01, 4.29307520e-01,
          1.66065603e-01, 8.60417932e-02, 2.07899772e-02, 2.97699869e-01,
          3.71237099e-01, 3.71237099e-01, 3.71237099e-01, 9.49239656e-02,
          3.71237099e-01, 3.71237099e-01, 3.71237099e-01, 2.42422551e-01,
          3.18763196e-01, 3.68015498e-01, 3.47223967e-01, 2.32609153e-01,
          2.06382528e-01, 3.68015498e-01, 3.68015498e-01, 3.68015498e-01,
          3.19187999e-01, 3.68015498e-01, 2.84010261e-01, 8.45942423e-02,
          1.30214214e-01, 6.54429346e-02, 4.37745392e-01, 4.37745392e-01,
          4.37745392e-01, 4.00531679e-01, 3.88950109e-01, 1.73040107e-01,
          4.05244589e-01, 4.05244589e-01, 4.02636260e-01, 4.05244589e-01,
          4.05244589e-01, 3.68957996e-01, 1.03704974e-01, 1.07450904e-02,
          3.86046693e-02, 1.20813407e-01, 3.58243734e-01, 4.50249821e-01,
          4.50249821e-01, 4.50249821e-01, 4.50249821e-01, 1.99038580e-01,
          2.36998294e-02, 5.39854541e-02, 0., 0., 0., 6.76113486e-01,
          6.71114147e-01, 2.76183218e-01, 6.01730496e-02, 5.39854541e-02,
          0., 0., 0., 0., 5.61594903e-01, 5.61594903e-01, 5.61594903e-01,
          2.19603106e-01, 0. ]
      - [ 5.58457196e-01, 5.58457196e-01, 1.45660669e-01, 0., 0.,
          1.49289653e-01, 1.82559296e-01, 5.37595898e-02, 5.39399683e-01,
          4.39271778e-01, 4.39271778e-01, 0., 0., 3.82526547e-01,
          4.39271778e-01, 2.58161694e-01, 1.03919819e-01, 4.39271778e-01,
          3.87424797e-01, 2.98228085e-01, 9.78431925e-02, 3.87424797e-01,
          3.87424797e-01, 3.87424797e-01, 6.98222667e-02, 3.77162248e-01,
          3.87424797e-01, 1.26933545e-01, 1.57234967e-02, 2.15451658e-01,
          5.11531234e-01, 2.62319475e-01, 0., 2.79836446e-01,
          5.11531234e-01, 5.11531234e-01, 4.07622486e-01, 4.07622486e-01,
          4.07622486e-01, 8.30199197e-02, 4.07622486e-01, 2.24652067e-01,
          2.68043786e-01, 3.25727314e-01, 3.09833705e-01, 3.67828399e-01,
          2.46609956e-01, 1.34003788e-01, 3.67828399e-01, 3.67828399e-01,
          3.67828399e-01, 3.25215608e-01, 3.67828399e-01, 3.67828399e-01,
          3.66738915e-01, 3.66738915e-01, 3.34928960e-01, 3.66738915e-01,
          3.66738915e-01, 2.25440472e-01, 1.62328735e-01, 3.66738915e-01,
          3.66738915e-01, 3.42993170e-01, 3.42993170e-01, 2.86565930e-01,
          3.42993170e-01, 3.31300884e-01, 3.42993170e-01, 3.42993170e-01,
          3.42993170e-01, 3.14367205e-01, 2.91198909e-01, 3.37607354e-01,
          3.37607354e-01, 3.37607354e-01, 3.37607354e-01, 3.37607354e-01,
          3.37607354e-01, 3.37607354e-01, 3.37607354e-01, 3.46509069e-01,
          3.46509069e-01, 3.46509069e-01, 3.46509069e-01, 3.46509069e-01,
          3.46509069e-01, 1.89709604e-01, 3.46509069e-01, 3.46509069e-01,
          3.58163685e-01, 3.58163685e-01, 2.88218886e-01, 1.24027595e-01,
          3.58163685e-01, 3.58163685e-01, 3.58163685e-01, 3.58163685e-01,
          3.58163685e-01, 3.79137516e-01, 3.79137516e-01, 1.53138563e-01,
          0., 3.79137516e-01, 3.79137516e-01, 3.79137516e-01,
          3.32098186e-01, 3.79137516e-01, 3.59003663e-01, 3.59003663e-01,
          3.59003663e-01, 3.59003663e-01, 3.59003663e-01, 3.59003663e-01,
          1.37629643e-01, 2.74382621e-01, 3.59003663e-01, 3.86249036e-01,
          4.38437372e-01, 2.21688390e-01, 6.24985844e-02, 4.85284805e-01,
          4.85284805e-01, 2.59267122e-01, 1.04484774e-01, 2.27038443e-01,
          2.01503620e-01, 2.01610535e-01, 0., 0., 8.50161076e-01,
          2.66603261e-01, 2.19377056e-01, 2.02196792e-01, 1.65544108e-01,
          2.70661116e-01, 2.22682357e-01, 0., 0., 5.53270817e-01,
          5.53270817e-01, 3.53390247e-01, 2.71130025e-01, 2.47015551e-01 ]
      - [ 6.50993705e-01, 6.50993705e-01, 6.23794869e-02, 0.,
          1.08815312e-01, 1.05542801e-01, 7.00853318e-02, 1.83469057e-02,
          3.37335467e-01, 4.01450127e-01, 4.01450127e-01, 0., 0.,
          4.01450127e-01, 2.67717987e-01, 4.01450127e-01, 3.44246358e-01,
          4.01450127e-01, 5.00318646e-01, 4.41619188e-01, 0., 0.,
          5.00318646e-01, 1.02642374e-02, 6.19926415e-02, 2.12299138e-01,
          5.00318646e-01, 4.83415365e-01, 0., 0., 0., 4.83415365e-01, 0.,
          2.45784655e-01, 4.83415365e-01, 4.83415365e-01, 4.35578793e-01,
          4.35578793e-01, 4.35578793e-01, 0., 1.11258857e-01,
          4.35578793e-01, 4.35578793e-01, 1.59587979e-01, 9.56959724e-02,
          3.11175108e-01, 1.76138267e-01, 0., 0., 5.09109199e-01,
          5.09109199e-01, 5.09109199e-01, 2.01074615e-01, 2.21479893e-01,
          2.65521705e-01, 9.44182351e-02, 0., 0., 9.23004568e-01,
          5.46396486e-02, 1.17812268e-02, 4.24067043e-02, 2.33483732e-01,
          1.33532450e-01, 0., 0., 0., 7.03300178e-01, 0., 3.52976888e-01,
          4.81598377e-01, 3.52118790e-01, 3.41736883e-01, 3.63963157e-01,
          4.01441485e-01, 4.01441485e-01, 0., 2.02322379e-01,
          4.01441485e-01, 3.24887753e-01, 3.41736883e-01, 4.87691253e-01,
          1.85534190e-02, 7.27290064e-02, 1.19742423e-01, 0.,
          1.54227108e-01, 4.87691253e-01, 4.87691253e-01, 4.87691253e-01,
          0., 0., 0., 0., 0., 0., 7.72893071e-01, 6.28428638e-01, 0., 0.,
          0., 0., 0., 0., 0., 0., 0., 0., 1.75665617e-01, 2.60162562e-01,
          5.81943214e-01, 5.81943214e-01, 1.51057318e-01, 8.77764672e-02,
          3.77070308e-01, 1.21519394e-01, 1.75665617e-01, 2.30996490e-01,
          5.15981205e-02, 2.60067284e-01, 4.42360610e-01, 3.32389891e-01,
          3.47898632e-01, 4.42360610e-01, 4.42360610e-01, 2.30996490e-01,
          0., 0., 0., 0., 0., 0., 7.04615593e-01, 7.04615593e-01, 0., 0.,
          0., 0., 0., 0., 0., 0., 0., 0. ]
      - [ 4.01102453e-01, 4.01102453e-01, 4.01102453e-01, 5.23966067e-02,
          4.01102453e-01, 4.01102453e-01, 1.58005863e-01, 5.46147972e-02,
          4.01102453e-01, 3.99174899e-01, 2.77206987e-01, 1.10621780e-01,
          3.99174899e-01, 3.99174899e-01, 3.28336775e-01, 4.92292866e-02,
          3.99174899e-01, 3.99174899e-01, 4.44145918e-01, 0.,
          9.61010307e-02, 4.44145918e-01, 4.44145918e-01, 0., 0.,
          4.44145918e-01, 4.44145918e-01, 5.42074323e-01, 0.,
          4.22275215e-02, 2.96238840e-01, 1.53337270e-01, 0., 0.,
          5.42074323e-01, 5.42074323e-01, 1.29002854e-01, 3.94500911e-01,
          3.94500911e-01, 2.40688205e-01, 1.66273698e-01, 3.94500911e-01,
          3.94500911e-01, 3.94500911e-01, 3.40124339e-01, 1.42501056e-01,
          2.20679957e-02, 1.90098122e-01, 4.47276562e-01, 4.47276562e-01,
          4.40651566e-01, 2.73822784e-01, 4.00822639e-01, 3.29662323e-01,
          2.42099643e-01, 1.38638122e-02, 2.97527313e-01, 4.60454673e-01,
          4.60454673e-01, 0., 0., 4.60454673e-01, 4.60454673e-01,
          1.71437085e-01, 1.49645388e-01, 4.10189152e-01, 4.10189152e-01,
          4.10189152e-01, 9.11528617e-02, 3.07462662e-01, 4.10189152e-01,
          4.10189152e-01, 1.23197259e-02, 2.63537347e-01, 4.30230528e-01,
          4.30230528e-01, 2.46394519e-02, 0., 4.30230528e-01,
          4.30230528e-01, 4.30230528e-01, 3.93617123e-01, 2.88622200e-01,
          3.68349373e-01, 3.93617123e-01, 4.91055213e-02, 0.,
          3.93617123e-01, 3.93617123e-01, 3.93617123e-01, 4.16323096e-01,
          4.16323096e-01, 3.90423954e-01, 1.04440257e-01, 1.86433464e-01,
          1.65413871e-01, 2.77639359e-01, 4.16323096e-01, 4.16323096e-01,
          0., 2.52326727e-01, 3.90623569e-01, 3.90623569e-01,
          3.90623569e-01, 3.90623569e-01, 3.90623569e-01, 3.90623569e-01,
          1.30031303e-01, 2.76203416e-02, 1.37021661e-01, 4.93335217e-01,
          4.93335217e-01, 4.93335217e-01, 0., 2.33330220e-01,
          3.82772207e-01, 2.10804239e-01, 4.05719101e-01, 1.72918767e-01,
          3.16066533e-01, 4.05719101e-01, 4.05719101e-01, 1.86182931e-01,
          9.18906853e-02, 4.05719101e-01, 4.05719101e-01, 2.82979310e-01,
          2.22717077e-01, 1.81159630e-01, 1.26863614e-01, 4.04318571e-01,
          4.04318571e-01, 4.04318571e-01, 4.04318571e-01, 4.04318571e-01,
          0., 0., 0., 0., 4.78852242e-01, 4.78852242e-01, 4.78852242e-01,
          4.78852242e-01, 2.79319525e-01 ]
      - [ 4.99438435e-01, 4.99438435e-01, 3.03279668e-01, 0.,
          6.38498589e-02, 4.99438435e-01, 2.60577232e-01, 5.68487905e-02,
          2.81971544e-01, 4.62068319e-01, 4.62068319e-01, 7.96248764e-02,
          0., 4.62068319e-01, 4.62068319e-01, 2.02039674e-01,
          9.11982078e-03, 3.06778103e-01, 3.46460104e-01, 3.46460104e-01,
          3.46220732e-01, 3.46460104e-01, 3.46460104e-01, 3.46460104e-01,
          1.90859959e-01, 3.46460104e-01, 3.46460104e-01, 2.75577545e-01,
          1.10438406e-01, 3.86617512e-01, 3.86617512e-01, 2.17963442e-01,
          3.36339563e-01, 3.86617512e-01, 3.86617512e-01, 3.86617512e-01,
          3.96512359e-01, 3.96512359e-01, 3.96512359e-01, 0.,
          3.96512359e-01, 3.96512359e-01, 3.96512359e-01, 8.06883946e-02,
          2.14932472e-01, 3.65860879e-01, 4.66887295e-01, 1.32511452e-01,
          0., 4.66887295e-01, 4.66887295e-01, 4.30105746e-01,
          5.10182828e-02, 4.87642586e-02, 5.41527867e-02, 3.00307930e-01,
          4.46596831e-01, 4.46596831e-01, 4.46596831e-01, 4.46596831e-01,
          1.37854874e-01, 2.30759919e-01, 1.79924369e-01, 3.02172482e-01,
          1.53033510e-01, 3.80760729e-01, 3.80760729e-01, 3.80760729e-01,
          1.07685752e-01, 3.80760729e-01, 3.80760729e-01, 3.80760729e-01,
          3.26563239e-01, 3.23943824e-01, 3.68844151e-01, 3.22108954e-01,
          3.68844151e-01, 2.73398850e-02, 3.68844151e-01, 3.68844151e-01,
          3.68844151e-01, 5.65380812e-01, 9.46463048e-02, 8.69463757e-02,
          0., 2.91740187e-02, 2.55766697e-02, 1.31776258e-01,
          5.65380812e-01, 5.65380812e-01, 4.12406594e-01, 4.12406594e-01,
          4.12406594e-01, 2.50668555e-01, 6.83481842e-02, 4.12406594e-01,
          2.72078753e-01, 6.28577843e-02, 4.12406594e-01, 3.67045581e-01,
          3.67045581e-01, 3.42225492e-01, 1.32840797e-01, 3.67045581e-01,
          3.67045581e-01, 3.67045581e-01, 2.30723500e-01, 3.67045581e-01,
          1.24712758e-01, 3.93461585e-01, 4.21319306e-01, 4.21319306e-01,
          4.21319306e-01, 0., 0., 3.99759322e-01, 3.64812940e-01,
          5.51151633e-01, 3.58420685e-02, 3.53188887e-02, 2.65873782e-02,
          5.51151633e-01, 1.67633682e-01, 2.38953773e-02, 2.26452619e-01,
          5.51151633e-01, 4.15262431e-01, 4.15262431e-01, 5.02588041e-02,
          8.74497816e-02, 4.15262431e-01, 4.15262431e-01, 3.52634907e-01,
          4.54801992e-02, 4.11687940e-01, 3.31251174e-01, 3.14413011e-01,
          6.76854327e-02, 2.32562989e-01, 4.80365843e-01, 4.80365843e-01,
          4.80365843e-01, 1.15759768e-01, 1.49325266e-01 ]
      - [ 3.90161157e-01, 3.90161157e-01, 3.90161157e-01, 2.16952786e-01,
          3.41597088e-02, 3.73492390e-01, 2.52451926e-01, 3.68422747e-01,
          3.90161157e-01, 3.55491519e-01, 2.21032247e-01, 3.55491519e-01,
          2.87482560e-01, 3.55491519e-01, 3.26651901e-01, 3.55491519e-01,
          3.55491519e-01, 3.55491519e-01, 4.24884945e-01, 5.23322485e-02,
          2.17976585e-01, 4.24884945e-01, 2.69291729e-01, 0.,
          3.88428062e-01, 4.24884945e-01, 4.24884945e-01, 5.72247684e-01,
          3.44723985e-02, 1.03417203e-01, 0., 0., 0., 0., 5.72247684e-01,
          5.72247684e-01, 2.86973238e-01, 4.43859428e-01, 4.43859428e-01,
          2.21077219e-01, 2.56594628e-01, 3.97981226e-01, 4.43859428e-01,
          1.95797741e-01, 1.03621423e-01, 1.79030716e-01, 2.61034518e-01,
          3.77048820e-01, 3.77048820e-01, 3.77048820e-01, 3.77048820e-01,
          3.77048820e-01, 3.77048820e-01, 2.07478628e-01, 3.82698745e-01,
          2.66984731e-01, 3.82698745e-01, 3.82698745e-01, 3.82698745e-01,
          9.71044227e-03, 2.14596465e-01, 3.82698745e-01, 3.82698745e-01,
          3.65204424e-01, 2.30313763e-01, 3.65204424e-01, 3.41504931e-01,
          1.62590787e-01, 3.65204424e-01, 3.65204424e-01, 3.65204424e-01,
          3.65204424e-01, 3.92903894e-01, 3.92903894e-01, 3.92903894e-01,
          3.92903894e-01, 1.08261749e-01, 3.11928745e-02, 3.92903894e-01,
          3.43085557e-01, 3.06277722e-01, 4.00132895e-01, 4.00132895e-01,
          4.00132895e-01, 1.39789551e-01, 1.99524108e-02, 1.24198742e-01,
          4.00132895e-01, 4.00132895e-01, 4.00132895e-01, 4.02335227e-01,
          4.02335227e-01, 4.02335227e-01, 7.27882981e-02, 2.11785644e-01,
          4.02335227e-01, 2.39387289e-01, 2.81344771e-01, 4.02335227e-01,
          3.35836440e-01, 2.59851217e-01, 3.85653645e-01, 6.10266291e-02,
          1.12345293e-01, 5.04660070e-01, 4.85372305e-01, 2.00151801e-01,
          3.45322788e-01, 3.46519083e-01, 3.77214283e-01, 3.77214283e-01,
          1.64427355e-01, 3.77214283e-01, 3.77214283e-01, 3.77214283e-01,
          2.74293929e-01, 2.49858826e-01, 3.53912652e-01, 3.53912652e-01,
          3.53912652e-01, 3.53912652e-01, 3.53912652e-01, 3.53912652e-01,
          3.53912652e-01, 2.42610857e-01, 2.46626988e-01, 9.79954526e-02,
          2.41482347e-01, 4.09168541e-01, 5.21421283e-02, 4.96370852e-01,
          4.96370852e-01, 4.96370852e-01, 1.21361986e-01, 5.57422899e-02,
          0., 3.58023793e-02, 1.07407138e-01, 0., 6.40939653e-01,
          6.40939653e-01, 3.97831678e-01, 2.57991459e-02, 1.54952724e-02 ]
      - [ 4.30345505e-01, 4.30345505e-01, 4.30345505e-01, 0.,
          2.65697446e-02, 4.30345505e-01, 4.30345505e-01, 1.84480727e-01,
          1.87018663e-01, 3.99463028e-01, 3.99463028e-01, 4.62032780e-02,
          0., 3.99463028e-01, 3.99463028e-01, 3.99463028e-01,
          1.90919340e-01, 3.99463028e-01, 4.71784443e-01, 1.72365382e-01,
          4.40331429e-01, 0., 4.71784443e-01, 0., 6.14979751e-02,
          3.16484481e-01, 4.71784443e-01, 4.67899650e-01, 6.19580131e-03,
          1.85874030e-02, 0., 4.67899650e-01, 2.24446237e-01,
          2.62385398e-01, 4.67899650e-01, 4.67899650e-01, 4.19425458e-01,
          4.19425458e-01, 4.19425458e-01, 0., 1.69775859e-02,
          4.19425458e-01, 4.19425458e-01, 2.81179607e-01, 1.92019209e-01,
          3.57350647e-01, 4.22697991e-01, 1.00016996e-01, 0.,
          4.22697991e-01, 4.22697991e-01, 4.22697991e-01, 3.77927423e-01,
          2.34788395e-02, 1.30054682e-01, 9.83744189e-02, 2.78600842e-01,
          0., 9.23016548e-01, 0., 3.89102139e-02, 7.66762868e-02,
          1.65009543e-01, 3.11187595e-01, 3.19498032e-03, 9.58494097e-03,
          0., 6.90068185e-01, 3.36840481e-01, 2.59807527e-01,
          2.51001626e-01, 4.19540495e-01, 1.86214507e-01, 4.56439018e-01,
          4.56439018e-01, 0., 3.70511681e-01, 2.92226877e-02,
          4.56439018e-01, 3.93885374e-01, 2.06099108e-01, 2.99616069e-01,
          3.60793918e-02, 8.19442049e-02, 0., 2.18317538e-01,
          2.08558545e-01, 5.58609486e-01, 5.58609486e-01, 4.25895631e-01,
          0., 0., 0., 0., 0., 0., 9.26515281e-01, 3.63766044e-01, 0., 0.,
          0., 0., 0., 0., 0., 0., 0., 0., 2.17532933e-01, 3.94578069e-01,
          3.94578069e-01, 2.60308117e-01, 3.94578069e-01, 3.94578069e-01,
          3.94578069e-01, 2.16093615e-01, 2.36265793e-01, 3.13955367e-01,
          3.64220887e-02, 1.09266274e-01, 0., 4.27436084e-01,
          4.27436084e-01, 4.27436084e-01, 4.27436084e-01, 3.91267508e-01,
          0., 0., 0., 0., 0., 0., 8.46443653e-01, 5.24486959e-01, 0., 0.,
          0., 0., 0., 0., 0., 0., 0., 0. ]
      - [ 4.79240745e-01, 4.79240745e-01, 6.87439665e-02, 0.,
          2.30988458e-01, 4.79240745e-01, 1.34861439e-01, 1.60481837e-02,
          4.79240745e-01, 4.22584981e-01, 4.22584981e-01, 8.86450931e-02,
          2.38431796e-01, 4.22584981e-01, 4.22584981e-01, 1.13731585e-01,
          1.58888966e-01, 4.22584981e-01, 4.03706372e-01, 1.13102660e-01,
          2.56811589e-01, 3.44950050e-01, 4.03706372e-01, 3.78685772e-01,
          5.39798476e-02, 4.03706372e-01, 4.03706372e-01, 4.39998001e-01,
          0., 6.49185106e-02, 4.39998001e-01, 4.39998001e-01,
          6.36057258e-02, 1.39116317e-01, 4.39998001e-01, 4.39998001e-01,
          3.97259593e-01, 3.97259593e-01, 3.97259593e-01, 0.,
          3.97259593e-01, 3.97259593e-01, 3.97259593e-01, 1.33230641e-01,
          1.77171811e-01, 4.33567613e-01, 4.33567613e-01, 5.36331944e-02,
          4.94287498e-02, 4.33567613e-01, 4.33567613e-01, 2.23105520e-01,
          2.58619040e-02, 4.33567613e-01, 4.18653697e-01, 4.18653697e-01,
          1.29294947e-01, 2.19629750e-01, 4.18653697e-01, 4.18653697e-01,
          1.21508263e-01, 1.99360728e-01, 4.18653697e-01, 3.88399035e-01,
          1.88791025e-02, 8.86424631e-02, 3.95110279e-01, 3.95110279e-01,
          2.37538636e-01, 3.95110279e-01, 3.95110279e-01, 3.95110279e-01,
          2.00514346e-01, 4.35295165e-01, 4.35295165e-01, 0.,
          2.48337790e-01, 4.35295165e-01, 4.35295165e-01, 3.68543983e-01,
          4.69972752e-03, 2.89091885e-01, 2.44363338e-01, 3.52052785e-03,
          0., 5.94303787e-01, 5.48679411e-01, 4.05194581e-01,
          1.08994313e-01, 1.43029436e-01, 2.84941167e-01, 1.77806839e-01,
          6.12875335e-02, 4.29950625e-01, 5.60955644e-01, 5.60955644e-01,
          1.17243782e-01, 6.10933565e-02, 2.14841843e-01, 3.41448337e-02,
          7.18828244e-03, 9.29079354e-02, 4.30871069e-01, 4.30871069e-01,
          4.30871069e-01, 4.30871069e-01, 4.30871069e-01, 2.39993930e-01,
          0., 2.89515406e-01, 4.27063197e-01, 0., 4.27063197e-01,
          4.27063197e-01, 4.27063197e-01, 4.27063197e-01, 0., 0., 0., 0.,
          0., 0., 6.62360549e-01, 6.62360549e-01, 3.40506256e-01, 0., 0.,
          0., 0., 0., 0., 0., 0., 0., 0., 0., 0., 0., 0., 0., 0., 0., 0.,
          0. ]
      - [ 6.40509963e-01, 6.40509963e-01, 4.03796047e-01, 0., 0.,
          3.70550677e-02, 5.28202206e-03, 0., 9.29894820e-02,
          4.03139263e-01, 4.03139263e-01, 4.03139263e-01, 5.78503236e-02,
          4.03139263e-01, 1.33027494e-01, 3.84072602e-01, 1.21703394e-01,
          4.03139263e-01, 3.99248779e-01, 1.44652367e-01, 3.99248779e-01,
          5.53635322e-02, 3.99248779e-01, 1.24997959e-01, 3.99248779e-01,
          3.99248779e-01, 3.99248779e-01, 4.06628340e-01, 1.96425728e-02,
          5.89277148e-02, 0., 4.06628340e-01, 4.06628340e-01,
          4.06628340e-01, 4.06628340e-01, 4.06628340e-01, 4.57286268e-01,
          4.57286268e-01, 4.57286268e-01, 6.72650263e-02, 0.,
          4.57286268e-01, 3.80521685e-01, 9.83034670e-02, 2.12896266e-03,
          2.85083354e-01, 2.66121179e-01, 1.65273085e-01, 3.65918607e-01,
          4.64729637e-01, 4.64729637e-01, 4.64729637e-01, 1.10724993e-01,
          1.47893727e-01, 2.81970561e-01, 7.24220797e-02, 2.79598266e-01,
          4.37278003e-01, 4.75378275e-01, 4.75378275e-01, 2.79199690e-01,
          1.06954500e-01, 3.15834612e-01, 3.60839248e-01, 1.60039011e-02,
          4.80116941e-02, 0., 4.89772230e-01, 4.89772230e-01,
          4.04556811e-01, 1.94429457e-01, 4.25581217e-01, 3.64781231e-01,
          3.57610434e-01, 3.64781231e-01, 3.64781231e-01, 1.38730422e-01,
          2.25459531e-01, 3.64781231e-01, 3.64781231e-01, 3.64781231e-01,
          4.77568172e-02, 6.34451881e-02, 2.16437921e-01, 2.83934236e-01,
          3.41843367e-02, 4.63796526e-01, 4.63796526e-01, 4.63796526e-01,
          4.63796526e-01, 0., 0., 0., 0., 9.95024860e-01, 0., 0., 0., 0.,
          0., 0., 0., 0., 0., 0., 0., 0., 0., 3.15232933e-01,
          3.80962253e-01, 3.80962253e-01, 3.80962253e-01, 3.80962253e-01,
          1.05000779e-01, 2.89555907e-01, 2.76212335e-01, 3.80962253e-01,
          7.59314671e-02, 2.76459530e-02, 9.79686156e-02, 1.05445296e-01,
          4.58047003e-01, 3.93067330e-01, 4.58047003e-01, 4.58047003e-01,
          4.29249585e-01, 0., 0., 0., 0., 0., 0., 0., 0., 0., 0., 0., 0.,
          0., 0., 0., 0., 0., 0. ]
      - [ 5.44432580e-01, 5.44432580e-01, 5.44432580e-01, 0., 0.,
          2.67111421e-01, 3.80754508e-02, 0., 1.80400163e-01,
          3.51593584e-01, 3.51593584e-01, 3.51593584e-01, 3.51593584e-01,
          3.51593584e-01, 1.57921046e-01, 3.51593584e-01, 3.51593584e-01,
          3.25916946e-01, 3.79733771e-01, 3.20500791e-01, 3.79733771e-01,
          1.68224081e-01, 3.79733771e-01, 0., 3.79733771e-01,
          3.79733771e-01, 3.79733771e-01, 2.21580878e-01, 1.47888765e-01,
          4.43666309e-01, 0., 0., 0., 4.92366225e-01, 4.92366225e-01,
          4.92366225e-01, 4.22279656e-01, 4.22279656e-01, 4.22279656e-01,
          0., 1.79045707e-01, 4.22279656e-01, 3.43347162e-01,
          8.07347149e-02, 3.55019063e-01, 3.07739317e-01, 4.32616472e-01,
          4.32616472e-01, 1.24177828e-01, 1.64891988e-01, 4.32616472e-01,
          4.32616472e-01, 3.27150613e-01, 5.20574301e-02, 2.02234656e-01,
          4.00190920e-01, 4.16741431e-01, 4.16741431e-01, 5.67582324e-02,
          0., 4.16741431e-01, 4.16741431e-01, 3.11239660e-01,
          2.38232631e-02, 9.50473249e-02, 2.99987584e-01, 1.04146384e-01,
          0., 0., 5.85153520e-01, 5.85153520e-01, 4.45990056e-01,
          3.50267380e-01, 3.50267380e-01, 3.50267380e-01, 3.50267380e-01,
          2.11582989e-01, 3.50267380e-01, 3.50267380e-01, 3.04831773e-01,
          3.50267380e-01, 3.51898879e-01, 3.51898879e-01, 3.51898879e-01,
          7.62985945e-02, 3.51898879e-01, 3.51898879e-01, 3.51898879e-01,
          3.51898879e-01, 3.51898879e-01, 2.48950973e-01, 4.89984244e-01,
          4.89984244e-01, 1.69849396e-01, 1.89080104e-01, 1.02611572e-01,
          4.89984244e-01, 3.41017157e-01, 1.46472707e-01, 8.01638514e-02,
          1.73162669e-01, 4.71293420e-01, 1.77487154e-02, 3.28982443e-01,
          1.14107706e-01, 5.24501681e-01, 5.24501681e-01, 2.53897369e-01,
          1.64084554e-01, 1.16012193e-01, 4.35630709e-01, 4.35630709e-01,
          4.35630709e-01, 4.35630709e-01, 2.43023366e-01, 2.45455429e-01,
          2.77237386e-01, 3.78876895e-01, 2.58728176e-01, 3.78876895e-01,
          3.78876895e-01, 3.78876895e-01, 1.07141703e-01, 2.96970814e-01,
          3.34462523e-01, 3.78876895e-01, 3.76065344e-01, 3.76065344e-01,
          3.76065344e-01, 2.75469393e-01, 3.76065344e-01, 3.76065344e-01,
          3.76065344e-01, 2.49335200e-01, 9.81868207e-02, 1.01731740e-01,
          2.08923101e-01, 4.02073145e-01, 4.50766534e-02, 4.49826688e-01,
          4.00374562e-01, 4.49826688e-01, 4.49826688e-01, 1.02382258e-01 ]
      - [ 3.43313068e-01, 3.43313068e-01, 3.43313068e-01, 3.43313068e-01,
          3.28487992e-01, 2.52227008e-01, 3.43313068e-01, 3.43313068e-01,
          3.43313068e-01, 4.18103546e-01, 3.08519397e-02, 1.77899435e-01,
          4.18103546e-01, 4.18103546e-01, 7.55539984e-02, 2.88897812e-01,
          4.18103546e-01, 4.18103546e-01, 3.90772432e-01, 2.62123436e-01,
          3.90772432e-01, 3.73805821e-01, 3.90772432e-01, 9.42909494e-02,
          1.23492360e-01, 3.90772432e-01, 3.90772432e-01, 4.18586493e-01,
          1.05278827e-01, 1.91486120e-01, 9.21677873e-02, 2.79865950e-01,
          4.00486410e-01, 4.18586493e-01, 4.18586493e-01, 4.18586493e-01,
          0., 4.40047324e-01, 4.40047324e-01, 4.40047324e-01,
          3.24243493e-02, 2.43666228e-02, 4.40047324e-01, 4.40047324e-01,
          1.60471916e-01, 3.43383521e-01, 3.84285390e-01, 3.84285390e-01,
          2.77154297e-01, 3.84285390e-01, 1.78372338e-01, 3.84285390e-01,
          3.84285390e-01, 1.76751569e-01, 4.35611695e-01, 4.35611695e-01,
          4.35611695e-01, 1.00932069e-01, 3.38523388e-01, 4.35611695e-01,
          2.28200585e-01, 4.45333570e-02, 2.40363076e-01, 3.76499265e-01,
          3.76499265e-01, 2.38804102e-01, 2.18458846e-02, 3.76499265e-01,
          3.76499265e-01, 3.76499265e-01, 2.97024935e-01, 3.76499265e-01,
          0., 4.36277211e-01, 4.36277211e-01, 4.36277211e-01, 0., 0.,
          4.36277211e-01, 4.36277211e-01, 2.09649876e-01, 3.29373807e-01,
          3.72104555e-01, 3.72104555e-01, 1.98455110e-01, 2.94256419e-01,
          2.68025517e-01, 3.72104555e-01, 3.72104555e-01, 3.68970454e-01,
          4.41933453e-01, 4.41933453e-01, 2.83659190e-01, 2.14666858e-01,
          2.68749416e-01, 4.41933453e-01, 4.41933453e-01, 1.07040569e-01,
          6.43155575e-02, 4.36029375e-01, 4.90596116e-01, 8.53223279e-02,
          4.30656150e-02, 2.29274660e-01, 4.90596116e-01, 4.90596116e-01,
          1.36604548e-01, 5.06218560e-02, 5.04701436e-02, 4.67718273e-01,
          4.67718273e-01, 4.67718273e-01, 2.72649199e-01, 7.16258138e-02,
          3.68241638e-01, 3.07683080e-01, 1.63588867e-01, 3.43270808e-01,
          3.43270808e-01, 3.43270808e-01, 2.32145503e-01, 3.43270808e-01,
          3.43270808e-01, 3.43270808e-01, 3.43270808e-01, 3.43270808e-01,
          3.52207929e-01, 4.28027451e-01, 2.59712666e-01, 1.31624177e-01,
          4.28027451e-01, 4.28027451e-01, 4.28027451e-01, 2.19526008e-01,
          7.66590759e-02, 3.85596342e-02, 6.42006919e-02, 3.11277825e-02,
          2.18370825e-01, 5.39299428e-01, 5.39299428e-01, 5.39299428e-01,
          2.60421544e-01, 0. ]
      - [ 4.89518315e-01, 4.89518315e-01, 4.89518315e-01, 0., 0.,
          1.08236767e-01, 1.51119292e-01, 4.52302285e-02, 4.89518315e-01,
          4.86021191e-01, 4.86021191e-01, 1.30730823e-01, 0.,
          4.86021191e-01, 1.36310577e-01, 1.16457097e-01, 3.23422253e-02,
          4.86021191e-01, 3.90294880e-01, 3.90294880e-01, 1.82532042e-01,
          2.85090536e-01, 3.90294880e-01, 1.18271410e-01, 3.90294880e-01,
          3.25373232e-01, 3.90294880e-01, 4.03579623e-01, 1.01456985e-01,
          3.93817186e-01, 4.03579623e-01, 1.27279982e-01, 0.,
          4.03579623e-01, 4.03579623e-01, 4.03579623e-01, 4.36994612e-01,
          4.36994612e-01, 4.36994612e-01, 0., 2.41113439e-01,
          4.36994612e-01, 2.95147806e-01, 3.91132981e-02, 2.91547775e-01,
          4.31902796e-01, 4.31902796e-01, 2.97864050e-01, 0.,
          4.31902796e-01, 4.31902796e-01, 3.23237866e-01, 5.52146398e-02,
          2.30805248e-01, 4.00757521e-01, 3.86272341e-01, 4.00757521e-01,
          4.00757521e-01, 4.00757521e-01, 1.71620354e-01, 1.06904261e-01,
          5.36211915e-02, 4.00757521e-01, 3.73483896e-01, 2.25024223e-01,
          3.73483896e-01, 3.02626461e-01, 3.73483896e-01, 1.30800352e-01,
          3.73483896e-01, 3.73483896e-01, 3.73483896e-01, 3.37846339e-01,
          3.37846339e-01, 3.37846339e-01, 2.88969070e-01, 3.37846339e-01,
          3.37846339e-01, 3.37846339e-01, 3.37846339e-01, 3.37846339e-01,
          4.75077957e-01, 5.62490672e-02, 9.48057249e-02, 1.45702392e-01,
          1.56148612e-01, 4.75077957e-01, 1.86266229e-01, 4.75077957e-01,
          4.75077957e-01, 4.24377292e-01, 4.24377292e-01, 4.24377292e-01,
          3.37629288e-01, 4.24377292e-01, 3.47027555e-02, 4.94671147e-03,
          1.20575568e-02, 4.00010765e-01, 3.44757944e-01, 3.87637317e-01,
          3.87637317e-01, 1.56654015e-01, 3.87637317e-01, 3.87637317e-01,
          3.87637317e-01, 2.81455129e-01, 1.48990959e-01, 3.59244406e-01,
          9.83380303e-02, 4.21173662e-01, 4.21173662e-01, 4.21173662e-01,
          0., 0., 3.84078920e-01, 4.21173662e-01, 4.29256648e-01,
          6.87177703e-02, 1.43781826e-01, 4.29256648e-01, 4.29256648e-01,
          0., 2.21382961e-01, 4.29256648e-01, 4.29256648e-01,
          3.77811402e-01, 3.77811402e-01, 3.77811402e-01, 0.,
          3.77811402e-01, 3.77811402e-01, 3.56938094e-01, 1.11229062e-01,
          3.77811402e-01, 4.15362120e-01, 4.15362120e-01, 1.31101578e-01,
          0., 4.15362120e-01, 4.15362120e-01, 4.15362120e-01,
          1.95898280e-01, 2.78672755e-01 ]
      - [ 3.42752486e-01, 3.65943193e-01, 3.65943193e-01, 0.,
          3.55891258e-01, 3.65943193e-01, 3.65943193e-01, 3.65943193e-01,
          2.87461162e-01, 4.21866417e-01, 1.38268754e-01, 4.21866417e-01,
          4.21866417e-01, 4.21866417e-01, 4.84540090e-02, 2.52281636e-01,
          1.44281924e-01, 4.21866417e-01, 4.41399336e-01, 0.,
          1.42399445e-01, 4.41399336e-01, 4.41399336e-01, 0.,
          3.38598303e-02, 4.41399336e-01, 4.41399336e-01, 4.15378302e-01,
          1.12644956e-01, 3.44246417e-01, 4.42775339e-02, 4.15378302e-01,
          0., 4.15378302e-01, 4.15378302e-01, 4.15378302e-01, 0.,
          4.38696444e-01, 4.38696444e-01, 0., 0., 4.38696444e-01,
          4.38696444e-01, 4.38696444e-01, 1.82606593e-01, 0., 0.,
          1.35246236e-02, 9.48793367e-02, 1.58593610e-01, 5.53223908e-01,
          5.53223908e-01, 5.53223908e-01, 2.04861820e-01, 0.,
          2.79541146e-02, 1.98591068e-01, 6.89581335e-01, 6.89581335e-01,
          0., 4.08201925e-02, 1.36067308e-02, 0., 3.96329075e-01,
          3.96329075e-01, 3.96329075e-01, 3.76397511e-03, 3.89246941e-01,
          0., 3.96329075e-01, 3.19558412e-01, 3.37770224e-01,
          1.16788514e-01, 3.70072782e-01, 4.10699219e-01, 4.10699219e-01,
          3.03182695e-02, 3.18632796e-02, 4.10699219e-01, 4.10699219e-01,
          4.10699219e-01, 4.95061934e-01, 5.19259945e-02, 4.62818816e-02,
          0., 9.86169726e-02, 1.21145062e-02, 4.95061934e-01,
          4.95061934e-01, 4.95061934e-01, 4.97776419e-01, 4.97776419e-01,
          4.97776419e-01, 0., 0., 5.84868267e-02, 8.33701622e-03,
          2.03213915e-02, 4.97776419e-01, 4.22472537e-01, 4.22472537e-01,
          4.22472537e-01, 0., 0., 4.22472537e-01, 4.22472537e-01,
          3.18036169e-01, 4.70896326e-02, 1.91504657e-01, 3.43601257e-01,
          3.79524767e-01, 3.79524767e-01, 3.79524767e-01, 3.34972441e-01,
          1.49012372e-01, 3.61808121e-01, 3.79524767e-01, 4.71005678e-01,
          5.46451360e-02, 7.44631290e-02, 3.03799212e-01, 4.71005678e-01,
          7.93797672e-02, 2.80024260e-02, 4.71005678e-01, 4.71005678e-01,
          4.55031365e-01, 4.55031365e-01, 1.00391358e-02, 0.,
          4.55031365e-01, 4.04262096e-01, 5.76256253e-02, 1.97852608e-02,
          4.55031365e-01, 4.32873636e-01, 4.32873636e-01, 1.46056071e-01,
          0., 4.32873636e-01, 4.32873636e-01, 4.32873636e-01,
          7.11926892e-02, 1.79937020e-01 ]
      - [ 3.91871542e-01, 2.14774907e-01, 3.91871542e-01, 3.91871542e-01,
          3.91871542e-01, 1.40000597e-01, 9.47464928e-02, 3.91871542e-01,
          3.91871542e-01, 3.89089078e-01, 1.54557571e-01, 3.89089078e-01,
          3.89089078e-01, 3.89089078e-01, 2.21021682e-01, 1.22606531e-01,
          3.89089078e-01, 3.89089078e-01, 4.32728022e-01, 4.32728022e-01,
          1.53970405e-01, 1.22325309e-01, 4.32728022e-01, 0.,
          1.44011632e-01, 4.32728022e-01, 4.32728022e-01, 4.02273178e-01,
          4.02273178e-01, 1.58236936e-01, 0., 4.02273178e-01, 0.,
          4.02273178e-01, 4.02273178e-01, 4.02273178e-01, 1.77869841e-01,
          3.69330823e-01, 3.73235792e-01, 3.73235792e-01, 3.73235792e-01,
          2.90823519e-01, 3.73235792e-01, 3.73235792e-01, 2.17082769e-01,
          1.05855547e-01, 2.44425163e-01, 4.47851509e-01, 4.28555310e-01,
          4.47851509e-01, 3.02949727e-01, 4.05859172e-01, 2.31500313e-01,
          1.72288373e-01, 4.03817356e-01, 3.40434015e-01, 3.18400949e-01,
          4.63150799e-01, 4.63150799e-01, 0., 2.64759898e-01,
          1.72001570e-01, 2.93821841e-01, 3.36376250e-01, 3.57117474e-01,
          3.57117474e-01, 2.08499163e-01, 3.57117474e-01, 3.57117474e-01,
          3.57117474e-01, 3.57117474e-01, 2.73155212e-01, 3.69607925e-01,
          4.13197279e-01, 4.13197279e-01, 0., 4.13197279e-01, 0.,
          4.13197279e-01, 2.82245815e-01, 3.10920537e-01, 3.96297961e-01,
          3.96297961e-01, 3.79750043e-01, 1.13882475e-01, 1.70765936e-01,
          3.96297961e-01, 3.96297961e-01, 1.56334043e-01, 3.96297961e-01,
          3.62318128e-01, 3.62318128e-01, 3.62318128e-01, 2.52527028e-01,
          3.62318128e-01, 3.62318128e-01, 3.62318128e-01, 1.17000908e-01,
          3.62318128e-01, 2.06405506e-01, 4.04041290e-01, 4.04041290e-01,
          1.72800999e-02, 3.66919100e-01, 4.04041290e-01, 4.04041290e-01,
          4.04041290e-01, 4.67467047e-02, 3.58502328e-01, 3.58502328e-01,
          3.58502328e-01, 3.58502328e-01, 3.58502328e-01, 3.25273007e-01,
          3.58502328e-01, 1.04107760e-01, 3.29596281e-01, 4.68369007e-01,
          4.68369007e-01, 1.18625678e-01, 6.60062656e-02, 2.60800481e-01,
          4.68369007e-01, 4.68369007e-01, 9.01107639e-02, 1.52571425e-01,
          2.09621891e-01, 4.25799102e-01, 4.25799102e-01, 1.74870253e-01,
          4.25799102e-01, 4.25799102e-01, 4.25799102e-01, 9.67847779e-02,
          7.30341971e-02, 3.45356483e-03, 2.51637429e-01, 4.65205818e-01,
          0., 4.65205818e-01, 4.65205818e-01, 4.65205818e-01,
          2.57569849e-01, 3.45356483e-03 ]
      - [ 4.29755747e-01, 4.29755747e-01, 3.13981712e-01, 0.,
          2.88577288e-01, 4.29755747e-01, 2.68768072e-01, 5.33798076e-02,
          4.29755747e-01, 3.93695682e-01, 3.93695682e-01, 2.53205240e-01,
          0., 3.93695682e-01, 3.93695682e-01, 3.84443164e-01,
          9.57916528e-02, 3.93695682e-01, 3.57455462e-01, 2.76690364e-01,
          3.57455462e-01, 3.28561097e-01, 3.57455462e-01, 2.25898519e-01,
          3.57455462e-01, 3.49308819e-01, 3.57455462e-01, 3.57913494e-01,
          2.45898336e-01, 3.80432367e-01, 3.80432367e-01, 2.89805740e-01,
          0., 3.80432367e-01, 3.80432367e-01, 3.80432367e-01,
          3.79054904e-01, 3.79054904e-01, 3.79054904e-01, 0.,
          3.79054904e-01, 3.79054904e-01, 3.79054904e-01, 2.46211514e-01,
          2.71103710e-01, 3.03505242e-01, 3.55184048e-01, 1.29004464e-01,
          0., 5.34304500e-01, 5.34304500e-01, 4.10920590e-01,
          8.04698542e-02, 1.16004989e-01, 3.55594307e-02, 4.87747192e-01,
          4.87747192e-01, 5.18298410e-02, 4.87747192e-01, 4.49139446e-01,
          2.65754312e-01, 6.72438741e-02, 2.47433800e-02, 1.44759240e-02,
          4.20210749e-01, 4.20210749e-01, 4.20210749e-01, 7.02057928e-02,
          0., 4.20210749e-01, 4.20210749e-01, 3.28296304e-01,
          3.42993170e-01, 2.48618051e-01, 3.68975699e-01, 3.68975699e-01,
          3.68975699e-01, 0., 3.68975699e-01, 3.68975699e-01,
          3.68975699e-01, 4.63838816e-01, 3.31940800e-01, 2.11450174e-01,
          3.49673517e-02, 5.84489554e-02, 0., 4.36340123e-01,
          4.63838816e-01, 4.63838816e-01, 4.39611644e-01, 4.37457740e-01,
          4.39611644e-01, 0., 2.81663716e-01, 0., 3.61409485e-01,
          1.20469838e-01, 4.39611644e-01, 3.51901650e-01, 3.51901650e-01,
          3.51901650e-01, 3.51901650e-01, 3.51901650e-01, 7.61967748e-02,
          3.51901650e-01, 3.51901650e-01, 3.51901650e-01, 1.34921849e-01,
          1.35944828e-01, 4.33700949e-01, 4.33700949e-01, 4.33700949e-01,
          0., 1.36015370e-01, 4.33700949e-01, 4.33700949e-01,
          3.62241179e-01, 2.48446673e-01, 3.62241179e-01, 3.62241179e-01,
          3.62241179e-01, 3.62241179e-01, 1.26982287e-01, 3.62241179e-01,
          3.62241179e-01, 3.81381154e-01, 2.85214245e-01, 3.81381154e-01,
          6.27307296e-02, 3.81381154e-01, 1.95443213e-01, 3.81381154e-01,
          3.81381154e-01, 3.81381154e-01, 4.63616073e-01, 3.90121102e-01,
          1.47130057e-01, 3.46725881e-02, 5.00611901e-01, 1.99557915e-01,
          4.75336224e-01, 1.48963392e-01, 2.57771552e-01 ]
      - [ 4.38116163e-01, 4.38116163e-01, 1.33832037e-01, 1.38441652e-01,
          4.38116163e-01, 2.84110099e-01, 2.96759844e-01, 1.48251280e-01,
          4.38116163e-01, 4.44133133e-01, 4.44133133e-01, 0., 0.,
          4.44133133e-01, 4.44133133e-01, 9.61467922e-02, 6.93582930e-03,
          4.44133133e-01, 4.00776207e-01, 2.81760603e-01, 1.65118158e-01,
          3.93672109e-01, 4.00776207e-01, 4.00776207e-01, 2.33626515e-01,
          1.93126857e-01, 4.00776207e-01, 3.18675309e-01, 6.75322711e-02,
          3.24290633e-01, 4.17895764e-01, 2.55893320e-01, 1.43239632e-01,
          4.17895764e-01, 4.17895764e-01, 4.17895764e-01, 2.79672474e-01,
          3.40960771e-01, 3.62649202e-01, 3.62649202e-01, 3.62649202e-01,
          1.13221936e-01, 3.62649202e-01, 3.62649202e-01, 3.62649202e-01,
          2.28648543e-01, 1.02367900e-01, 6.18556552e-02, 1.49523750e-01,
          4.25864518e-01, 4.25864518e-01, 4.25864518e-01, 4.25864518e-01,
          4.25864518e-01, 5.15474938e-02, 2.28885487e-01, 4.77852196e-01,
          4.77852196e-01, 4.77852196e-01, 4.77852196e-01, 9.73807350e-02,
          8.35442171e-02, 1.01725131e-01, 1.58443287e-01, 2.44724214e-01,
          4.01512772e-01, 4.01512772e-01, 3.23833078e-01, 8.01965687e-03,
          4.01512772e-01, 4.01512772e-01, 4.01512772e-01, 1.28816202e-01,
          2.77413577e-01, 4.34233248e-01, 4.34233248e-01, 3.47508073e-01,
          0., 1.64665297e-01, 4.34233248e-01, 4.34233248e-01,
          1.76737696e-01, 1.20556071e-01, 4.17671502e-01, 4.17671502e-01,
          2.78944999e-01, 0., 4.17671502e-01, 4.17671502e-01,
          4.17671502e-01, 9.81648862e-02, 4.90824431e-02, 1.47247329e-01,
          0., 0., 0., 5.65868676e-01, 5.65868676e-01, 5.65868676e-01,
          7.19989017e-02, 4.60616112e-01, 4.60616112e-01, 4.60616112e-01,
          1.02704942e-01, 0., 4.60616112e-01, 3.44870746e-01,
          1.09828003e-01, 4.36155051e-01, 3.12506646e-01, 4.36155051e-01,
          3.68129551e-01, 4.36155051e-01, 0., 2.56524999e-02,
          2.96730008e-02, 4.36155051e-01, 3.89074326e-01, 3.02968591e-01,
          3.37367713e-01, 3.89074326e-01, 3.89074326e-01, 0.,
          1.83335930e-01, 3.89074326e-01, 3.89074326e-01, 5.28940558e-01,
          1.06876614e-02, 3.20629850e-02, 0., 5.28940558e-01, 0.,
          1.84206404e-02, 3.92303109e-01, 5.28940558e-01, 3.87873828e-01,
          3.87873828e-01, 3.87873828e-01, 0., 3.87873828e-01,
          2.44642988e-01, 3.87873828e-01, 1.83298185e-01, 3.87873828e-01 ]
      - [ 4.25962299e-01, 4.25962299e-01, 2.86231786e-01, 0.,
          3.32786500e-01, 4.25962299e-01, 3.38793725e-01, 6.42330125e-02,
          3.73939455e-01, 3.86377811e-01, 3.68284553e-01, 3.86377811e-01,
          0., 3.86377811e-01, 2.99004078e-01, 3.86377811e-01,
          1.57047436e-01, 3.86377811e-01, 4.13388699e-01, 1.76193669e-01,
          2.86894053e-01, 4.13388699e-01, 4.13388699e-01, 0.,
          1.67532176e-01, 4.13388699e-01, 4.13388699e-01, 2.02539548e-01,
          3.92489731e-02, 2.12356344e-01, 4.56738859e-01, 2.70810574e-01,
          0., 4.56738859e-01, 4.56738859e-01, 4.56738859e-01,
          4.01649773e-01, 4.01649773e-01, 4.01649773e-01, 0.,
          1.60851061e-01, 4.01649773e-01, 4.01649773e-01, 2.63164699e-01,
          3.06995481e-01, 4.07380193e-01, 2.15204209e-01, 1.09637246e-01,
          0., 4.07380193e-01, 4.07380193e-01, 4.07380193e-01,
          4.07380193e-01, 3.28335345e-01, 1.33277550e-01, 3.30323547e-01,
          4.46990877e-01, 4.46990877e-01, 4.46990877e-01, 0.,
          1.23225436e-01, 3.76733661e-01, 3.34877998e-01, 1.96927860e-01,
          1.46825314e-01, 4.10251379e-01, 4.10251379e-01, 3.06647211e-01,
          0., 4.10251379e-01, 4.10251379e-01, 4.10251379e-01,
          3.87316495e-01, 3.87316495e-01, 3.87316495e-01, 0.,
          3.87316495e-01, 3.87316495e-01, 3.87316495e-01, 2.98335284e-01,
          8.39179233e-02, 1.81370422e-01, 2.07840547e-01, 1.45605728e-01,
          0., 9.99649987e-02, 5.41590869e-01, 5.41590869e-01,
          5.41590869e-01, 8.56899098e-02, 4.74058002e-01, 3.10388654e-01,
          4.74058002e-01, 4.74058002e-01, 0., 0., 0., 0., 4.74058002e-01,
          3.54433864e-01, 3.42191726e-01, 3.54433864e-01, 3.54433864e-01,
          3.54433864e-01, 0., 3.54433864e-01, 3.54433864e-01,
          3.54433864e-01, 3.56721640e-01, 3.56721640e-01, 3.56721640e-01,
          1.13705806e-01, 3.56721640e-01, 3.04556638e-01, 3.56721640e-01,
          3.56721640e-01, 3.56721640e-01, 4.82874602e-01, 1.99950397e-01,
          0., 0., 4.82874602e-01, 4.82874602e-01, 1.40597418e-01,
          5.25129735e-02, 4.82874602e-01, 5.20342767e-01, 4.27239388e-01,
          0., 0., 5.20342767e-01, 0., 0., 0., 5.20342767e-01,
          3.97837579e-01, 3.01451892e-01, 2.46760115e-01, 0.,
          3.97837579e-01, 3.97837579e-01, 3.95655572e-01, 2.33708560e-01,
          3.97837579e-01 ]
      - [ 4.70479101e-01, 4.70479101e-01, 4.70479101e-01, 0.,
          5.99405542e-02, 1.53503358e-01, 2.74997294e-01, 8.43720436e-02,
          4.70479101e-01, 3.99092525e-01, 3.99092525e-01, 3.06851417e-01,
          2.60679871e-01, 3.99092525e-01, 3.99092525e-01, 1.90726936e-01,
          3.39166671e-02, 3.99092525e-01, 4.26461279e-01, 4.26461279e-01,
          4.25262973e-02, 2.10397601e-01, 4.26461279e-01, 4.26461279e-01,
          1.06925249e-01, 1.69956580e-01, 4.26461279e-01, 2.22166225e-01,
          1.85430869e-01, 2.17685521e-01, 4.47533041e-01, 4.47533041e-01,
          2.72318535e-02, 2.50030845e-01, 4.47533041e-01, 4.47533041e-01,
          3.71504366e-01, 3.71504366e-01, 3.71504366e-01, 0.,
          3.71504366e-01, 3.71504366e-01, 3.71504366e-01, 1.73723921e-01,
          3.71504366e-01, 4.03646231e-01, 4.03646231e-01, 2.63187826e-01,
          2.42558151e-01, 4.03646231e-01, 4.03646231e-01, 4.03646231e-01,
          1.46652430e-01, 1.78064451e-01, 2.04240322e-01, 1.52522892e-01,
          2.32938647e-01, 4.10261601e-01, 5.66021621e-01, 5.66021621e-01,
          2.00506419e-01, 1.98635925e-02, 1.59490779e-01, 1.10435687e-01,
          4.25607264e-01, 4.25607264e-01, 4.25607264e-01, 8.01695660e-02,
          7.77205545e-03, 4.25607264e-01, 4.25607264e-01, 2.67127752e-01,
          3.62191588e-01, 3.62191588e-01, 3.62191588e-01, 2.78050363e-01,
          3.62191588e-01, 2.81103775e-02, 3.62191588e-01, 3.62191588e-01,
          3.62191588e-01, 4.46675599e-01, 4.46675599e-01, 2.17074171e-01,
          1.54710069e-01, 3.05253297e-01, 2.91832983e-02, 1.79928690e-01,
          4.46675599e-01, 4.46675599e-01, 4.14904803e-01, 4.14904803e-01,
          1.54921234e-01, 0., 2.12889433e-01, 4.14904803e-01,
          2.56520629e-01, 4.14904803e-01, 4.14904803e-01, 3.58394861e-01,
          3.58394861e-01, 3.58394861e-01, 3.58394861e-01, 3.58394861e-01,
          3.58394861e-01, 3.58394861e-01, 2.81032741e-01, 1.35320827e-01,
          3.35112125e-01, 3.87137204e-01, 3.87137204e-01, 3.87137204e-01,
          3.87137204e-01, 5.12417443e-02, 2.22719312e-01, 2.86751986e-01,
          3.87137204e-01, 3.70297998e-01, 2.06727177e-01, 3.70297998e-01,
          3.70297998e-01, 3.70297998e-01, 3.70297998e-01, 2.48735756e-01,
          2.62624085e-01, 3.70297998e-01, 4.22384769e-01, 2.54817486e-01,
          4.30966839e-02, 0., 5.01134276e-01, 5.01134276e-01,
          3.58321041e-01, 1.09014921e-01, 3.27486485e-01, 2.46007189e-01,
          2.88796961e-01, 1.93002284e-01, 1.75715059e-01, 4.94014651e-01,
          4.94014651e-01, 4.94014651e-01, 1.90638632e-01, 1.20508976e-01 ]
      - [ 3.91914696e-01, 3.91914696e-01, 3.91914696e-01, 3.91914696e-01,
          2.23242015e-01, 1.96469009e-01, 3.54618222e-01, 2.44028464e-01,
          3.28565270e-01, 3.85413706e-01, 1.09348290e-01, 2.03360513e-01,
          3.85413706e-01, 3.85413706e-01, 2.51997024e-01, 3.69615942e-01,
          3.85413706e-01, 3.85413706e-01, 4.16330576e-01, 1.14648648e-01,
          3.62714827e-01, 1.31669313e-01, 4.16330576e-01, 0.,
          3.74797463e-01, 4.16330576e-01, 4.16330576e-01, 3.87047768e-01,
          3.87047768e-01, 3.87047768e-01, 3.60798508e-01, 7.00495392e-02,
          5.19639626e-02, 3.87047768e-01, 3.87047768e-01, 3.30636799e-01,
          4.28043574e-01, 4.28043574e-01, 4.28043574e-01, 2.37919595e-02,
          3.74609791e-03, 4.28043574e-01, 4.28043574e-01, 2.81135976e-01,
          0., 1.33492738e-01, 3.19485784e-01, 3.12308639e-01,
          1.44768149e-01, 3.53459567e-01, 4.59019035e-01, 4.59019035e-01,
          4.59019035e-01, 0., 2.74885744e-01, 4.72136825e-01,
          4.72136825e-01, 1.43457707e-02, 4.32865053e-01, 1.76632870e-02,
          4.72136825e-01, 1.65460959e-01, 1.88984767e-01, 4.10030037e-01,
          4.10030037e-01, 4.10030037e-01, 0., 1.23873511e-02,
          4.10030037e-01, 4.10030037e-01, 3.72448415e-01, 1.28099039e-01,
          2.60570139e-01, 4.04227704e-01, 4.04227704e-01, 1.95272148e-01,
          1.14626728e-01, 4.04227704e-01, 4.04227704e-01, 4.04227704e-01,
          2.44528815e-01, 4.10359532e-01, 1.14289196e-02, 3.91765013e-02,
          2.34678090e-01, 4.10359532e-01, 3.11747968e-01, 4.10359532e-01,
          4.10359532e-01, 4.10359532e-01, 4.20830458e-01, 4.20830458e-01,
          4.20830458e-01, 1.46224260e-01, 1.75926656e-01, 1.46224290e-01,
          4.20830458e-01, 1.91289201e-01, 4.20830458e-01, 1.55033782e-01,
          3.24091226e-01, 4.62965488e-01, 5.46005694e-03, 3.23449373e-02,
          4.62965488e-01, 4.62965488e-01, 4.62965488e-01, 8.87741968e-02,
          1.24140918e-01, 2.28924617e-01, 4.45114285e-01, 4.45114285e-01,
          4.45114285e-01, 4.45114285e-01, 2.90256828e-01, 1.40392393e-01,
          1.76834732e-01, 3.61049831e-01, 0., 6.62760660e-02,
          4.64946687e-01, 5.20490408e-01, 9.88988131e-02, 2.64427848e-02,
          3.02615643e-01, 5.20490408e-01, 4.37293142e-01, 1.49833024e-01,
          3.00551802e-01, 4.37293142e-01, 4.37293142e-01, 5.44652436e-03,
          3.27301741e-01, 1.40657872e-01, 4.26888376e-01, 8.91433135e-02,
          8.85014683e-02, 1.93982914e-01, 3.57061476e-01, 5.18505454e-01,
          5.65598160e-02, 5.18505454e-01, 5.18505454e-01, 6.46345839e-02 ]
      - [ 3.47593814e-01, 3.47593814e-01, 3.47593814e-01, 1.73076630e-01,
          3.47593814e-01, 3.47593814e-01, 3.47593814e-01, 3.47593814e-01,
          3.47593814e-01, 4.05745745e-01, 2.47191444e-01, 2.19679177e-01,
          4.05745745e-01, 1.27440006e-01, 2.17243984e-01, 4.05745745e-01,
          4.05745745e-01, 4.05745745e-01, 4.88822609e-01, 0., 0., 0., 0.,
          1.98311985e-01, 4.88822609e-01, 4.88822609e-01, 4.88822609e-01,
          0., 0., 0., 0., 0., 0., 0., 0., 0., 3.54016796e-02,
          4.01766628e-01, 4.24203932e-01, 3.28975290e-01, 4.24203932e-01,
          4.40409221e-02, 4.24203932e-01, 4.24203932e-01, 5.59682772e-02,
          3.32938015e-01, 3.32938015e-01, 3.32938015e-01, 3.32938015e-01,
          3.32938015e-01, 3.31499070e-01, 3.32938015e-01, 3.32938015e-01,
          3.32938015e-01, 3.70466113e-01, 2.73442984e-01, 2.31478050e-01,
          3.70466113e-01, 2.48588786e-01, 3.46299559e-01, 3.70466113e-01,
          3.70466113e-01, 3.70466113e-01, 0., 0., 0., 0., 2.13298321e-01,
          0., 6.26794279e-01, 6.26794279e-01, 4.03117388e-01,
          3.91879112e-01, 3.91879112e-01, 3.91879112e-01, 0.,
          3.91879112e-01, 2.15512186e-01, 3.91879112e-01, 1.68000475e-01,
          3.91879112e-01, 3.35876286e-01, 3.35876286e-01, 3.35876286e-01,
          3.35876286e-01, 3.35876286e-01, 3.35876286e-01, 3.06824356e-01,
          3.35876286e-01, 3.35876286e-01, 3.80623996e-01, 2.65483320e-01,
          2.84051299e-01, 3.80623996e-01, 3.80623996e-01, 1.33963436e-01,
          3.20486486e-01, 3.80623996e-01, 3.80623996e-01, 4.27353621e-01,
          4.25305098e-01, 1.91472918e-02, 1.34324044e-01, 2.56734371e-01,
          0., 4.27353621e-01, 4.27353621e-01, 4.27353621e-01,
          3.46382290e-01, 3.46382290e-01, 3.46382290e-01, 1.91556305e-01,
          3.46382290e-01, 3.46382290e-01, 3.46382290e-01, 3.46382290e-01,
          3.46382290e-01, 3.86984617e-01, 3.88393611e-01, 2.34910339e-01,
          3.42564732e-01, 3.88393611e-01, 3.88393611e-01, 3.88393611e-01,
          2.16852486e-01, 1.52989000e-01, 3.42883319e-01, 9.22785699e-02,
          3.06303591e-01, 5.04027784e-01, 5.04027784e-01, 9.21410974e-03,
          9.51681659e-02, 2.61331260e-01, 4.35357422e-01, 4.01560634e-01,
          4.77385111e-02, 1.41929567e-01, 4.01560634e-01, 4.01560634e-01,
          1.94910496e-01, 3.59611779e-01, 4.01560634e-01, 4.01560634e-01 ]
      - [ 0., 0., 0., 0., 0., 0., 0., 0., 0., 4.56730038e-01,
          4.56730038e-01, 4.56730038e-01, 3.25909287e-01, 2.32139856e-01,
          0., 2.88185440e-02, 9.60618164e-03, 4.56730038e-01,
          4.60620731e-01, 1.04703367e-01, 1.31530613e-01, 7.17496276e-02,
          7.34239668e-02, 3.28498095e-01, 4.60620731e-01, 4.60620731e-01,
          4.60620731e-01, 4.89520371e-01, 0., 0., 0., 0., 1.91285104e-01,
          4.89520371e-01, 4.89520371e-01, 4.89520371e-01, 0., 0., 0., 0.,
          0., 0., 0., 0., 0., 4.33584303e-01, 4.33584303e-01,
          4.33584303e-01, 4.33584303e-01, 4.33584303e-01, 1.81950536e-02,
          4.70927991e-02, 1.48330601e-02, 2.30050132e-01, 3.41480225e-01,
          3.18366379e-01, 3.41480225e-01, 3.40142816e-01, 3.41480225e-01,
          3.41480225e-01, 3.41480225e-01, 2.82633156e-01, 3.41480225e-01,
          4.32094961e-01, 1.05899451e-02, 3.17698382e-02, 0.,
          2.47046649e-01, 4.32094961e-01, 4.32094961e-01, 4.32094961e-01,
          4.32094961e-01, 5.09544909e-01, 5.09544909e-01, 5.09544909e-01,
          2.30870381e-01, 1.08358003e-01, 6.48256764e-02, 9.05090868e-02,
          2.70895008e-02, 3.71257663e-01, 3.90243113e-01, 3.90243113e-01,
          3.90243113e-01, 2.87868325e-02, 3.90243113e-01, 3.90243113e-01,
          3.77012551e-01, 8.70472193e-02, 2.90014833e-01, 3.13346565e-01,
          3.61899734e-01, 2.86642343e-01, 2.31015068e-02, 4.58606005e-01,
          4.58606005e-01, 4.58606005e-01, 1.71127647e-01, 1.52713239e-01,
          0., 1.50025021e-02, 4.50075120e-02, 0., 5.59880435e-01,
          5.59880435e-01, 5.59880435e-01, 2.27508590e-01, 0.,
          4.35613722e-01, 4.35613722e-01, 4.35613722e-01, 4.35613722e-01,
          4.35613722e-01, 1.79147214e-01, 1.01936780e-01, 2.54667345e-02,
          6.09803945e-02, 3.29220772e-01, 4.29835021e-01, 2.22110510e-01,
          2.01530367e-01, 4.34161663e-01, 4.34161663e-01, 4.34161663e-01,
          1.87167704e-01, 1.09773248e-01, 1.63688026e-02, 4.59766649e-02,
          5.61692268e-02, 0., 5.50258100e-01, 5.50258100e-01,
          5.50258100e-01, 2.83929974e-01, 0., 0., 0., 0., 0., 0., 0., 0.,
          0., 0. ]
      - [ 3.57543826e-01, 4.35718447e-01, 4.35718447e-01, 4.35718447e-01,
          4.35718447e-01, 1.28686905e-01, 1.65967986e-01, 4.92080972e-02,
          2.48758465e-01, 3.49062324e-01, 3.11989129e-01, 3.49062324e-01,
          3.49062324e-01, 3.49062324e-01, 3.07947189e-01, 3.49062324e-01,
          2.70696968e-01, 3.49062324e-01, 4.68788475e-01, 7.27034062e-02,
          2.48018563e-01, 2.09816203e-01, 7.37920180e-02, 0.,
          4.68788475e-01, 4.68788475e-01, 4.68788475e-01, 1.77791968e-01,
          0., 0., 0., 0., 0., 6.34538651e-01, 6.34538651e-01,
          3.95949751e-01, 0., 5.60118973e-01, 5.60118973e-01, 0., 0.,
          1.77000146e-02, 5.60118973e-01, 2.29986295e-01, 0., 0.,
          4.17662024e-01, 4.25451338e-01, 4.25451338e-01, 3.17826569e-01,
          3.23076136e-02, 4.25451338e-01, 4.19791043e-01, 0., 0.,
          2.90681839e-01, 4.51009661e-01, 4.51009661e-01, 3.08449566e-01,
          0., 4.51009661e-01, 4.51009661e-01, 4.71079610e-02, 0.,
          3.07452045e-02, 9.22356173e-02, 0., 0., 0., 6.93424761e-01,
          6.93424761e-01, 1.48153141e-01, 7.27378130e-02, 6.36381447e-01,
          6.36381447e-01, 0., 0., 0., 2.94012219e-01, 2.53624827e-01,
          1.66205466e-01, 3.25411171e-01, 3.66143197e-01, 4.33734268e-01,
          5.41970581e-02, 1.65867247e-02, 0., 4.33734268e-01,
          4.33734268e-01, 4.33734268e-01, 5.53701408e-02, 4.42149132e-01,
          4.42149132e-01, 3.56879830e-01, 1.43099204e-01, 8.82996991e-03,
          4.42149132e-01, 4.42149132e-01, 2.50231117e-01, 3.51544768e-01,
          6.24443293e-02, 1.93532452e-01, 4.34911475e-02, 1.11854248e-01,
          1.13943592e-01, 5.17207563e-01, 5.17207563e-01, 5.17207563e-01,
          1.54791009e-02, 5.67225099e-01, 5.67225099e-01, 0.,
          5.67225099e-01, 1.66370481e-01, 2.37153154e-02, 1.12658003e-02,
          2.22454742e-02, 4.34580743e-02, 3.26112598e-01, 4.19348478e-01,
          0., 4.19348478e-01, 4.19348478e-01, 4.19348478e-01,
          4.19348478e-01, 9.11439583e-02, 3.48609090e-02, 4.11859363e-01,
          4.17724937e-01, 4.17724937e-01, 4.17724937e-01, 2.93348938e-01,
          4.17724937e-01, 1.91190764e-01, 6.63300231e-02, 1.09917723e-01,
          9.73420069e-02, 3.12685370e-01, 1.44931689e-01, 4.46391821e-01,
          4.46391821e-01, 4.46391821e-01, 4.46391821e-01, 2.41130143e-01 ]
      - [ 4.46574599e-01, 4.46574599e-01, 3.30210954e-01, 0.,
          3.12876374e-01, 4.46574599e-01, 3.66636187e-01, 8.38734657e-02,
          2.21054316e-01, 3.62480253e-01, 3.62480253e-01, 1.95172116e-01,
          3.62480253e-01, 3.62480253e-01, 3.62480253e-01, 1.96323767e-01,
          3.62480253e-01, 3.62480253e-01, 2.96563327e-01, 9.07623097e-02,
          3.15507829e-01, 3.99081796e-01, 3.51245522e-01, 1.99604392e-01,
          3.99081796e-01, 3.99081796e-01, 3.99081796e-01, 1.31517991e-01,
          0., 2.24313121e-02, 1.57362461e-01, 0., 0., 4.89249676e-01,
          5.96704900e-01, 5.96704900e-01, 2.59207517e-01, 3.69260788e-01,
          3.69260788e-01, 3.46286148e-01, 3.36728841e-02, 3.69260788e-01,
          3.69260788e-01, 3.69260788e-01, 3.55396539e-01, 7.66325444e-02,
          1.63605556e-01, 3.75037462e-01, 3.79072934e-01, 3.79072934e-01,
          3.79072934e-01, 3.79072934e-01, 3.79072934e-01, 3.23170364e-01,
          1.41794354e-01, 2.18878016e-01, 4.45692271e-01, 4.45692271e-01,
          2.70415902e-01, 1.93626866e-01, 1.49507374e-01, 4.45692271e-01,
          4.45692271e-01, 1.34354308e-01, 6.07605241e-02, 2.94003457e-01,
          4.81733531e-01, 6.92177117e-02, 2.49344647e-01, 3.51912081e-01,
          4.81733531e-01, 4.81733531e-01, 2.03012545e-02, 1.61625817e-01,
          4.47049767e-01, 4.47049767e-01, 1.94846898e-01, 2.96176523e-02,
          3.61584097e-01, 4.47049767e-01, 4.47049767e-01, 3.74055177e-01,
          1.29720390e-01, 3.74055177e-01, 3.74055177e-01, 3.74055177e-01,
          3.82249593e-03, 3.74055177e-01, 3.74055177e-01, 3.74055177e-01,
          4.04844582e-01, 2.80008972e-01, 4.04844582e-01, 4.04844582e-01,
          2.91045129e-01, 1.04906574e-01, 4.83980253e-02, 4.04844582e-01,
          4.04844582e-01, 3.32551479e-01, 2.25178108e-01, 2.70739228e-01,
          4.30234879e-01, 1.66505203e-01, 2.08171383e-01, 3.67071480e-01,
          4.30234879e-01, 4.30234879e-01, 4.47262414e-02, 9.34632421e-02,
          5.11118293e-01, 5.11118293e-01, 5.11118293e-01, 0.,
          1.92690760e-01, 3.43683600e-01, 2.12569252e-01, 2.91486949e-01,
          2.31735557e-01, 4.04627472e-01, 4.04627472e-01, 4.04627472e-01,
          0., 3.82418007e-01, 2.74783194e-01, 3.79963398e-01,
          4.08349037e-01, 1.65193588e-01, 2.13439941e-01, 4.08349037e-01,
          4.08349037e-01, 3.82515818e-01, 6.11411035e-02, 3.25611234e-01,
          4.08349037e-01, 4.11532640e-01, 3.45139146e-01, 2.73625944e-02,
          1.91956893e-01, 4.11532640e-01, 4.11532640e-01, 4.11532640e-01,
          1.32476345e-01, 3.79717290e-01 ]
      - [ 4.48775381e-01, 4.48775381e-01, 1.27664328e-01, 0.,
          4.04878467e-01, 4.48775381e-01, 9.84646156e-02, 0.,
          4.48775381e-01, 4.29404020e-01, 4.29404020e-01, 2.26326451e-01,
          0., 4.29404020e-01, 4.29404020e-01, 1.50159121e-01, 0.,
          4.29404020e-01, 4.45584863e-01, 2.11306602e-01, 3.40467721e-01,
          1.13214158e-01, 4.45584863e-01, 4.45584863e-01, 8.69640708e-02,
          1.42886639e-01, 4.45584863e-01, 3.47987831e-01, 2.68588245e-01,
          3.56251240e-01, 2.21488312e-01, 3.45794439e-01, 3.56251240e-01,
          3.56251240e-01, 3.56251240e-01, 3.56251240e-01, 3.71746749e-01,
          3.71746749e-01, 3.71746749e-01, 6.63382187e-02, 3.71746749e-01,
          3.71746749e-01, 3.71746749e-01, 3.64840597e-01, 1.72054723e-01,
          3.14540863e-01, 2.71174520e-01, 0., 0., 5.46803176e-01,
          5.46803176e-01, 4.19872433e-01, 1.13479584e-01, 1.86842516e-01,
          4.46554506e-03, 5.45209587e-01, 5.45209587e-01, 4.69887070e-02,
          5.45209587e-01, 3.13918203e-01, 4.47475389e-02, 0.,
          4.46554506e-03, 0., 4.51746523e-01, 4.51746523e-01,
          1.92467477e-02, 1.56249600e-02, 4.51746523e-01, 4.51746523e-01,
          4.22449261e-01, 1.04898550e-02, 2.61502415e-01, 2.32322127e-01,
          3.81625980e-01, 3.81625980e-01, 3.81625980e-01, 0.,
          3.81625980e-01, 3.81625980e-01, 3.81625980e-01, 4.22054440e-01,
          8.70120153e-02, 3.93754959e-01, 4.22054440e-01, 2.89961696e-01,
          0., 1.91238686e-01, 4.22054440e-01, 4.22054440e-01,
          4.04862940e-01, 4.04862940e-01, 4.04862940e-01, 1.07017882e-01,
          1.31652892e-01, 3.63449812e-01, 1.24516137e-01, 4.04862940e-01,
          4.04862940e-01, 3.29358518e-01, 4.21257585e-01, 4.21257585e-01,
          0., 0., 4.21257585e-01, 4.21257585e-01, 4.21257585e-01,
          4.99072345e-03, 7.07287043e-02, 2.23608628e-01, 5.14138639e-01,
          5.14138639e-01, 5.14138639e-01, 0., 3.00495386e-01,
          1.99044079e-01, 1.30116567e-01, 2.52986014e-01, 2.13559791e-02,
          3.05560887e-01, 4.57544893e-01, 4.57544893e-01, 0.,
          1.46616297e-02, 4.57544893e-01, 4.57544893e-01, 4.00115728e-01,
          3.79032552e-01, 9.35216546e-02, 2.40016416e-01, 4.00115728e-01,
          4.00115728e-01, 7.94408396e-02, 3.73231322e-01, 4.00115728e-01,
          2.78284103e-01, 4.67250496e-01, 1.70764774e-01, 0.,
          4.60535288e-01, 4.67250496e-01, 4.67250496e-01, 1.46102861e-01,
          1.79547761e-02 ]
      - [ 5.47405243e-01, 5.47405243e-01, 0., 0., 0., 5.47405243e-01,
          2.05405042e-01, 3.82216237e-02, 2.27867842e-01, 4.17159230e-01,
          4.17159230e-01, 2.23407000e-01, 0., 4.17159230e-01,
          4.17159230e-01, 2.71175951e-01, 4.77137528e-02, 4.17159230e-01,
          4.07130808e-01, 1.30728543e-01, 2.49859422e-01, 4.07130808e-01,
          4.07130808e-01, 3.84238899e-01, 6.14822395e-02, 3.19329977e-01,
          4.07130808e-01, 4.27925408e-01, 2.28684209e-02, 1.30156055e-01,
          4.27925408e-01, 2.50322044e-01, 0., 4.27925408e-01,
          4.27925408e-01, 4.27925408e-01, 4.54753250e-01, 4.54753250e-01,
          4.39711481e-01, 0., 2.45557144e-01, 4.54753250e-01,
          3.23923200e-01, 4.13153656e-02, 1.21565789e-01, 4.04967844e-01,
          4.04967844e-01, 2.72957653e-01, 0., 3.09206039e-01,
          4.04967844e-01, 4.04967844e-01, 7.64562115e-02, 4.04967844e-01,
          3.32971841e-01, 3.65298092e-01, 3.94640565e-01, 3.94640565e-01,
          3.94640565e-01, 1.86648920e-01, 3.21985215e-01, 1.43182069e-01,
          3.54270756e-01, 2.25483030e-01, 1.09003283e-01, 4.38945144e-01,
          4.44435894e-01, 4.85243835e-02, 0., 4.44435894e-01,
          4.44435894e-01, 3.81102443e-01, 2.95754403e-01, 3.76930803e-01,
          3.76930803e-01, 3.13138962e-01, 2.44804516e-01, 2.74203449e-01,
          3.76930803e-01, 3.76930803e-01, 3.27541590e-01, 3.56271118e-01,
          3.56271118e-01, 3.56271118e-01, 2.16280833e-01, 2.47304022e-01,
          3.56271118e-01, 3.56271118e-01, 3.56271118e-01, 3.56271118e-01,
          3.97229224e-01, 3.97229224e-01, 3.97229224e-01, 3.28659862e-01,
          1.35033950e-01, 1.86478660e-01, 3.97229224e-01, 2.14594305e-01,
          3.97229224e-01, 1.93141147e-01, 3.93248618e-01, 3.93248618e-01,
          1.75787717e-01, 0., 3.93248618e-01, 3.93248618e-01,
          3.93248618e-01, 3.93248618e-01, 3.33255351e-01, 2.39377454e-01,
          4.11288232e-01, 4.11288232e-01, 4.11288232e-01, 0.,
          9.01497081e-02, 3.77851337e-01, 4.11288232e-01, 4.50532883e-01,
          1.27822921e-01, 1.87657759e-01, 4.50532883e-01, 4.50532883e-01,
          0., 1.57009736e-01, 3.27679694e-01, 4.50532883e-01,
          4.92058188e-01, 4.18037087e-01, 1.34452477e-01, 1.70477614e-01,
          4.92058188e-01, 4.77648936e-02, 8.53320956e-02, 1.93037689e-01,
          4.92058188e-01, 2.61655509e-01, 3.01583558e-01, 2.36301795e-01,
          0., 4.48768228e-01, 4.48768228e-01, 4.48768228e-01,
          3.95479083e-01, 1.40285999e-01 ]
      - [ 4.75705832e-01, 4.75705832e-01, 4.75705832e-01, 2.26996869e-01,
          0., 1.09714612e-01, 1.56392921e-02, 1.62034452e-01,
          4.75705832e-01, 4.76486206e-01, 4.76486206e-01, 1.36942878e-01,
          1.56213894e-01, 1.20657459e-01, 4.76486206e-01, 1.67126089e-01,
          3.79329212e-02, 4.76486206e-01, 3.75514030e-01, 3.75514030e-01,
          7.28738755e-02, 3.75514030e-01, 3.75514030e-01, 3.75514030e-01,
          6.21480085e-02, 3.75514030e-01, 3.75514030e-01, 4.04671431e-01,
          2.23066714e-02, 1.13603838e-01, 4.04671431e-01, 4.04671431e-01,
          0., 4.04671431e-01, 4.04671431e-01, 4.04671431e-01,
          4.94572461e-01, 4.94572461e-01, 3.58617991e-01, 4.09630239e-02,
          2.32342109e-01, 4.94572461e-01, 1.58927694e-01, 1.30959600e-01,
          1.85953364e-01, 3.78256291e-01, 3.78256291e-01, 1.49019301e-01,
          2.54097611e-01, 3.78256291e-01, 3.78256291e-01, 2.54357457e-01,
          3.59668940e-01, 3.78256291e-01, 3.74352992e-01, 7.21385628e-02,
          1.00374170e-01, 3.74352992e-01, 3.74352992e-01, 3.74352992e-01,
          3.74352992e-01, 3.74352992e-01, 3.74352992e-01, 2.00153887e-01,
          2.76676089e-01, 3.84870917e-01, 3.84870917e-01, 3.84870917e-01,
          0., 3.84870917e-01, 3.84870917e-01, 3.72713894e-01,
          3.57601374e-01, 3.57601374e-01, 3.57601374e-01, 3.57601374e-01,
          3.57601374e-01, 3.57601374e-01, 2.96411842e-01, 1.73167109e-01,
          3.33628267e-01, 3.78048629e-01, 3.78048629e-01, 4.66519669e-02,
          1.66522980e-01, 3.78048629e-01, 3.78048629e-01, 3.69612098e-01,
          3.39263737e-01, 3.78048629e-01, 3.82975221e-01, 3.82975221e-01,
          7.14734802e-03, 5.01408130e-02, 3.82975221e-01, 3.52447361e-01,
          3.82975221e-01, 3.68835241e-01, 3.82975221e-01, 3.79057378e-01,
          3.79057378e-01, 3.79057378e-01, 0., 3.79057378e-01,
          2.20464334e-01, 3.79057378e-01, 2.92406529e-01, 3.79057378e-01,
          1.91795319e-01, 1.36829361e-01, 5.44353306e-01, 5.77040374e-01,
          1.36676505e-01, 2.82285288e-02, 2.88087457e-01, 3.48187238e-01,
          2.92793632e-01, 4.10098612e-01, 2.27062434e-01, 1.16034091e-01,
          4.10098612e-01, 4.10098612e-01, 3.07759255e-01, 1.88449994e-01,
          3.57672125e-01, 4.10098612e-01, 4.32094395e-01, 4.32094395e-01,
          0., 0., 4.32094395e-01, 4.32094395e-01, 2.45891884e-01,
          4.11482789e-02, 4.32094395e-01, 4.47000474e-01, 3.18511277e-01,
          0., 0., 4.47000474e-01, 4.47000474e-01, 4.47000474e-01,
          1.68250591e-01, 2.57952780e-01 ]
      - [ 3.84163231e-01, 3.84163231e-01, 3.84163231e-01, 3.84163231e-01,
          3.84163231e-01, 1.27987698e-01, 2.93086678e-01, 9.16142315e-02,
          3.84163231e-01, 5.52078784e-01, 8.69425088e-02, 1.48081724e-02,
          3.17220725e-02, 5.52078784e-01, 9.66193601e-02, 1.18179083e-01,
          2.19152302e-01, 5.52078784e-01, 4.06054646e-01, 2.36912102e-01,
          4.06054646e-01, 2.60030657e-01, 4.06054646e-01, 2.16440320e-01,
          3.08525320e-02, 4.06054646e-01, 4.06054646e-01, 3.79768223e-01,
          1.78098410e-01, 3.79768223e-01, 3.37296903e-01, 1.50132617e-02,
          3.79768223e-01, 3.59684229e-01, 3.79768223e-01, 3.79768223e-01,
          1.25437722e-01, 4.62991536e-01, 4.62991536e-01, 0.,
          1.38652071e-01, 4.62991536e-01, 4.62991536e-01, 3.20892334e-01,
          0., 4.67031561e-02, 1.32378817e-01, 1.63858175e-01, 0.,
          5.06230354e-01, 5.06230354e-01, 5.06230354e-01, 4.23770785e-01,
          0., 0., 4.41386282e-01, 4.41386282e-01, 1.73819482e-01,
          4.41386282e-01, 2.22464338e-01, 3.95482302e-01, 3.86763722e-01,
          1.59466475e-01, 4.60797735e-02, 3.05829674e-01, 3.73061419e-01,
          3.73061419e-01, 3.73061419e-01, 3.73061419e-01, 3.73061419e-01,
          3.73061419e-01, 2.56063938e-01, 3.76758069e-01, 3.76758069e-01,
          3.76758069e-01, 4.87711243e-02, 3.76758069e-01, 1.03451803e-01,
          3.76758069e-01, 3.62595081e-01, 3.76758069e-01, 5.27808130e-01,
          4.98355925e-02, 8.02555308e-03, 0., 2.62644947e-01,
          1.10238798e-01, 5.27808130e-01, 2.74411350e-01, 5.27808130e-01,
          2.10408568e-01, 4.95114654e-01, 4.95114654e-01, 0., 0.,
          1.59302667e-01, 4.95114654e-01, 3.52581054e-01, 2.56274581e-01,
          6.88334508e-03, 2.99545616e-01, 5.18769979e-01, 0.,
          4.64385748e-02, 3.08734238e-01, 5.18769979e-01, 5.18769979e-01,
          1.42779332e-02, 3.78831029e-01, 3.78831029e-01, 2.63170987e-01,
          3.78831029e-01, 3.78831029e-01, 1.73158839e-01, 3.78831029e-01,
          1.89458728e-01, 3.78831029e-01, 4.42898989e-01, 5.90912141e-02,
          6.09002933e-02, 4.27234054e-01, 4.42898989e-01, 4.42898989e-01,
          1.33084565e-01, 5.91328703e-02, 4.42898989e-01, 3.51387292e-01,
          3.03242505e-01, 3.51387292e-01, 3.51387292e-01, 3.51387292e-01,
          3.32402229e-01, 2.30659753e-01, 3.51387292e-01, 3.51387292e-01,
          8.67038220e-02, 2.60351449e-01, 3.47976118e-01, 0.,
          4.46619481e-01, 4.46619481e-01, 4.46619481e-01, 4.46619481e-01,
          3.57105136e-02 ]
      - [ 4.10625041e-01, 4.10625041e-01, 3.73658687e-01, 0.,
          4.10625041e-01, 4.10625041e-01, 1.13985859e-01, 1.48275476e-02,
          4.10625041e-01, 4.31840509e-01, 4.31840509e-01, 0., 0.,
          4.31840509e-01, 4.31840509e-01, 1.00644417e-01, 2.30490312e-01,
          4.31840509e-01, 4.75029141e-01, 1.67508032e-02, 1.28718778e-01,
          4.75029141e-01, 4.75029141e-01, 3.61182615e-02, 5.14848437e-03,
          2.72881776e-01, 4.75029141e-01, 3.93950105e-01, 3.88966650e-02,
          2.51736462e-01, 3.93950105e-01, 3.93950105e-01, 0.,
          3.93950105e-01, 3.93950105e-01, 3.93950105e-01, 3.91178697e-01,
          2.44078726e-01, 3.91178697e-01, 0., 3.91178697e-01,
          1.35620654e-01, 3.91178697e-01, 3.91178697e-01, 3.91178697e-01,
          0., 0., 0., 0., 6.75835729e-01, 6.75835729e-01, 2.78573543e-01,
          4.62809056e-02, 0., 0., 0., 1.58648819e-01, 6.95094526e-01,
          6.95094526e-01, 3.93379964e-02, 5.60744293e-03, 0., 0.,
          2.40578633e-02, 3.94991606e-01, 4.24083441e-01, 4.24083441e-01,
          4.24083441e-01, 0., 4.24083441e-01, 3.43134344e-01,
          4.51471508e-02, 2.00355455e-01, 4.03180361e-01, 4.36584473e-01,
          7.72143826e-02, 1.56703994e-01, 0., 4.36584473e-01,
          4.36584473e-01, 4.36584473e-01, 0., 0., 0., 0., 0., 0.,
          6.43150151e-01, 6.43150151e-01, 4.07792419e-01, 0., 0., 0., 0.,
          0., 0., 0., 0., 0., 0., 2.10667089e-01, 6.32001221e-01, 0.,
          6.35604560e-01, 0., 3.62310946e-01, 1.20770313e-01, 0.,
          1.46265835e-01, 3.06313127e-01, 4.01066303e-01, 4.01066303e-01,
          3.19757998e-01, 0., 4.01066303e-01, 4.01066303e-01,
          3.67572963e-01, 5.10901809e-01, 0., 5.79597522e-03,
          4.06605229e-02, 5.10901809e-01, 0., 3.79521221e-01,
          2.57123321e-01, 5.10901809e-01, 5.75688422e-01, 0., 0., 0.,
          5.75688422e-01, 0., 0., 0., 5.75688422e-01, 4.91277277e-01, 0.,
          0., 0., 4.91277277e-01, 0., 4.91277277e-01, 1.72278270e-01,
          4.91277277e-01 ]
      - [ 2.83651680e-01, 1.35922134e-01, 4.15211588e-01, 4.15211588e-01,
          4.15211588e-01, 0., 1.86857358e-01, 4.15211588e-01,
          4.15211588e-01, 3.73745680e-01, 1.35886282e-01, 3.73745680e-01,
          3.73745680e-01, 3.73745680e-01, 0., 3.73745680e-01,
          3.73745680e-01, 3.73745680e-01, 3.85160774e-01, 1.86409608e-01,
          3.85160774e-01, 2.67040640e-01, 3.85160774e-01, 0.,
          3.85160774e-01, 3.85160774e-01, 3.85160774e-01, 3.83771032e-01,
          2.17087150e-01, 3.83771032e-01, 3.42814714e-01, 3.08408916e-01,
          0., 3.83771032e-01, 3.83771032e-01, 3.83771032e-01,
          4.18590516e-01, 3.22807282e-01, 4.18590516e-01, 9.05827805e-02,
          8.55493695e-02, 0., 4.18590516e-01, 4.18590516e-01,
          4.18590516e-01, 1.79053903e-01, 1.97861373e-01, 4.84848976e-01,
          2.87421912e-01, 4.84848976e-01, 0., 4.84848976e-01,
          2.82690257e-01, 2.37038448e-01, 2.79250503e-01, 2.60872304e-01,
          3.93185109e-01, 3.93185109e-01, 3.93185109e-01, 0.,
          3.93185109e-01, 3.40924591e-01, 3.39748561e-01, 3.50224882e-01,
          3.50224882e-01, 3.50224882e-01, 2.82521904e-01, 3.50224882e-01,
          3.50224882e-01, 3.50224882e-01, 3.50224882e-01, 2.40997747e-01,
          1.91122852e-02, 4.39416081e-01, 5.16727686e-01, 0., 0., 0.,
          5.16727686e-01, 5.16727686e-01, 1.91122852e-02, 0., 0., 0., 0.,
          0., 0., 7.04615593e-01, 7.04615593e-01, 0., 5.02071559e-01,
          5.02071559e-01, 5.02071559e-01, 0., 1.27535433e-01,
          3.96855980e-01, 2.41617054e-01, 6.16823733e-02, 5.30531332e-02,
          4.35904086e-01, 4.35904086e-01, 4.20945972e-01, 0.,
          6.31774366e-02, 4.35904086e-01, 4.35904086e-01, 2.33083367e-01,
          9.03027505e-03, 0., 3.46258849e-01, 4.67822611e-01, 0.,
          4.67822611e-01, 0., 4.67822611e-01, 4.67822611e-01, 0.,
          3.68770123e-01, 3.92763376e-01, 4.23216015e-01, 0.,
          2.97393650e-01, 0., 4.23216015e-01, 3.50513905e-01,
          3.68770123e-01, 3.90516847e-01, 3.90516847e-01, 3.90516847e-01,
          0., 3.90516847e-01, 3.74968112e-01, 3.90516847e-01,
          1.44463494e-01, 2.68534899e-01, 3.36984366e-01, 4.02050257e-01,
          2.50255734e-01, 0., 4.02050257e-01, 4.02050257e-01,
          4.02050257e-01, 4.02050257e-01, 1.07587151e-01 ]
      - [ 4.00200188e-01, 4.00200188e-01, 4.00200188e-01, 0.,
          2.12557346e-01, 4.00200188e-01, 4.00200188e-01, 2.12426171e-01,
          3.23876083e-01, 3.70484054e-01, 3.59462827e-01, 3.70484054e-01,
          1.69798378e-02, 3.70484054e-01, 3.70484054e-01, 3.70484054e-01,
          2.07957104e-01, 3.70484054e-01, 4.52297896e-01, 1.75421551e-01,
          4.52297896e-01, 2.27835014e-01, 2.93855250e-01, 0.,
          9.03121382e-02, 4.52297896e-01, 4.52297896e-01, 4.03330088e-01,
          4.46141846e-02, 1.71102837e-01, 2.61392176e-01, 2.31399760e-01,
          0., 1.35777622e-01, 5.74462593e-01, 5.74462593e-01,
          3.54719996e-01, 3.54719996e-01, 3.54719996e-01, 2.47831345e-01,
          2.32919902e-01, 3.54719996e-01, 3.54719996e-01, 3.54719996e-01,
          3.54719996e-01, 4.56717014e-01, 1.10672571e-01, 1.74197584e-01,
          9.13746729e-02, 4.56717014e-01, 4.56717014e-01, 1.59986317e-01,
          2.90754348e-01, 4.56717014e-01, 1.51094794e-01, 1.05298035e-01,
          4.77192134e-01, 4.77192134e-01, 4.77192134e-01, 0.,
          1.48428500e-01, 3.74029994e-01, 3.40954691e-01, 3.50585580e-02,
          1.87604114e-01, 4.29342270e-01, 4.29342270e-01, 1.93940669e-01,
          0., 4.29342270e-01, 4.29342270e-01, 4.29342270e-01,
          7.49673098e-02, 3.25630456e-01, 4.39037710e-01, 4.39037710e-01,
          2.48003826e-01, 8.23289827e-02, 2.11326003e-01, 4.39037710e-01,
          4.39037710e-01, 2.89309114e-01, 1.19814046e-01, 3.90189439e-01,
          4.77796465e-01, 2.26163149e-01, 7.85459876e-02, 5.23179621e-02,
          4.77796465e-01, 4.77796465e-01, 4.16086107e-01, 4.16086107e-01,
          3.01061034e-01, 2.10379645e-01, 4.09299254e-01, 1.75625738e-02,
          2.45207231e-02, 4.16086107e-01, 4.16086107e-01, 3.90046269e-01,
          3.90046269e-01, 3.90046269e-01, 2.22785011e-01, 6.65136427e-02,
          3.90046269e-01, 3.90046269e-01, 3.90046269e-01, 1.70967221e-01,
          1.37661979e-01, 2.12953180e-01, 4.81470883e-01, 4.81470883e-01,
          4.81470883e-01, 1.95077762e-01, 6.31591156e-02, 3.40864152e-01,
          2.77877569e-01, 3.22267741e-01, 2.87682325e-01, 3.66626143e-01,
          3.66626143e-01, 3.66626143e-01, 3.66626143e-01, 5.68429083e-02,
          3.66626143e-01, 3.66626143e-01, 4.48405713e-01, 1.67787656e-01,
          9.93210301e-02, 3.56559783e-01, 4.48405713e-01, 4.48405713e-01,
          1.08569369e-01, 1.19627506e-01, 4.48405713e-01, 2.53896356e-01,
          2.22464442e-01, 9.62077007e-02, 5.07884361e-02, 5.08668125e-01,
          5.08668125e-01, 5.08668125e-01, 2.71718949e-01, 1.38093546e-01 ]
      - [ 5.07507682e-01, 5.07507682e-01, 4.27699268e-01, 0., 0.,
          5.07507682e-01, 9.95922536e-02, 0., 1.71447247e-01,
          3.78551483e-01, 3.78551483e-01, 1.40461326e-01, 3.78551483e-01,
          2.89932609e-01, 3.78551483e-01, 1.80611551e-01, 3.78551483e-01,
          3.78551483e-01, 2.07179025e-01, 4.39716801e-02, 2.45736912e-01,
          4.67789173e-01, 1.11354910e-01, 4.87590134e-02, 4.67789173e-01,
          4.67789173e-01, 4.67789173e-01, 4.68390107e-01, 4.66207862e-02,
          1.39862359e-01, 0., 0., 0., 0., 6.13494098e-01, 6.13494098e-01,
          4.05059338e-01, 4.05059338e-01, 4.05059338e-01, 0., 0.,
          4.05059338e-01, 4.05059338e-01, 3.39826316e-01, 2.45165631e-01,
          1.33827552e-01, 2.69852638e-01, 3.59263927e-01, 4.53298092e-01,
          2.54377127e-01, 4.53298092e-01, 4.53298092e-01, 2.80719757e-01,
          1.25389710e-01, 8.85204151e-02, 9.39069986e-02, 4.68889862e-01,
          4.68889862e-01, 2.39006251e-01, 5.53390570e-03, 2.05126360e-01,
          4.68889862e-01, 4.68889862e-01, 1.28500074e-01, 4.85197566e-02,
          2.69672781e-01, 4.80958998e-01, 2.22078264e-01, 0.,
          4.00403589e-01, 4.80958998e-01, 4.80958998e-01, 7.93153495e-02,
          3.76397163e-01, 3.76397163e-01, 3.76397163e-01, 3.76397163e-01,
          2.10472830e-02, 3.76397163e-01, 3.76397163e-01, 3.73439133e-01,
          3.41093123e-01, 8.24839808e-03, 5.95647953e-02, 2.44269997e-01,
          3.38750660e-01, 1.35519132e-02, 4.83256102e-01, 4.83256102e-01,
          4.83256102e-01, 4.53153461e-01, 2.48397723e-01, 4.53153461e-01,
          4.53153461e-01, 1.56028390e-01, 0., 2.79999003e-02,
          2.95383096e-01, 4.53153461e-01, 1.71517044e-01, 2.78809935e-01,
          4.20426458e-01, 4.20426458e-01, 6.96779266e-02, 0.,
          4.20426458e-01, 4.20426458e-01, 4.20426458e-01, 9.51879993e-02,
          1.05893597e-01, 5.31637371e-01, 5.31637371e-01, 5.31637371e-01,
          0., 5.51851019e-02, 2.57656753e-01, 2.38891408e-01,
          4.06351775e-01, 1.94220396e-03, 2.16769084e-01, 4.42546427e-01,
          4.42546427e-01, 0., 8.71106237e-03, 4.42546427e-01,
          4.42546427e-01, 5.39395988e-01, 5.51045462e-02, 5.67983203e-02,
          1.26006514e-01, 5.39395988e-01, 0., 0., 3.15640569e-01,
          5.39395988e-01, 3.43344390e-01, 3.43344390e-01, 3.43344390e-01,
          2.80896336e-01, 3.43344390e-01, 3.43344390e-01, 3.43344390e-01,
          3.43344390e-01, 3.04087460e-01 ]
      - [ 4.46137518e-01, 4.46137518e-01, 4.46137518e-01, 3.57158512e-01,
          2.32946679e-01, 0., 1.25723109e-01, 4.19077054e-02,
          4.46137518e-01, 4.64912415e-01, 4.64912415e-01, 1.55471444e-01,
          4.69555147e-02, 4.64912415e-01, 1.87741280e-01, 2.06855699e-01,
          1.62387893e-01, 4.64912415e-01, 4.64774996e-01, 3.05600166e-01,
          2.04642609e-01, 0., 4.64774996e-01, 3.01091056e-02,
          3.49114507e-01, 2.98752129e-01, 4.64774996e-01, 4.04402882e-01,
          4.04402882e-01, 0., 0., 4.04402882e-01, 1.21284425e-01,
          4.04402882e-01, 4.04402882e-01, 4.04402882e-01, 4.21662867e-01,
          4.21662867e-01, 4.21662867e-01, 1.01371117e-01, 1.36172503e-01,
          4.21662867e-01, 4.21662867e-01, 1.37468189e-01, 2.43050456e-01,
          2.88662195e-01, 4.04161632e-01, 3.87587875e-01, 2.56693903e-02,
          4.23434943e-01, 4.23434943e-01, 4.23434943e-01, 2.10398450e-01,
          1.26710549e-01, 3.06839257e-01, 1.28548518e-02, 0., 0.,
          8.07844937e-01, 2.63415098e-01, 2.49113068e-01, 1.05420038e-01,
          3.20078939e-01, 2.60148048e-01, 1.18746750e-01, 0., 0.,
          8.32234323e-01, 2.43213400e-01, 1.62664950e-01, 2.15008378e-01,
          2.92338789e-01, 4.08119261e-01, 4.08119261e-01, 4.08119261e-01,
          7.46812448e-02, 0., 4.08119261e-01, 4.08119261e-01,
          3.29390645e-01, 2.21451446e-01, 2.98854440e-01, 3.20611298e-01,
          6.35039061e-02, 0., 0., 5.24194598e-01, 5.24194598e-01,
          4.84669268e-01, 1.19005539e-01, 0., 0., 0., 0., 0.,
          5.07374108e-01, 8.18756461e-01, 2.48810872e-01, 0., 0., 0., 0.,
          0., 0., 0., 0., 0., 0., 4.09079157e-02, 3.18776757e-01,
          3.88729751e-01, 3.88729751e-01, 3.88729751e-01, 3.88729751e-01,
          3.88729751e-01, 3.70348543e-01, 1.05926218e-02, 1.10201566e-02,
          0., 0., 0., 3.23372245e-01, 5.44594347e-01, 5.44594347e-01,
          5.44594347e-01, 1.10201566e-02, 0., 0., 0., 0., 0., 0., 0., 0.,
          0., 0., 0., 0., 0., 0., 0., 0., 0., 0. ]
      - [ 4.20286179e-01, 4.20286179e-01, 4.20286179e-01, 1.70626089e-01,
          4.20286179e-01, 4.20286179e-01, 1.92600548e-01, 4.40939367e-02,
          2.10823953e-01, 3.36309671e-01, 3.36309671e-01, 3.14755112e-01,
          3.25329989e-01, 3.36309671e-01, 3.36309671e-01, 3.36309671e-01,
          3.36309671e-01, 3.36309671e-01, 2.63207704e-01, 1.00944117e-01,
          3.85100573e-01, 4.09699410e-01, 3.78816664e-01, 2.30417073e-01,
          2.60733426e-01, 4.09699410e-01, 4.09699410e-01, 3.06167334e-01,
          5.50670512e-02, 2.72938997e-01, 4.98950452e-01, 6.44946098e-02,
          0., 2.69696385e-01, 4.98950452e-01, 4.98950452e-01,
          3.60720634e-01, 3.60720634e-01, 3.60720634e-01, 1.45236105e-01,
          3.60720634e-01, 3.60187620e-01, 3.60720634e-01, 2.94256061e-01,
          3.29217166e-01, 2.90947855e-01, 2.53563017e-01, 3.91636133e-01,
          3.50042194e-01, 3.91636133e-01, 1.32160500e-01, 3.91636133e-01,
          3.91636133e-01, 3.05992365e-01, 6.31854907e-02, 5.31877950e-02,
          4.33628559e-01, 4.38884825e-01, 4.28615093e-01, 5.59955742e-03,
          3.54132593e-01, 4.38884825e-01, 3.26142669e-01, 1.74942330e-01,
          2.27787122e-01, 4.08131659e-01, 4.08131659e-01, 3.22249651e-01,
          3.27588357e-02, 3.77130449e-01, 4.08131659e-01, 4.08131659e-01,
          1.34124011e-01, 3.16213667e-01, 4.17279452e-01, 4.17279452e-01,
          8.50908533e-02, 0., 4.17279452e-01, 4.17279452e-01,
          4.17279452e-01, 2.56954283e-01, 2.43677095e-01, 3.90370309e-01,
          3.90370309e-01, 3.29774410e-01, 0., 3.90370309e-01,
          3.90370309e-01, 3.90370309e-01, 3.86336923e-01, 3.86336923e-01,
          2.66304433e-01, 3.86336923e-01, 1.52761355e-01, 7.96806961e-02,
          3.86336923e-01, 3.86336923e-01, 3.86336923e-01, 3.65284652e-01,
          3.65284652e-01, 3.65284652e-01, 1.06872790e-01, 3.65284652e-01,
          3.65284652e-01, 3.65284652e-01, 2.25607738e-01, 3.65284652e-01,
          1.39991924e-01, 6.37049228e-02, 4.40433800e-01, 4.40433800e-01,
          4.33373630e-01, 0., 9.77844596e-02, 4.40433800e-01,
          4.38889742e-01, 4.10891205e-01, 1.57024428e-01, 3.49908888e-01,
          4.10891205e-01, 4.10891205e-01, 0., 6.81516230e-02,
          4.10891205e-01, 4.10891205e-01, 3.80094171e-01, 3.80094171e-01,
          2.63002276e-01, 2.90948629e-01, 3.80094171e-01, 3.51327837e-01,
          1.29150465e-01, 3.52681130e-01, 3.80094171e-01, 4.27347481e-01,
          1.24056883e-01, 5.44378497e-02, 0., 4.27347481e-01,
          4.27347481e-01, 4.27347481e-01, 2.53472418e-01, 4.27347481e-01 ]
      - [ 3.76562148e-01, 3.76562148e-01, 3.76562148e-01, 0.,
          3.76562148e-01, 3.54616672e-01, 3.76562148e-01, 2.94467896e-01,
          2.73456126e-01, 4.79920059e-01, 6.30248934e-02, 1.17293023e-01,
          4.79920059e-01, 4.79920059e-01, 8.57281685e-02, 1.33397907e-01,
          1.76180273e-01, 4.79920059e-01, 5.36913157e-01, 0.,
          2.04734895e-02, 1.43627763e-01, 5.36913157e-01, 0., 0.,
          3.29792172e-01, 5.36913157e-01, 4.15058821e-01, 3.11621521e-02,
          2.36235529e-01, 4.15058821e-01, 4.15058821e-01, 0.,
          2.78758556e-01, 4.15058821e-01, 4.15058821e-01, 7.71752000e-02,
          4.69095856e-01, 4.69095856e-01, 0., 2.29313187e-02,
          3.29589218e-01, 4.69095856e-01, 4.69095856e-01, 0., 0., 0.,
          5.42540438e-02, 3.80608559e-01, 5.14719546e-01, 2.28570506e-01,
          5.14719546e-01, 5.14719546e-01, 0., 0., 0., 3.41387950e-02,
          2.39493981e-01, 9.65322316e-01, 0., 0., 0., 0., 3.12171400e-01,
          3.30046803e-01, 3.64040703e-01, 3.64040703e-01, 3.64040703e-01,
          0., 3.64040703e-01, 3.56865138e-01, 3.64040703e-01,
          3.52929503e-01, 3.52929503e-01, 3.52929503e-01, 0.,
          3.52929503e-01, 3.52929503e-01, 3.52929503e-01, 3.52929503e-01,
          3.52929503e-01, 4.90850836e-01, 8.53601471e-03, 2.56080441e-02,
          0., 4.90850836e-01, 7.62271807e-02, 4.75790560e-01,
          1.98439181e-01, 4.90850836e-01, 4.03817028e-01, 3.16065341e-01,
          4.03817028e-01, 0., 4.03817028e-01, 0., 4.03817028e-01,
          2.84126014e-01, 4.03817028e-01, 3.88890713e-01, 3.88890713e-01,
          3.88890713e-01, 0., 3.88890713e-01, 1.85110837e-01,
          3.88890713e-01, 2.33308703e-01, 3.88890713e-01, 3.92110586e-01,
          2.99037248e-01, 3.87931973e-01, 3.10913742e-01, 3.92110586e-01,
          2.69189924e-02, 2.74318248e-01, 3.49676639e-01, 3.92110586e-01,
          4.37343895e-01, 2.77546560e-03, 8.32639635e-03, 0.,
          4.37343895e-01, 2.41524652e-01, 4.37343895e-01, 4.14899349e-01,
          4.37343895e-01, 2.45031387e-01, 2.12820143e-01, 4.85591233e-01,
          0., 4.85591233e-01, 0., 4.85591233e-01, 3.49828869e-01,
          2.45031387e-01, 2.97507882e-01, 3.33243102e-01, 5.30560672e-01,
          0., 5.30560672e-01, 2.88329542e-01, 3.11553210e-01,
          9.01510790e-02, 2.09340975e-01 ]
      - [ 3.64800245e-01, 3.64800245e-01, 3.64800245e-01, 3.64800245e-01,
          2.54560113e-01, 0., 3.64800245e-01, 3.64800245e-01,
          3.64800245e-01, 4.06984061e-01, 3.87521014e-02, 1.25531211e-01,
          3.87936085e-01, 4.06984061e-01, 0., 4.06984061e-01,
          4.06984061e-01, 4.06984061e-01, 4.26654309e-01, 4.89605814e-02,
          2.47632653e-01, 4.26654309e-01, 4.24005866e-01, 3.48901972e-02,
          1.51278690e-01, 4.26654309e-01, 4.26654309e-01, 4.72993582e-01,
          0., 3.64926569e-02, 2.56007046e-01, 1.32512733e-01,
          2.25802198e-01, 4.34383929e-01, 4.72993582e-01, 4.72993582e-01,
          1.52864590e-01, 4.67084020e-01, 4.67084020e-01, 1.98668301e-01,
          1.63448855e-01, 1.58444464e-01, 4.67084020e-01, 4.67084020e-01,
          8.94866958e-02, 3.44644725e-01, 2.18829677e-01, 2.88394690e-01,
          3.39670807e-01, 3.94973934e-01, 8.25984776e-02, 3.94973934e-01,
          3.94973934e-01, 3.94973934e-01, 3.75608951e-01, 3.75608951e-01,
          2.29878381e-01, 3.75608951e-01, 3.75608951e-01, 3.75608951e-01,
          1.34480983e-01, 2.80759215e-01, 3.75608951e-01, 3.51610869e-01,
          3.51610869e-01, 9.00352299e-02, 3.51610869e-01, 3.50669622e-01,
          3.51610869e-01, 3.51610869e-01, 3.51610869e-01, 3.51610869e-01,
          3.45973969e-01, 3.62221807e-01, 3.62221807e-01, 3.62221807e-01,
          3.62221807e-01, 1.00298963e-01, 3.62221807e-01, 3.57163876e-01,
          2.88155884e-01, 3.60608071e-01, 2.60293484e-01, 2.17151970e-01,
          3.18214566e-01, 3.60608071e-01, 3.60608071e-01, 3.60608071e-01,
          3.60608071e-01, 3.60608071e-01, 4.36942250e-01, 4.36942250e-01,
          1.55360609e-01, 2.37190612e-02, 4.36942250e-01, 4.36942250e-01,
          3.49414736e-01, 4.92380150e-02, 2.87657470e-01, 3.17555666e-01,
          3.01889271e-01, 4.56498601e-02, 3.20247620e-01, 4.72430795e-01,
          4.72430795e-01, 4.72430795e-01, 1.02599390e-01, 1.36237711e-01,
          1.03247203e-01, 1.99816272e-01, 5.12549043e-01, 5.12549043e-01,
          5.12549043e-01, 0., 3.61888736e-01, 1.20629564e-01,
          1.03247203e-01, 2.57517040e-01, 1.37215033e-01, 3.67747277e-01,
          3.67747277e-01, 3.67747277e-01, 3.15839887e-01, 3.67747277e-01,
          3.67747277e-01, 3.67747277e-01, 3.49738866e-01, 2.55392715e-02,
          1.12763621e-01, 2.53573835e-01, 4.33079928e-01, 2.13204771e-01,
          4.33079928e-01, 4.33079928e-01, 4.33079928e-01, 0., 0., 0., 0.,
          9.88951027e-01, 0., 0., 0., 0. ]
      - [ 5.33420503e-01, 5.33420503e-01, 5.33420503e-01, 2.65336215e-01,
          0., 0., 0., 0., 2.65814781e-01, 4.51156050e-01, 4.51156050e-01,
          4.95244116e-02, 5.60214259e-02, 2.99138069e-01, 4.51156050e-01,
          2.85745829e-01, 6.78313449e-02, 4.51156050e-01, 4.30510908e-01,
          4.30510908e-01, 5.83006218e-02, 2.15537623e-01, 4.30510908e-01,
          1.34252265e-01, 3.34979072e-02, 4.30510908e-01, 4.30510908e-01,
          1.63530022e-01, 6.85995221e-02, 2.75676280e-01, 4.87081736e-01,
          4.18086469e-01, 0., 3.38754803e-02, 4.87081736e-01,
          4.87081736e-01, 4.59027737e-01, 4.59027737e-01, 4.59027737e-01,
          2.58256584e-01, 1.52375624e-01, 1.08123600e-01, 3.67950797e-01,
          1.17512770e-01, 3.35399777e-01, 3.92505139e-01, 3.92505139e-01,
          3.92505139e-01, 1.78353459e-01, 2.24279687e-01, 3.57533187e-01,
          3.92505139e-01, 3.92505139e-01, 1.25841200e-01, 3.02201957e-01,
          3.71143401e-01, 3.71143401e-01, 3.71143401e-01, 3.71143401e-01,
          3.44185263e-01, 3.71143401e-01, 2.88769156e-01, 1.19907640e-01,
          2.12612242e-01, 3.61631155e-01, 3.61631155e-01, 2.85541624e-01,
          3.61631155e-01, 2.91524410e-01, 3.61631155e-01, 3.61631155e-01,
          3.61631155e-01, 3.69695246e-01, 4.13549989e-01, 4.13549989e-01,
          4.13549989e-01, 6.02972880e-02, 1.28093392e-01, 4.13549989e-01,
          2.88017362e-01, 2.68518567e-01, 2.44011462e-01, 3.90696168e-01,
          4.62153524e-01, 1.20071352e-01, 1.31606266e-01, 7.94467852e-02,
          4.62153524e-01, 4.62153524e-01, 3.23097259e-01, 3.88651609e-01,
          3.88651609e-01, 3.88651609e-01, 0., 2.72612989e-01,
          3.67373347e-01, 3.88651609e-01, 1.77723616e-01, 3.88651609e-01,
          4.25947338e-01, 4.25947338e-01, 2.84329474e-01, 0.,
          3.07505816e-01, 4.25947338e-01, 4.25947338e-01, 2.51689225e-01,
          1.76833272e-01, 1.52541354e-01, 4.59804446e-01, 4.92938012e-01,
          4.92938012e-01, 4.92938012e-01, 0., 1.51299402e-01,
          8.15064088e-02, 4.34660278e-02, 3.53042483e-01, 3.11482906e-01,
          3.89827549e-01, 3.89827549e-01, 3.89827549e-01, 4.50867079e-02,
          3.89827549e-01, 2.64710724e-01, 3.07373285e-01, 3.82761031e-01,
          3.27713788e-01, 3.81016821e-01, 6.74621239e-02, 3.82761031e-01,
          3.82761031e-01, 3.82761031e-01, 8.07755589e-02, 3.82761031e-01,
          2.81377673e-01, 2.28483826e-01, 4.05463316e-02, 0.,
          5.26373565e-01, 5.26373565e-01, 5.26373565e-01, 8.56083855e-02,
          1.52265340e-01 ]
      - [ 4.63094532e-01, 4.63094532e-01, 4.63094532e-01, 2.51298338e-01,
          4.74282391e-02, 1.21460237e-01, 1.43996924e-01, 1.91468477e-01,
          4.63094532e-01, 3.75701398e-01, 3.75701398e-01, 3.42893034e-01,
          9.04559940e-02, 3.75701398e-01, 3.75701398e-01, 3.75701398e-01,
          1.53556243e-01, 3.75701398e-01, 3.63089651e-01, 2.53521025e-01,
          3.63089651e-01, 3.63089651e-01, 3.63089651e-01, 9.62330773e-02,
          3.63089651e-01, 3.63089651e-01, 3.63089651e-01, 3.41895133e-01,
          7.50906467e-02, 3.18601310e-01, 4.22478497e-01, 2.40394846e-01,
          0., 4.22478497e-01, 4.22478497e-01, 4.22478497e-01,
          3.67460430e-01, 3.67460430e-01, 3.67460430e-01, 3.67460430e-01,
          2.00045228e-01, 1.05454668e-01, 3.67460430e-01, 3.67460430e-01,
          3.67460430e-01, 3.65900964e-01, 2.97912568e-01, 1.73842773e-01,
          2.79262781e-01, 3.80082846e-01, 3.80082846e-01, 3.80082846e-01,
          3.80082846e-01, 2.95815259e-01, 2.26148441e-01, 2.80525476e-01,
          3.88163060e-01, 3.88163060e-01, 3.88163060e-01, 4.72860262e-02,
          3.88163060e-01, 3.88163060e-01, 3.32709908e-01, 1.49347097e-01,
          2.90322244e-01, 4.31459635e-01, 4.31459635e-01, 3.23979817e-02,
          0., 4.31459635e-01, 4.31459635e-01, 3.78707319e-01,
          3.66452396e-01, 2.10611835e-01, 3.70315343e-01, 3.70315343e-01,
          3.70315343e-01, 0., 3.70315343e-01, 3.63301873e-01,
          3.70315343e-01, 4.26115572e-01, 1.82027295e-02, 1.57450274e-01,
          4.26115572e-01, 2.49284238e-01, 2.46249661e-02, 4.26115572e-01,
          4.26115572e-01, 4.26115572e-01, 4.28423643e-01, 2.75941700e-01,
          4.28423643e-01, 1.26371861e-01, 3.21054757e-01, 4.28423643e-01,
          2.49977246e-01, 6.20849803e-02, 4.28423643e-01, 3.88550013e-01,
          3.88550013e-01, 3.88550013e-01, 4.65836488e-02, 1.57871082e-01,
          3.88550013e-01, 3.88550013e-01, 2.51392603e-01, 3.88550013e-01,
          5.28018028e-02, 0., 3.88102859e-01, 6.20828509e-01,
          6.20828509e-01, 0., 5.75129651e-02, 2.00290397e-01,
          1.61584258e-01, 3.24749112e-01, 1.07033513e-02, 3.35889727e-01,
          4.79192972e-01, 4.79192972e-01, 4.16860506e-02, 2.95710355e-01,
          2.42003694e-01, 4.12086695e-01, 3.36447448e-01, 3.36447448e-01,
          3.01766753e-01, 3.36447448e-01, 3.36447448e-01, 3.36447448e-01,
          3.36447448e-01, 3.36447448e-01, 3.36447448e-01, 3.55249584e-01,
          4.26321328e-01, 2.59977818e-01, 1.35064021e-01, 4.26321328e-01,
          4.26321328e-01, 4.26321328e-01, 2.08005071e-01, 1.15943536e-01 ]
      - [ 3.72879118e-01, 3.72879118e-01, 3.72879118e-01, 5.27458340e-02,
          3.72879118e-01, 3.72879118e-01, 3.72879118e-01, 1.59471422e-01,
          3.65825862e-01, 3.63677680e-01, 2.43917629e-01, 3.63677680e-01,
          3.63677680e-01, 3.63677680e-01, 1.05073981e-01, 3.63677680e-01,
          3.63677680e-01, 3.63677680e-01, 2.34492794e-01, 6.80999458e-02,
          2.81363670e-02, 1.97385147e-01, 1.87137216e-01, 0.,
          5.35491943e-01, 5.35491943e-01, 5.35491943e-01, 0., 0., 0., 0.,
          0., 0., 0., 0., 0., 0., 5.19160450e-01, 5.19160450e-01,
          2.96613157e-01, 5.19160450e-01, 3.10316384e-01, 4.42341119e-02,
          0., 0., 3.32965642e-01, 3.32965642e-01, 3.32965642e-01,
          3.32965642e-01, 3.32965642e-01, 3.31276566e-01, 3.32965642e-01,
          3.32965642e-01, 3.32965642e-01, 3.68078917e-01, 1.73253328e-01,
          3.68078917e-01, 3.68078917e-01, 3.68078917e-01, 1.33907080e-01,
          3.68078917e-01, 3.68078917e-01, 3.68078917e-01, 4.64280039e-01,
          9.58018154e-02, 3.10946256e-01, 1.65145963e-01, 0., 0.,
          4.64280039e-01, 4.64280039e-01, 4.64280039e-01, 3.60564053e-01,
          6.05779886e-01, 6.05779886e-01, 0., 0., 0., 0., 0.,
          3.60564053e-01, 2.36744463e-01, 4.25744683e-01, 4.25744683e-01,
          7.46743307e-02, 4.25744683e-01, 3.77598330e-02, 4.25744683e-01,
          3.84615719e-01, 2.44404748e-01, 2.83389062e-01, 2.56098330e-01,
          3.76440763e-01, 3.76440763e-01, 3.76440763e-01, 9.86775104e-03,
          3.76440763e-01, 3.76440763e-01, 3.76440763e-01, 3.86661977e-01,
          1.81179658e-01, 3.86661977e-01, 3.86661977e-01, 2.96742916e-01,
          3.95143889e-02, 3.55184436e-01, 3.86661977e-01, 3.86661977e-01,
          2.25698918e-01, 6.22416914e-01, 6.22416914e-01, 3.09776038e-01,
          1.45392016e-01, 0., 0., 0., 2.25698918e-01, 3.71292979e-01,
          3.25816453e-01, 3.71292979e-01, 2.50964761e-01, 3.71292979e-01,
          0., 3.71292979e-01, 3.71292979e-01, 3.71292979e-01,
          3.94403070e-01, 3.94403070e-01, 3.94403070e-01, 2.88961548e-02,
          3.94403070e-01, 8.20111111e-02, 3.94403070e-01, 2.34896451e-01,
          3.94403070e-01, 3.59810472e-01, 3.59810472e-01, 3.36426139e-01,
          2.34680280e-01, 3.59810472e-01, 3.59810472e-01, 3.59810472e-01,
          2.26641253e-01, 3.59810472e-01 ]
      - [ 3.83265376e-01, 2.48935536e-01, 3.83265376e-01, 3.38699102e-01,
          3.83265376e-01, 0., 2.91587710e-01, 3.83265376e-01,
          3.83265376e-01, 4.17079836e-01, 4.17079836e-01, 3.15047681e-01,
          0., 4.17079836e-01, 4.17079836e-01, 1.63138196e-01,
          1.36574404e-02, 4.17079836e-01, 3.94052118e-01, 3.94052118e-01,
          1.88903123e-01, 5.47266677e-02, 3.94052118e-01, 3.94052118e-01,
          3.94052118e-01, 2.51400262e-01, 3.43214899e-01, 3.32948118e-01,
          2.05161452e-01, 3.74039203e-01, 3.74039203e-01, 3.74039203e-01,
          6.23341277e-02, 3.74039203e-01, 3.74039203e-01, 3.74039203e-01,
          3.24496001e-01, 4.88745779e-01, 4.88745779e-01, 2.41133928e-01,
          4.88745779e-01, 0., 2.07593337e-01, 1.69923052e-01,
          2.07579061e-01, 3.99062872e-01, 3.99062872e-01, 3.99062872e-01,
          0., 3.99062872e-01, 3.99062872e-01, 3.99062872e-01,
          9.79361609e-02, 1.75825939e-01, 3.13953847e-01, 3.98916632e-01,
          1.66094095e-01, 0., 3.48545194e-01, 4.92534012e-01,
          4.92534012e-01, 3.02569568e-01, 1.07612811e-01, 2.13880852e-01,
          4.33494717e-01, 4.33494717e-01, 4.33494717e-01, 0.,
          3.78312939e-03, 4.33494717e-01, 4.33133692e-01, 1.03124917e-01,
          3.93374473e-01, 3.93374473e-01, 3.93374473e-01, 3.93374473e-01,
          3.93374473e-01, 1.43980414e-01, 1.69607505e-01, 1.34581864e-01,
          3.93374473e-01, 3.43993306e-01, 3.43993306e-01, 2.23409623e-01,
          3.43993306e-01, 3.43993306e-01, 3.43993306e-01, 3.43993306e-01,
          3.43993306e-01, 3.43993306e-01, 5.10196149e-01, 3.57142016e-02,
          9.62070655e-03, 6.74921647e-02, 2.61623025e-01, 2.95875818e-01,
          2.28235960e-01, 5.10196149e-01, 5.10196149e-01, 3.77334446e-01,
          4.26832974e-01, 4.26832974e-01, 0., 9.93128344e-02,
          4.26832974e-01, 4.26832974e-01, 2.96326578e-01, 1.64124966e-01,
          2.31941581e-01, 2.92972684e-01, 5.11490107e-01, 5.11490107e-01,
          5.11490107e-01, 3.61475535e-02, 1.15179017e-01, 9.93236974e-02,
          2.14376256e-01, 3.53304774e-01, 1.46432715e-02, 2.28530318e-01,
          4.65920985e-01, 4.65920985e-01, 3.32927667e-02, 3.92185487e-02,
          4.05200958e-01, 4.65920985e-01, 4.50535923e-01, 3.70874666e-02,
          1.08209424e-01, 4.50535923e-01, 4.50535923e-01, 0., 0.,
          4.12897497e-01, 4.50535923e-01, 3.72194856e-01, 3.72194856e-01,
          1.60569325e-01, 2.82102711e-02, 3.72194856e-01, 3.72194856e-01,
          3.72194856e-01, 3.72194856e-01, 3.72194856e-01 ]
      - [ 3.91192555e-01, 3.91192555e-01, 3.91192555e-01, 3.91192555e-01,
          0., 0., 3.91192555e-01, 2.79109865e-01, 3.91192555e-01,
          2.95030951e-01, 2.87139237e-01, 3.93338531e-01, 3.93338531e-01,
          2.30222315e-01, 0., 3.93338531e-01, 3.93338531e-01,
          3.93338531e-01, 3.76180738e-01, 8.32652524e-02, 2.60994256e-01,
          7.85609782e-02, 2.92409956e-01, 0., 4.78533179e-01,
          4.78533179e-01, 4.78533179e-01, 0., 0., 0., 0., 0., 0., 0.,
          8.52314472e-01, 5.11910200e-01, 1.26483619e-01, 3.28408331e-01,
          5.33092976e-01, 4.75766137e-02, 0., 0., 5.33092976e-01,
          5.33092976e-01, 1.26483619e-01, 1.57109380e-01, 2.09172696e-01,
          4.36361879e-01, 4.36361879e-01, 4.36361879e-01, 0.,
          2.02687174e-01, 4.21931505e-01, 3.69947642e-01, 2.99350709e-01,
          1.16983607e-01, 3.85756880e-01, 3.85756880e-01, 3.85756880e-01,
          0., 3.85756880e-01, 3.85756880e-01, 3.85756880e-01,
          4.61149067e-01, 5.85394353e-02, 1.97550446e-01, 1.53860569e-01,
          2.80417055e-01, 0., 4.61149067e-01, 4.61149067e-01,
          4.61149067e-01, 5.66796288e-02, 3.24488133e-01, 5.42483449e-01,
