%YAML:1.0
---
opencv_ml_svm:
   format: 3
   svmType: C_SVC
   kernel:
      type: RBF
      gamma: 3.3750000000000002e-02
   C: 2.5000000000000000e+00
   term_criteria: { epsilon:1.1920928955078125e-07, iterations:1000 }
   var_count: 144
   class_count: 5
   class_labels: !!opencv-matrix
      rows: 5
      cols: 1
      dt: i
      data: [ 0, 1, 2, 3, 4 ]
   sv_total: 126
   support_vectors:
      - [ 4.47907299e-01, 4.47907299e-01, 4.47907299e-01, 0.,
          6.06355555e-02, 4.47907299e-01, 3.52524370e-01, 9.40474421e-02,
          2.37164587e-01, 4.06696528e-01, 4.06696528e-01, 1.92793041e-01,
          2.43469477e-01, 4.06696528e-01, 4.06696528e-01, 2.20917135e-01,
          1.53869703e-01, 4.06696528e-01, 3.72302145e-01, 1.41477793e-01,
          2.38886610e-01, 2.95878947e-01, 3.72302145e-01, 3.72302145e-01,
          3.72302145e-01, 3.72302145e-01, 3.72302145e-01, 2.13292986e-01,
          0., 0., 0., 0., 4.96422261e-01, 4.96422261e-01, 4.96422261e-01,
          4.58522558e-01, 4.40676928e-01, 4.40676928e-01, 4.40676928e-01,
          0., 1.70144904e-02, 4.40676928e-01, 4.40676928e-01,
          1.55850857e-01, 6.17752783e-03, 1.94639236e-01, 3.97065461e-01,
          3.35108995e-01, 2.29395837e-01, 4.40717757e-01, 4.40717757e-01,
          4.40717757e-01, 2.28377879e-01, 1.67008862e-02, 2.30230704e-01,
          3.28633189e-01, 4.05608892e-01, 4.05608892e-01, 4.05608892e-01,
          4.05608892e-01, 3.64269823e-01, 1.36410400e-01, 1.59898102e-01,
          3.77362251e-01, 3.77362251e-01, 3.77362251e-01, 0., 0.,
          3.76585215e-01, 3.77362251e-01, 3.77362251e-01, 3.77362251e-01,
          1.84862331e-01, 3.76865983e-01, 3.76865983e-01, 2.74301887e-01,
          2.11495951e-01, 3.63247752e-01, 3.76865983e-01, 3.76865983e-01,
          3.76865983e-01, 4.21407521e-01, 4.21407521e-01, 8.39125272e-03,
          3.67097594e-02, 3.38499248e-01, 4.12543386e-01, 1.78009748e-01,
          3.80996376e-01, 4.21407521e-01, 4.42073971e-01, 4.42073971e-01,
          2.26085670e-02, 0., 4.42073971e-01, 4.42073971e-01,
          1.33887798e-01, 0., 4.42073971e-01, 4.11103934e-01,
          4.11103934e-01, 3.04429770e-01, 0., 4.01285380e-01,
          4.11103934e-01, 4.11103934e-01, 1.02137342e-01, 2.36067653e-01,
          2.43923083e-01, 1.44687429e-01, 4.26353455e-01, 4.26353455e-01,
          4.26353455e-01, 7.34166428e-02, 3.21183912e-02, 4.26353455e-01,
          4.26353455e-01, 3.93569440e-01, 3.93569440e-01, 6.03938587e-02,
          3.93569440e-01, 3.93569440e-01, 3.93569440e-01, 1.67803213e-01,
          1.86765581e-01, 3.93569440e-01, 4.78406459e-01, 3.87855202e-01,
          0., 0., 4.97976840e-01, 4.97976840e-01, 2.43949220e-01, 0.,
          2.45456353e-01, 1.86102182e-01, 1.86031893e-01, 0., 0.,
          6.30418003e-01, 6.30418003e-01, 3.52249056e-01, 0.,
          7.43694007e-02 ]
      - [ 5.55257857e-01, 5.55257857e-01, 5.71533628e-02, 0.,
          1.78178653e-01, 3.14839870e-01, 1.17535062e-01, 2.42187157e-02,
          4.78845775e-01, 4.40128773e-01, 4.40128773e-01, 0., 0.,
          4.40128773e-01, 4.40128773e-01, 1.64411813e-01, 2.39868416e-03,
          4.40128773e-01, 4.13348913e-01, 1.67551383e-01, 4.13348913e-01,
          0., 4.13348913e-01, 2.74714261e-01, 4.13348913e-01,
          1.95045665e-01, 4.13348913e-01, 4.75348681e-01, 7.00066984e-02,
          2.10020095e-01, 0., 4.75348681e-01, 0., 4.75348681e-01,
          2.05954716e-01, 4.75348681e-01, 4.19430226e-01, 4.19430226e-01,
          4.19430226e-01, 0., 1.87674925e-01, 4.19430226e-01,
          4.19430226e-01, 2.83656716e-01, 2.27713902e-02, 2.89167494e-01,
          2.39244923e-01, 0., 0., 5.19806921e-01, 5.19806921e-01,
          5.19806921e-01, 1.48970485e-01, 1.45474404e-01, 4.18837294e-02,
          2.12112442e-02, 0., 0., 5.93894124e-01, 5.93894124e-01,
          5.15783966e-01, 1.39866829e-01, 2.91440263e-02, 0., 0., 0., 0.,
          9.71430242e-01, 0., 2.04864293e-01, 6.82880953e-02, 0., 0.,
          4.97415215e-01, 4.97415215e-01, 0., 0., 7.08065778e-02,
          4.97415215e-01, 4.97415215e-01, 1.81932524e-02, 0., 0., 0., 0.,
          0., 1.94342777e-01, 6.90234363e-01, 6.90234363e-01,
          4.99350131e-02, 0., 0., 0., 0., 0., 0., 0., 0., 0., 0., 0., 0.,
          0., 0., 0., 0., 0., 0., 0., 3.17156374e-01, 4.07175928e-01,
          4.07175928e-01, 4.07175928e-01, 0., 4.07175928e-01,
          4.07175928e-01, 2.57649332e-01, 0., 0., 2.48526409e-02,
          1.74348801e-01, 5.11635005e-01, 0., 5.11635005e-01,
          5.11635005e-01, 4.22568113e-01, 0., 0., 0., 0., 0., 0., 0., 0.,
          0., 0., 0., 0., 0., 0., 0., 0., 0., 0. ]
      - [ 3.80254805e-01, 3.80254805e-01, 3.80254805e-01, 3.36960554e-01,
          3.80254805e-01, 0., 1.22867554e-01, 3.80254805e-01,
          3.80254805e-01, 4.29598957e-01, 6.41497821e-02, 2.62073874e-01,
          4.29598957e-01, 4.29598957e-01, 0., 1.15940515e-02,
          4.29598957e-01, 4.29598957e-01, 5.40113211e-01, 0.,
          3.21014039e-03, 2.25201081e-02, 1.33407295e-01, 0.,
          3.18000674e-01, 5.40113211e-01, 5.40113211e-01, 6.05615079e-01,
          0., 0., 0., 0., 0., 4.84120220e-01, 1.61373407e-01,
          6.05615079e-01, 3.69552016e-01, 3.69552016e-01, 3.69552016e-01,
          2.78347850e-01, 3.69552016e-01, 0., 3.69552016e-01,
          3.15306574e-01, 3.69552016e-01, 2.18089104e-01, 6.45603612e-02,
          4.26833510e-01, 4.40232038e-01, 4.40232038e-01, 0.,
          1.84859261e-01, 4.01825726e-01, 4.22420859e-01, 3.68866503e-01,
          2.51525462e-01, 3.41236055e-01, 3.68866503e-01, 3.63437772e-01,
          6.48704022e-02, 3.68866503e-01, 3.68866503e-01, 3.68866503e-01,
          3.99304986e-01, 2.33608127e-01, 1.87210888e-01, 1.98414236e-01,
          3.99304986e-01, 2.92913496e-01, 3.78742456e-01, 3.99304986e-01,
          3.99304986e-01, 2.90713608e-02, 4.71538454e-01, 4.71538454e-01,
          7.26478994e-02, 0., 0., 4.71538454e-01, 4.71538454e-01,
          3.15869063e-01, 3.75298321e-01, 3.75298321e-01, 3.75298321e-01,
          1.55560270e-01, 1.82946295e-01, 3.05760026e-01, 3.75298321e-01,
          3.75298321e-01, 3.75298321e-01, 3.73652428e-01, 3.73652428e-01,
          2.76029110e-01, 3.73652428e-01, 2.93770880e-01, 3.73652428e-01,
          3.73652428e-01, 9.14612263e-02, 3.56830359e-01, 2.51477927e-01,
          3.15718502e-01, 1.40001997e-01, 1.64832443e-01, 4.54381049e-01,
          4.54381049e-01, 4.54381049e-01, 3.35637420e-01, 2.31803507e-01,
          1.64416879e-01, 4.10743684e-01, 4.10743684e-01, 4.10743684e-01,
          1.40679806e-01, 2.43827894e-01, 4.10743684e-01, 4.10743684e-01,
          2.14637473e-01, 3.50205153e-01, 3.50205153e-01, 3.28440756e-01,
          3.46535504e-01, 3.13544214e-01, 3.50205153e-01, 3.50205153e-01,
          2.38773152e-01, 3.50205153e-01, 3.10755432e-01, 3.77363473e-01,
          2.88681895e-01, 0., 4.46790189e-01, 4.74033922e-01,
          4.74033922e-01, 6.14983700e-02, 1.41902015e-01, 6.88448250e-02,
          1.14624672e-01, 0., 0., 0., 7.83098340e-01, 5.95702827e-01,
          7.87465498e-02, 0. ]
      - [ 5.12910366e-01, 5.12910366e-01, 5.12910366e-01, 0., 0., 0.,
          2.60668457e-01, 8.68894905e-02, 3.60760927e-01, 3.62643272e-01,
          3.62643272e-01, 2.92857856e-01, 0., 3.62643272e-01,
          3.62643272e-01, 3.62643272e-01, 3.48640651e-01, 3.62643272e-01,
          5.56663334e-01, 0., 0., 0., 5.56663334e-01, 4.93413918e-02,
          2.37645328e-01, 7.68706575e-02, 5.56663334e-01, 4.50116694e-01,
          0., 0., 0., 4.50116694e-01, 0., 4.50116694e-01, 4.30213600e-01,
          4.50116694e-01, 2.28045098e-02, 4.82229918e-01, 4.82229918e-01,
          4.82229918e-01, 4.82229918e-01, 0., 2.40778103e-01,
          8.02593678e-02, 8.06692708e-03, 1.43397316e-01, 2.17231840e-01,
          4.40480947e-01, 3.67562771e-01, 3.59685302e-01, 3.12727951e-02,
          4.40480947e-01, 4.40480947e-01, 2.83413678e-01, 2.45519370e-01,
          0., 0., 0., 4.92501497e-01, 2.76079904e-02, 4.92501497e-01,
          4.92501497e-01, 4.54275221e-01, 0., 0., 0., 0., 9.95024860e-01,
          0., 0., 0., 0., 0., 6.67397916e-01, 6.67397916e-01,
          2.25117326e-01, 2.27021664e-01, 0., 1.58890560e-02,
          5.29635232e-03, 0., 1.55255899e-01, 4.65731710e-01,
          4.65731710e-01, 5.64447753e-02, 3.67911048e-02, 0.,
          4.65731710e-01, 4.65731710e-01, 3.14769745e-01, 2.75032461e-01,
          0., 0., 0., 0., 0., 6.01297081e-01, 6.01297081e-01,
          4.41856235e-01, 0., 0., 0., 0., 0., 0., 0., 0., 0., 0.,
          5.75688422e-01, 5.75688422e-01, 5.75688422e-01, 0., 0., 0., 0.,
          0., 2.07250014e-01, 3.15690875e-01, 3.88392001e-01,
          3.88392001e-01, 3.88392001e-01, 5.00694588e-02, 3.88392001e-01,
          3.82161051e-01, 3.18683445e-01, 4.07140315e-01, 0.,
          5.19169029e-03, 3.64212804e-02, 4.07140315e-01, 4.07140315e-01,
          4.07140315e-01, 4.07140315e-01, 4.07140315e-01, 0., 0., 0., 0.,
          0., 0., 7.04615593e-01, 7.04615593e-01, 0. ]
      - [ 3.90161157e-01, 3.90161157e-01, 3.90161157e-01, 2.16952786e-01,
          3.41597088e-02, 3.73492390e-01, 2.52451926e-01, 3.68422747e-01,
          3.90161157e-01, 3.55491519e-01, 2.21032247e-01, 3.55491519e-01,
          2.87482560e-01, 3.55491519e-01, 3.26651901e-01, 3.55491519e-01,
          3.55491519e-01, 3.55491519e-01, 4.24884945e-01, 5.23322485e-02,
          2.17976585e-01, 4.24884945e-01, 2.69291729e-01, 0.,
          3.88428062e-01, 4.24884945e-01, 4.24884945e-01, 5.72247684e-01,
          3.44723985e-02, 1.03417203e-01, 0., 0., 0., 0., 5.72247684e-01,
          5.72247684e-01, 2.86973238e-01, 4.43859428e-01, 4.43859428e-01,
          2.21077219e-01, 2.56594628e-01, 3.97981226e-01, 4.43859428e-01,
          1.95797741e-01, 1.03621423e-01, 1.79030716e-01, 2.61034518e-01,
          3.77048820e-01, 3.77048820e-01, 3.77048820e-01, 3.77048820e-01,
          3.77048820e-01, 3.77048820e-01, 2.07478628e-01, 3.82698745e-01,
          2.66984731e-01, 3.82698745e-01, 3.82698745e-01, 3.82698745e-01,
          9.71044227e-03, 2.14596465e-01, 3.82698745e-01, 3.82698745e-01,
          3.65204424e-01, 2.30313763e-01, 3.65204424e-01, 3.41504931e-01,
          1.62590787e-01, 3.65204424e-01, 3.65204424e-01, 3.65204424e-01,
          3.65204424e-01, 3.92903894e-01, 3.92903894e-01, 3.92903894e-01,
          3.92903894e-01, 1.08261749e-01, 3.11928745e-02, 3.92903894e-01,
          3.43085557e-01, 3.06277722e-01, 4.00132895e-01, 4.00132895e-01,
          4.00132895e-01, 1.39789551e-01, 1.99524108e-02, 1.24198742e-01,
          4.00132895e-01, 4.00132895e-01, 4.00132895e-01, 4.02335227e-01,
          4.02335227e-01, 4.02335227e-01, 7.27882981e-02, 2.11785644e-01,
          4.02335227e-01, 2.39387289e-01, 2.81344771e-01, 4.02335227e-01,
          3.35836440e-01, 2.59851217e-01, 3.85653645e-01, 6.10266291e-02,
          1.12345293e-01, 5.04660070e-01, 4.85372305e-01, 2.00151801e-01,
          3.45322788e-01, 3.46519083e-01, 3.77214283e-01, 3.77214283e-01,
          1.64427355e-01, 3.77214283e-01, 3.77214283e-01, 3.77214283e-01,
          2.74293929e-01, 2.49858826e-01, 3.53912652e-01, 3.53912652e-01,
          3.53912652e-01, 3.53912652e-01, 3.53912652e-01, 3.53912652e-01,
          3.53912652e-01, 2.42610857e-01, 2.46626988e-01, 9.79954526e-02,
          2.41482347e-01, 4.09168541e-01, 5.21421283e-02, 4.96370852e-01,
          4.96370852e-01, 4.96370852e-01, 1.21361986e-01, 5.57422899e-02,
          0., 3.58023793e-02, 1.07407138e-01, 0., 6.40939653e-01,
          6.40939653e-01, 3.97831678e-01, 2.57991459e-02, 1.54952724e-02 ]
      - [ 6.67984784e-01, 6.67984784e-01, 1.45052552e-01, 0., 0.,
          3.85343358e-02, 5.49288467e-03, 0., 2.79943973e-01,
          4.54125375e-01, 4.54125375e-01, 3.25394073e-03, 0.,
          4.00662929e-01, 4.54125375e-01, 8.72331262e-02, 4.89245877e-02,
          4.54125375e-01, 3.82012248e-01, 2.07794979e-01, 3.82012248e-01,
          3.82012248e-01, 3.82012248e-01, 2.38143563e-01, 1.43847615e-01,
          3.82012248e-01, 3.82012248e-01, 3.83891016e-01, 1.64918512e-01,
          3.83891016e-01, 2.70711541e-01, 3.83079588e-01, 1.09865263e-01,
          3.83891016e-01, 3.83891016e-01, 3.83891016e-01, 4.24934864e-01,
          4.24934864e-01, 4.24934864e-01, 0., 4.24934864e-01,
          1.35677099e-01, 3.47721696e-01, 1.51577622e-01, 3.33439827e-01,
          2.03478083e-01, 2.89392620e-01, 2.12323889e-01, 0.,
          4.23900127e-01, 4.45793390e-01, 4.45793390e-01, 4.45793390e-01,
          2.22323209e-01, 1.24703221e-01, 2.82534976e-02, 2.35189423e-01,
          5.15282333e-01, 5.15282333e-01, 5.15282333e-01, 1.30751640e-01,
          2.19160959e-01, 2.48022825e-01, 5.38996793e-02, 3.70097756e-02,
          2.25544423e-01, 4.90336746e-01, 4.90336746e-01, 3.83170068e-01,
          4.90336746e-01, 2.49499410e-01, 9.79686752e-02, 2.86076099e-01,
          4.11445439e-01, 4.11445439e-01, 2.46219695e-01, 4.11445439e-01,
          1.23602986e-01, 4.11445439e-01, 2.55303293e-01, 3.09547037e-01,
          1.47870466e-01, 1.43930957e-01, 4.43287432e-01, 8.06376413e-02,
          2.06514224e-01, 4.44307715e-01, 4.44307715e-01, 4.44307715e-01,
          3.39260578e-01, 0., 0., 0., 0., 0., 0., 7.17534244e-01,
          6.91362441e-01, 0., 0., 0., 0., 0., 0., 0., 0., 0., 0.,
          3.74133326e-02, 4.05262202e-01, 4.05262202e-01, 4.05262202e-01,
          4.05262202e-01, 3.92843962e-01, 4.05262202e-01, 1.32809967e-01,
          3.74133326e-02, 3.27703990e-02, 1.84718192e-01, 4.49847430e-01,
          1.54607370e-01, 3.54801148e-01, 4.49847430e-01, 4.49847430e-01,
          4.49847430e-01, 3.27703990e-02, 0., 0., 0., 0., 0., 0., 0., 0.,
          0., 0., 0., 0., 0., 0., 0., 0., 0., 0. ]
      - [ 3.43670279e-01, 3.43670279e-01, 3.43670279e-01, 2.68291444e-01,
          3.43670279e-01, 3.43670279e-01, 3.43670279e-01, 3.19849789e-01,
          3.37085366e-01, 4.20870990e-01, 4.20870990e-01, 3.81644554e-02,
          2.53536589e-02, 4.20870990e-01, 1.24997966e-01, 3.03990096e-01,
          4.20870990e-01, 4.20870990e-01, 4.01600212e-01, 1.04952194e-01,
          3.48848313e-01, 2.38462329e-01, 4.01600212e-01, 0.,
          4.01600212e-01, 4.01600212e-01, 4.01600212e-01, 5.31278551e-01,
          2.53468901e-02, 1.05679475e-01, 2.07925200e-01, 0., 0.,
          3.04762423e-01, 5.31278551e-01, 5.31278551e-01, 3.94500762e-01,
          3.94500762e-01, 3.94500762e-01, 0., 3.94500762e-01,
          3.94500762e-01, 3.94500762e-01, 1.77358419e-01, 1.75549775e-01,
          2.62746841e-01, 3.61358494e-01, 9.17418525e-02, 0.,
          4.81332779e-01, 4.81332779e-01, 4.81332779e-01, 2.69492745e-01,
          1.39606997e-01, 2.09160119e-01, 1.70045584e-01, 4.06805426e-01,
          4.06805426e-01, 4.06805426e-01, 0., 3.09547007e-01,
          4.06805426e-01, 4.06805426e-01, 2.36818194e-01, 1.79002136e-01,
          4.09773439e-01, 4.09773439e-01, 2.61171460e-01, 0.,
          4.09773439e-01, 4.09773439e-01, 4.09773439e-01, 3.67127538e-01,
          3.67127538e-01, 3.67127538e-01, 0., 3.67127538e-01,
          2.29899496e-01, 3.67127538e-01, 3.67127538e-01, 3.67127538e-01,
          4.49849755e-01, 4.49849755e-01, 1.05542541e-01, 0.,
          3.60669851e-01, 2.75241196e-01, 3.96543711e-01, 1.19103134e-01,
          4.49849755e-01, 4.23876107e-01, 3.01369816e-01, 3.97912294e-01,
          6.13219664e-02, 4.23876107e-01, 2.73734868e-01, 3.44308168e-01,
          1.01762854e-01, 4.23876107e-01, 3.34775656e-01, 3.34775656e-01,
          3.34775656e-01, 3.34775656e-01, 3.34775656e-01, 3.16318303e-01,
          3.34775656e-01, 3.34775656e-01, 3.34775656e-01, 3.71578813e-01,
          3.71578813e-01, 3.71578813e-01, 1.21003106e-01, 3.71578813e-01,
          3.71578813e-01, 3.71578813e-01, 1.23086251e-01, 3.71578813e-01,
          4.31048006e-01, 4.31048006e-01, 1.51807249e-01, 0.,
          4.31048006e-01, 4.31048006e-01, 2.04824418e-01, 4.10328507e-02,
          4.31048006e-01, 4.37838942e-01, 1.23976715e-01, 1.20695837e-01,
          0., 4.37838942e-01, 4.37838942e-01, 4.33415145e-01,
          1.05015434e-01, 4.37838942e-01, 3.03171724e-01, 3.81687552e-01,
          2.37089247e-01, 0., 5.00413060e-01, 4.19951260e-01,
          4.29608107e-01, 2.33697727e-01, 1.87729150e-01 ]
      - [ 5.75688422e-01, 5.75688422e-01, 0., 0., 0., 0., 0., 0.,
          5.75688422e-01, 5.48438847e-01, 5.48438847e-01, 2.11711213e-01,
          0., 0., 1.36896133e-01, 1.62296921e-01, 4.75943461e-02,
          5.48438847e-01, 4.71591324e-01, 4.71591324e-01, 4.11630332e-01,
          0., 1.75237745e-01, 3.28155607e-01, 1.38981700e-01,
          3.07348985e-02, 4.71591324e-01, 3.68039370e-01, 3.68039370e-01,
          2.19436392e-01, 0., 3.68039370e-01, 3.68039370e-01,
          3.68039370e-01, 3.68039370e-01, 3.68039370e-01, 4.01001185e-01,
          4.01001185e-01, 3.66001904e-01, 0., 4.01001185e-01,
          4.01001185e-01, 2.36168787e-01, 4.74473648e-02, 4.01001185e-01,
          4.10356343e-01, 4.10356343e-01, 2.58574247e-01, 7.74207637e-02,
          4.10356343e-01, 4.10356343e-01, 2.64583677e-01, 1.05261050e-01,
          4.10356343e-01, 3.98913771e-01, 3.98913771e-01, 3.98913771e-01,
          1.38200410e-02, 3.69946957e-01, 3.98913771e-01, 3.98913771e-01,
          1.23815469e-01, 2.19024971e-01, 3.67564678e-01, 4.46492016e-01,
          1.59520298e-01, 0., 4.46492016e-01, 4.46492016e-01,
          4.46492016e-01, 1.50113508e-01, 1.22617722e-01, 3.63177150e-01,
          3.63177150e-01, 3.63177150e-01, 3.85860354e-02, 3.63177150e-01,
          3.63177150e-01, 3.63177150e-01, 3.42647284e-01, 2.93410569e-01,
          4.02078599e-01, 4.02078599e-01, 3.34643841e-01, 1.21213183e-01,
          4.02078599e-01, 4.02078599e-01, 4.02078599e-01, 1.66110277e-01,
          1.82690084e-01, 3.32738876e-01, 4.12794679e-01, 3.96585584e-01,
          4.90540192e-02, 4.12794679e-01, 4.12794679e-01, 4.12794679e-01,
          1.34941280e-01, 1.60211712e-01, 1.70448557e-01, 2.83792019e-01,
          0., 0., 5.34186542e-01, 5.45085847e-01, 5.45085847e-01,
          7.33037218e-02, 0., 3.32778692e-01, 3.32778692e-01,
          3.32778692e-01, 3.32778692e-01, 3.32778692e-01, 3.32778692e-01,
          3.32778692e-01, 3.32778692e-01, 3.32778692e-01, 4.27621514e-01,
          4.36595112e-01, 8.77492577e-02, 4.07031588e-02, 4.36595112e-01,
          4.36595112e-01, 4.36595112e-01, 1.91040874e-01, 6.68147132e-02,
          1.80616021e-01, 2.07014754e-01, 1.58784896e-01, 0.,
          5.27809083e-01, 5.27809083e-01, 5.27809083e-01, 2.24800795e-01,
          8.80700201e-02, 0., 0., 0., 0., 0., 0., 0., 0., 0. ]
      - [ 0., 0., 0., 0., 0., 0., 0., 0., 0., 4.56730038e-01,
          4.56730038e-01, 4.56730038e-01, 3.25909287e-01, 2.32139856e-01,
          0., 2.88185440e-02, 9.60618164e-03, 4.56730038e-01,
          4.60620731e-01, 1.04703367e-01, 1.31530613e-01, 7.17496276e-02,
          7.34239668e-02, 3.28498095e-01, 4.60620731e-01, 4.60620731e-01,
          4.60620731e-01, 4.89520371e-01, 0., 0., 0., 0., 1.91285104e-01,
          4.89520371e-01, 4.89520371e-01, 4.89520371e-01, 0., 0., 0., 0.,
          0., 0., 0., 0., 0., 4.33584303e-01, 4.33584303e-01,
          4.33584303e-01, 4.33584303e-01, 4.33584303e-01, 1.81950536e-02,
          4.70927991e-02, 1.48330601e-02, 2.30050132e-01, 3.41480225e-01,
          3.18366379e-01, 3.41480225e-01, 3.40142816e-01, 3.41480225e-01,
          3.41480225e-01, 3.41480225e-01, 2.82633156e-01, 3.41480225e-01,
          4.32094961e-01, 1.05899451e-02, 3.17698382e-02, 0.,
          2.47046649e-01, 4.32094961e-01, 4.32094961e-01, 4.32094961e-01,
          4.32094961e-01, 5.09544909e-01, 5.09544909e-01, 5.09544909e-01,
          2.30870381e-01, 1.08358003e-01, 6.48256764e-02, 9.05090868e-02,
          2.70895008e-02, 3.71257663e-01, 3.90243113e-01, 3.90243113e-01,
          3.90243113e-01, 2.87868325e-02, 3.90243113e-01, 3.90243113e-01,
          3.77012551e-01, 8.70472193e-02, 2.90014833e-01, 3.13346565e-01,
          3.61899734e-01, 2.86642343e-01, 2.31015068e-02, 4.58606005e-01,
          4.58606005e-01, 4.58606005e-01, 1.71127647e-01, 1.52713239e-01,
          0., 1.50025021e-02, 4.50075120e-02, 0., 5.59880435e-01,
          5.59880435e-01, 5.59880435e-01, 2.27508590e-01, 0.,
          4.35613722e-01, 4.35613722e-01, 4.35613722e-01, 4.35613722e-01,
          4.35613722e-01, 1.79147214e-01, 1.01936780e-01, 2.54667345e-02,
          6.09803945e-02, 3.29220772e-01, 4.29835021e-01, 2.22110510e-01,
          2.01530367e-01, 4.34161663e-01, 4.34161663e-01, 4.34161663e-01,
          1.87167704e-01, 1.09773248e-01, 1.63688026e-02, 4.59766649e-02,
          5.61692268e-02, 0., 5.50258100e-01, 5.50258100e-01,
          5.50258100e-01, 2.83929974e-01, 0., 0., 0., 0., 0., 0., 0., 0.,
          0., 0. ]
      - [ 3.68151218e-01, 3.68151218e-01, 3.68151218e-01, 3.68151218e-01,
          1.55377882e-02, 2.17562214e-01, 3.68151218e-01, 3.68151218e-01,
          3.68151218e-01, 3.71840864e-01, 2.78586239e-01, 2.63130486e-01,
          3.71840864e-01, 3.71840864e-01, 1.40866220e-01, 3.71840864e-01,
          3.71840864e-01, 3.71840864e-01, 4.54123557e-01, 8.98859873e-02,
          3.16297710e-01, 3.27192008e-01, 3.08358341e-01, 0.,
          2.57907003e-01, 4.54123557e-01, 4.54123557e-01, 2.83285022e-01,
          0., 0., 0., 1.59086138e-01, 0., 0., 6.66254401e-01,
          6.66254401e-01, 2.65491575e-01, 3.90451759e-01, 3.90451759e-01,
          3.90451759e-01, 2.89735850e-02, 3.90451759e-01, 3.90451759e-01,
          3.90451759e-01, 1.00292392e-01, 1.57928064e-01, 2.23465756e-01,
          3.87336582e-01, 3.87336582e-01, 3.87336582e-01, 3.06912273e-01,
          3.87336582e-01, 3.87336582e-01, 2.77324438e-01, 3.65816653e-01,
          1.71677411e-01, 4.01013941e-01, 4.01013941e-01, 4.01013941e-01,
          0., 1.69228181e-01, 4.01013941e-01, 4.01013941e-01,
          3.77256960e-01, 3.54049385e-01, 3.77256960e-01, 2.69093692e-01,
          2.78442085e-01, 2.61293232e-01, 2.88744181e-01, 3.77256960e-01,
          3.77256960e-01, 7.77104348e-02, 4.63208824e-01, 4.63208824e-01,
          2.07016125e-01, 0., 3.53751145e-02, 4.63208824e-01,
          4.63208824e-01, 2.94920057e-01, 4.04863089e-01, 4.04863089e-01,
          3.58077466e-01, 0., 7.53443502e-03, 2.19337106e-01,
          4.04863089e-01, 4.04863089e-01, 4.04863089e-01, 4.42971200e-01,
          4.42971200e-01, 1.42382115e-01, 9.08904895e-02, 3.94458652e-01,
          4.42971200e-01, 1.60806790e-01, 2.62889415e-02, 4.42971200e-01,
          4.12905693e-01, 4.12905693e-01, 1.87775448e-01, 3.29765417e-02,
          4.12905693e-01, 4.12905693e-01, 3.82059574e-01, 2.22996846e-01,
          2.86123365e-01, 2.83607841e-01, 4.04686540e-01, 4.04686540e-01,
          4.04686540e-01, 4.04686540e-01, 5.69684990e-02, 4.04686540e-01,
          2.38659412e-01, 1.90956071e-01, 3.88124883e-01, 3.88124883e-01,
          2.64217824e-01, 9.06429216e-02, 3.88124883e-01, 3.88124883e-01,
          3.88124883e-01, 2.13939980e-01, 3.45138073e-01, 3.03836554e-01,
          3.09173167e-01, 2.40842402e-01, 0., 5.38825691e-01,
          5.38825691e-01, 3.57706279e-01, 4.70459051e-02, 1.94617614e-01,
          4.11680713e-02, 2.08488107e-02, 0., 0., 6.44065082e-01,
          6.44065082e-01, 4.01223093e-01, 0., 2.86460500e-02 ]
      - [ 3.77936304e-01, 3.77936304e-01, 3.77936304e-01, 0.,
          3.77936304e-01, 3.77936304e-01, 3.77936304e-01, 2.56347388e-01,
          2.71099895e-01, 4.53039736e-01, 2.55527526e-01, 1.61727950e-01,
          4.53039736e-01, 4.53039736e-01, 3.78691286e-01, 5.39806262e-02,
          2.31578927e-02, 3.76074672e-01, 1.17985494e-01, 1.46819770e-01,
          4.21242297e-01, 4.21242297e-01, 2.69786298e-01, 1.74749251e-02,
          4.21242297e-01, 4.21242297e-01, 4.21242297e-01, 0.,
          2.95343716e-02, 1.41745254e-01, 3.72808188e-01, 0., 0.,
          5.27504146e-01, 5.27504146e-01, 5.27504146e-01, 3.90578657e-01,
          3.90578657e-01, 3.90578657e-01, 1.91060871e-01, 2.06685245e-01,
          3.95584628e-02, 3.90578657e-01, 3.90578657e-01, 3.90578657e-01,
          4.12199706e-01, 1.92248240e-01, 3.56810212e-01, 9.69304070e-02,
          4.12199706e-01, 0., 4.12199706e-01, 3.77597064e-01,
          4.12199706e-01, 2.11196363e-01, 2.29627460e-01, 4.54306275e-01,
          4.54306275e-01, 6.83974847e-02, 0., 2.60527104e-01,
          4.54306275e-01, 4.54306275e-01, 5.22253141e-02, 9.55590904e-02,
          4.11706656e-01, 4.46396589e-01, 1.30766153e-01, 0.,
          4.46396589e-01, 4.46396589e-01, 4.46396589e-01, 2.15273052e-01,
          2.94983029e-01, 4.03632015e-01, 4.03632015e-01, 4.03632015e-01,
          0., 4.03632015e-01, 3.77741307e-01, 2.61240095e-01,
          3.25993359e-01, 1.87014654e-01, 3.77487868e-01, 3.77487868e-01,
          3.77487868e-01, 0., 3.77487868e-01, 3.77487868e-01,
          3.77487868e-01, 3.27732742e-01, 1.52309135e-01, 3.92269820e-01,
          3.92269820e-01, 3.66488844e-01, 0., 3.40084761e-01,
          3.92269820e-01, 3.92269820e-01, 2.49459371e-01, 1.37687132e-01,
          4.18715328e-01, 4.18715328e-01, 1.94979012e-01, 0.,
          4.18715328e-01, 4.18715328e-01, 4.18715328e-01, 0.,
          7.19123557e-02, 3.20743054e-01, 6.65323436e-01, 6.65323436e-01,
          0., 0., 0., 0., 1.05619721e-01, 2.36353293e-01, 4.64112848e-01,
          4.64112848e-01, 4.64112848e-01, 0., 4.20215219e-01,
          2.68593729e-01, 1.82811573e-01, 1.82574928e-01, 1.59756035e-01,
          3.96370620e-01, 3.96370620e-01, 3.96370620e-01, 0.,
          3.89405042e-01, 3.96370620e-01, 3.96370620e-01, 2.68204182e-01,
          2.58452892e-01, 3.69607776e-01, 3.69607776e-01, 3.69607776e-01,
          1.94721758e-01, 3.69607776e-01, 3.69607776e-01, 3.69607776e-01 ]
      - [ 4.37204331e-01, 4.37204331e-01, 2.35815793e-01, 1.31076187e-01,
          1.62990078e-01, 4.37204331e-01, 4.37204331e-01, 2.11529523e-01,
          2.94858783e-01, 4.73719507e-01, 4.36837554e-01, 1.15227051e-01,
          7.79694840e-02, 4.73719507e-01, 3.15345585e-01, 1.08443148e-01,
          2.55248100e-02, 4.73719507e-01, 3.87604892e-01, 1.20954134e-01,
          2.82970846e-01, 3.87604892e-01, 3.87604892e-01, 0.,
          3.87604892e-01, 3.87604892e-01, 3.87604892e-01, 7.10484087e-02,
          3.59198749e-02, 1.74334645e-01, 4.67044115e-01, 0., 0.,
          4.96715277e-01, 4.96715277e-01, 4.96715277e-01, 1.08248718e-01,
          4.04229164e-01, 4.04229164e-01, 4.04229164e-01, 1.12865670e-02,
          2.80278981e-01, 4.04229164e-01, 4.04229164e-01, 2.97580510e-01,
          1.00719305e-02, 1.67694781e-02, 6.87982515e-03, 4.82640564e-02,
          4.99895006e-01, 4.25968736e-01, 4.99895006e-01, 4.99895006e-01,
          2.47211441e-01, 0., 4.41478252e-01, 4.41478252e-01,
          4.41478252e-01, 5.38336150e-02, 0., 4.04584765e-01,
          4.41478252e-01, 2.22240791e-01, 0., 1.67017892e-01,
          4.39934224e-01, 4.39934224e-01, 0., 0., 4.39934224e-01,
          4.39934224e-01, 4.39934224e-01, 1.93732798e-01, 3.57018411e-01,
          3.79063725e-01, 3.79063725e-01, 3.68022174e-01, 0.,
          3.79063725e-01, 3.79063725e-01, 3.47880661e-01, 4.81321961e-01,
          0., 5.71249984e-02, 4.00749207e-01, 4.81321961e-01, 0.,
          3.13042372e-01, 1.95758954e-01, 4.81321961e-01, 4.36518252e-01,
          2.20521510e-01, 4.35791433e-01, 4.21838254e-01, 4.36518252e-01,
          5.38341291e-02, 4.98141758e-02, 4.60867919e-02, 4.36518252e-01,
          2.73322821e-01, 3.15241992e-01, 3.68783295e-01, 3.68783295e-01,
          3.68783295e-01, 7.89047182e-02, 3.68783295e-01, 3.68783295e-01,
          3.68783295e-01, 4.13028091e-01, 2.55251080e-01, 4.13028091e-01,
          4.13028091e-01, 4.13028091e-01, 0., 2.04047691e-02,
          2.78106898e-01, 4.13028091e-01, 4.87163633e-01, 9.07935575e-03,
          9.10929367e-02, 4.47961301e-01, 4.87163633e-01, 2.52039433e-01,
          3.87648158e-02, 9.52517912e-02, 4.87163633e-01, 5.61743319e-01,
          6.13448173e-02, 5.40463217e-02, 1.13584697e-01, 5.61743319e-01,
          1.66065931e-01, 2.36719046e-02, 0., 5.61743319e-01,
          3.52929503e-01, 3.52929503e-01, 3.52929503e-01, 0.,
          3.52929503e-01, 3.52929503e-01, 3.52929503e-01, 3.52929503e-01,
          3.52929503e-01 ]
      - [ 4.22167063e-01, 1.96291596e-01, 4.22167063e-01, 4.22167063e-01,
          0., 0., 2.57152259e-01, 4.22167063e-01, 4.22167063e-01,
          3.57727379e-01, 0., 5.67268506e-02, 3.97956043e-01, 0., 0.,
          3.73320997e-01, 5.31866491e-01, 5.31866491e-01, 0., 0., 0., 0.,
          0., 0., 9.41842496e-01, 3.13947499e-01, 0., 0., 0., 0., 0., 0.,
          0., 0., 0., 0., 1.23651244e-01, 6.49537072e-02, 5.58407485e-01,
          5.58407485e-01, 0., 0., 8.29216391e-02, 4.49650288e-01,
          3.77115309e-01, 2.07912549e-02, 3.88264284e-02, 3.33363503e-01,
          4.84255046e-01, 0., 0., 4.22591239e-01, 4.84255046e-01,
          4.84255046e-01, 0., 6.75914958e-02, 2.34554768e-01,
          2.22948268e-01, 0., 0., 5.43226361e-01, 5.43226361e-01,
          5.43226361e-01, 0., 0., 0., 0., 0., 0., 0., 0., 0.,
          4.09489214e-01, 4.09489214e-01, 4.09489214e-01, 4.09489214e-01,
          0., 0., 1.90584004e-01, 3.48109335e-01, 4.09489214e-01,
          2.95381904e-01, 3.64900500e-01, 3.64900500e-01, 3.64900500e-01,
          1.86050653e-01, 3.64900500e-01, 3.64900500e-01, 3.64900500e-01,
          2.74908692e-01, 2.24194571e-01, 1.33007094e-01, 3.82565498e-01,
          4.12471592e-01, 2.38906741e-01, 2.09669814e-01, 4.12471592e-01,
          4.12471592e-01, 4.12471592e-01, 5.17807961e-01, 6.33466840e-02,
          2.27637455e-01, 2.63757110e-01, 1.04748890e-01, 0.,
          2.32554749e-01, 5.17807961e-01, 5.17807961e-01, 3.54543269e-01,
          3.54543269e-01, 3.54543269e-01, 3.42892200e-01, 3.54543269e-01,
          5.51950112e-02, 3.48755836e-01, 3.54543269e-01, 3.54543269e-01,
          3.62306952e-01, 3.62306952e-01, 3.62306952e-01, 1.12661362e-01,
          3.62306952e-01, 3.62306952e-01, 3.62306952e-01, 3.52334470e-01,
          2.68235266e-01, 1.16954118e-01, 7.56646544e-02, 4.10380185e-01,
          4.10380185e-01, 4.10380185e-01, 1.92799613e-01, 3.11874598e-01,
          4.10380185e-01, 4.10380185e-01, 1.19283654e-01, 4.78583947e-02,
          3.44448179e-01, 4.38368618e-01, 4.13249642e-01, 0.,
          3.36424023e-01, 4.38368618e-01, 4.38368618e-01 ]
      - [ 3.62299502e-01, 3.62299502e-01, 3.62299502e-01, 2.12682128e-01,
          3.62299502e-01, 3.62299502e-01, 3.62299502e-01, 1.79777995e-01,
          3.62299502e-01, 4.07681376e-01, 3.34504992e-01, 3.49614024e-01,
          1.94256842e-01, 4.07681376e-01, 4.07681376e-01, 2.43146777e-01,
          1.14621473e-02, 4.07681376e-01, 3.42582345e-01, 1.62381843e-01,
          3.65784883e-01, 3.65784883e-01, 3.65784883e-01, 2.80193388e-01,
          3.24212432e-01, 3.65784883e-01, 3.65784883e-01, 2.35486746e-01,
          3.25730927e-02, 1.83540300e-01, 4.29627329e-01, 4.08885986e-01,
          0., 4.29627329e-01, 4.29627329e-01, 4.29627329e-01,
          3.83012265e-01, 1.87819883e-01, 3.83012265e-01, 2.79460490e-01,
          3.83012265e-01, 5.10764346e-02, 3.83012265e-01, 3.83012265e-01,
          3.83012265e-01, 3.85360628e-01, 1.55974135e-01, 3.85360628e-01,
          2.19371378e-01, 3.85360628e-01, 1.80780336e-01, 3.85360628e-01,
          3.85360628e-01, 3.85360628e-01, 3.85891974e-01, 2.63532698e-01,
          3.85891974e-01, 3.85891974e-01, 3.85891974e-01, 0.,
          1.82262957e-01, 3.85891974e-01, 3.85891974e-01, 3.92323315e-01,
          1.66946828e-01, 3.92323315e-01, 2.11432666e-01, 3.92323315e-01,
          0., 3.92323315e-01, 3.92323315e-01, 3.92323315e-01,
          1.98941827e-01, 1.92421824e-01, 4.00064856e-01, 4.00064856e-01,
          4.00064856e-01, 0., 4.00064856e-01, 4.00064856e-01,
          3.45166534e-01, 3.65819335e-01, 2.44087175e-01, 3.65819335e-01,
          3.65819335e-01, 3.65819335e-01, 0., 3.65819335e-01,
          3.65819335e-01, 3.65819335e-01, 3.01962465e-01, 1.70922220e-01,
          4.26543206e-01, 4.26543206e-01, 2.84138530e-01, 0.,
          2.58558095e-01, 4.26543206e-01, 4.26543206e-01, 3.70181650e-01,
          1.92511201e-01, 3.70181650e-01, 3.70181650e-01, 3.70181650e-01,
          0., 3.70181650e-01, 3.70181650e-01, 3.70181650e-01, 0., 0., 0.,
          0., 9.95024860e-01, 0., 0., 0., 0., 4.80446927e-02,
          1.72527999e-01, 5.16846597e-01, 5.16846597e-01, 5.16846597e-01,
          0., 1.74976349e-01, 3.04096103e-01, 1.95657477e-01,
          8.72644335e-02, 2.01424032e-01, 4.13671106e-01, 4.13671106e-01,
          4.13671106e-01, 0., 3.53189230e-01, 4.13671106e-01,
          3.72079283e-01, 3.85337055e-01, 1.62249193e-01, 3.85337055e-01,
          3.85337055e-01, 3.85337055e-01, 0., 2.80923277e-01,
          3.85337055e-01, 3.85337055e-01 ]
      - [ 3.83307815e-01, 2.66567498e-01, 3.83307815e-01, 3.11764002e-01,
          3.83307815e-01, 1.22944921e-01, 2.79599279e-01, 3.83307815e-01,
          3.83307815e-01, 2.39378333e-01, 2.84916181e-02, 1.63616315e-01,
          4.43345159e-01, 3.52672338e-01, 1.43618017e-01, 4.19545799e-01,
          4.43345159e-01, 4.43345159e-01, 1.96704373e-01, 0.,
          2.85888314e-02, 2.00559318e-01, 0., 0., 2.51430601e-01,
          6.52126551e-01, 6.52126551e-01, 0., 0., 0., 0., 0., 0., 0., 0.,
          0., 1.25453956e-02, 2.83972353e-01, 4.24627393e-01,
          4.24627393e-01, 4.24627393e-01, 1.10605620e-01, 4.24627393e-01,
          4.24627393e-01, 3.44223864e-02, 2.22384423e-01, 1.41894743e-01,
          3.92233580e-01, 3.92233580e-01, 3.92233580e-01, 5.83914779e-02,
          3.92233580e-01, 3.92233580e-01, 3.92233580e-01, 2.97299653e-01,
          5.91061264e-02, 3.09839606e-01, 4.39494282e-01, 1.97445258e-01,
          0., 4.35061425e-01, 4.39494282e-01, 4.39494282e-01,
          5.62967956e-01, 0., 1.66748706e-02, 1.16979264e-01, 0., 0.,
          1.72096223e-01, 5.62967956e-01, 5.62967956e-01, 3.86221021e-01,
          3.50147516e-01, 3.86221021e-01, 0., 3.86221021e-01, 0.,
          3.86221021e-01, 3.57358187e-01, 3.86221021e-01, 3.62799823e-01,
          3.62799823e-01, 3.62799823e-01, 3.62799823e-01, 3.62799823e-01,
          0., 3.62799823e-01, 2.73878485e-01, 3.62799823e-01,
          3.70985657e-01, 2.49185920e-01, 3.70985657e-01, 3.70985657e-01,
          3.70985657e-01, 0., 3.29268724e-01, 3.70985657e-01,
          3.70985657e-01, 3.54409516e-01, 2.46716365e-01, 3.54409516e-01,
          3.06640506e-01, 3.54409516e-01, 3.54409516e-01, 2.96521842e-01,
          3.54409516e-01, 3.54409516e-01, 2.23586112e-01, 3.86520922e-01,
          3.86520922e-01, 0., 3.86520922e-01, 2.23063797e-01,
          3.86520922e-01, 3.86520922e-01, 3.86520922e-01, 3.82256120e-01,
          3.82256120e-01, 3.82256120e-01, 0., 3.82256120e-01,
          2.70281792e-01, 3.82256120e-01, 2.15431094e-01, 3.82256120e-01,
          3.90040606e-01, 3.20449442e-01, 3.21696192e-01, 5.88716902e-02,
          3.90040606e-01, 3.90040606e-01, 3.90040606e-01, 1.60632849e-01,
          3.90040606e-01, 2.02547476e-01, 2.55978912e-01, 4.08600837e-01,
          9.66558084e-02, 4.76414680e-01, 4.76414680e-01, 3.93692911e-01,
          2.34699607e-01, 2.19940826e-01 ]
      - [ 3.84904832e-01, 3.84904832e-01, 3.05167288e-01, 0.,
          3.84904832e-01, 3.84904832e-01, 3.84904832e-01, 2.12839603e-01,
          3.42006236e-01, 3.83935302e-01, 2.94752866e-01, 3.83935302e-01,
          0., 3.83935302e-01, 3.83935302e-01, 3.83935302e-01,
          1.57629848e-01, 3.83935302e-01, 4.90840822e-01, 3.39592993e-02,
          1.73912033e-01, 4.90840822e-01, 4.90840822e-01, 0., 0., 0.,
          4.90840822e-01, 3.82175595e-01, 1.89158335e-01, 2.37478286e-01,
          3.82175595e-01, 3.82175595e-01, 1.66300878e-01, 3.82175595e-01,
          3.82175595e-01, 3.82175595e-01, 7.87428990e-02, 3.72745246e-01,
          4.55216378e-01, 4.55216378e-01, 7.84142017e-02, 1.23599946e-01,
          4.55216378e-01, 4.55216378e-01, 0., 0., 0., 0., 0.,
          5.16501606e-01, 4.41044003e-01, 5.16501606e-01, 5.16501606e-01,
          0., 0., 1.59585267e-01, 5.55230021e-01, 5.36489248e-01,
          6.10195756e-01, 0., 0., 0., 0., 1.01063356e-01, 4.29934889e-01,
          4.29934889e-01, 4.29934889e-01, 2.01429874e-01, 5.77380992e-02,
          4.29934889e-01, 4.29934889e-01, 1.31771803e-01, 8.68975893e-02,
          4.93737519e-01, 4.93737519e-01, 1.08944692e-01, 0., 0.,
          4.93737519e-01, 4.93737519e-01, 2.32719313e-02, 4.56430674e-01,
          4.56430674e-01, 0., 0., 4.56238240e-01, 0., 3.12045068e-01,
          2.54810929e-01, 4.56430674e-01, 5.48438907e-01, 3.31825800e-02,
          0., 0., 3.01772177e-01, 0., 0., 5.48438907e-01, 5.48438907e-01,
          9.66560319e-02, 4.31728035e-01, 4.31728035e-01, 4.31728035e-01,
          0., 0., 4.31728035e-01, 4.31728035e-01, 2.33237177e-01,
          3.77566487e-01, 3.77566487e-01, 3.77566487e-01, 1.97908893e-01,
          3.77566487e-01, 3.77566487e-01, 3.77566487e-01, 3.09040010e-01,
          7.88389519e-02, 4.46690530e-01, 4.46690530e-01, 4.19025421e-02,
          5.70878424e-02, 4.46690530e-01, 4.46690530e-01, 1.94706827e-01,
          9.93581638e-02, 3.80277336e-01, 4.43018198e-01, 1.26271974e-02,
          1.15470283e-01, 4.43018198e-01, 4.43018198e-01, 2.72268988e-02,
          3.88106355e-03, 4.43018198e-01, 4.43018198e-01, 3.73912513e-01,
          1.15158908e-01, 3.73912513e-01, 3.73912513e-01, 3.73912513e-01,
          1.65384397e-01, 3.41741979e-01, 3.73912513e-01, 3.73912513e-01 ]
      - [ 4.20438051e-01, 4.20438051e-01, 4.20438051e-01, 4.29177508e-02,
          2.81268835e-01, 3.67546558e-01, 2.60518402e-01, 6.93754703e-02,
          4.20438051e-01, 3.53968561e-01, 3.53968561e-01, 3.53968561e-01,
          2.38066897e-01, 3.53968561e-01, 3.53968561e-01, 3.53968561e-01,
          2.50462383e-01, 3.53968561e-01, 4.05903399e-01, 1.63698390e-01,
          2.77212739e-01, 1.86191946e-01, 4.05903399e-01, 4.05903399e-01,
          1.83971941e-01, 4.05903399e-01, 4.05903399e-01, 4.16973799e-01,
          0., 8.94732028e-02, 4.16973799e-01, 4.16973799e-01,
          3.12685855e-02, 3.42805713e-01, 4.16973799e-01, 4.16973799e-01,
          3.66168380e-01, 3.66168380e-01, 3.66168380e-01, 3.66168380e-01,
          8.96392614e-02, 3.66168380e-01, 3.66168380e-01, 2.23050758e-01,
          3.66168380e-01, 3.66682529e-01, 3.66682529e-01, 3.66682529e-01,
          2.81966627e-01, 3.66682529e-01, 3.66682529e-01, 3.66682529e-01,
          2.21646041e-01, 2.46916831e-01, 2.74780452e-01, 3.24218959e-01,
          2.92539001e-01, 2.64649540e-01, 3.96527737e-01, 3.96527737e-01,
          3.96527737e-01, 3.95546883e-01, 1.77870482e-01, 1.63600042e-01,
          0., 1.07239194e-01, 4.68425900e-01, 4.68425900e-01,
          3.74773443e-02, 4.10874039e-01, 4.65688288e-01, 3.62108886e-01,
          2.03164637e-01, 3.53871435e-01, 3.53871435e-01, 3.53871435e-01,
          3.35397750e-01, 3.53871435e-01, 3.53871435e-01, 3.53871435e-01,
          3.02236527e-01, 2.98722476e-01, 3.95578176e-01, 3.95578176e-01,
          1.72820643e-01, 1.42994240e-01, 3.95578176e-01, 3.95578176e-01,
          3.95578176e-01, 2.72191525e-01, 1.62598968e-01, 3.46672624e-01,
          4.09299284e-01, 0., 8.10265392e-02, 4.73721892e-01,
          4.73721892e-01, 4.73721892e-01, 3.63267884e-02, 0., 0., 0., 0.,
          0., 0., 0., 0., 0., 2.13220567e-01, 4.19072896e-01,
          4.27454323e-01, 4.27454323e-01, 4.27454323e-01, 0.,
          2.12627292e-01, 3.36569041e-01, 2.60776550e-01, 3.13456059e-01,
          3.35111350e-01, 3.35111350e-01, 3.35111350e-01, 3.35111350e-01,
          3.35111350e-01, 3.35111350e-01, 3.35111350e-01, 3.35111350e-01,
          8.97257030e-02, 2.09036842e-01, 1.78938255e-01, 0.,
          4.74879742e-01, 4.74879742e-01, 4.74879742e-01, 4.74879742e-01,
          9.71987844e-02, 0., 0., 0., 0., 0., 0., 0., 0., 0. ]
      - [ 4.88773018e-01, 4.88773018e-01, 1.07825339e-01, 9.12790596e-02,
          1.52575657e-01, 4.88773018e-01, 7.20164552e-02, 0.,
          4.79580164e-01, 4.42266136e-01, 4.42266136e-01, 7.64428452e-02,
          2.42362674e-02, 4.42266136e-01, 4.42266136e-01, 1.05615936e-01,
          0., 4.42266136e-01, 4.02367502e-01, 4.02367502e-01,
          3.22284639e-01, 2.27070481e-01, 4.02367502e-01, 1.50065795e-01,
          9.23803449e-02, 4.02367502e-01, 4.02367502e-01, 1.61940917e-01,
          3.28491852e-02, 1.62026256e-01, 4.45322454e-01, 3.55235368e-01,
          0., 1.57640129e-01, 5.43901324e-01, 5.43901324e-01,
          4.25354153e-01, 4.25354153e-01, 4.25354153e-01, 1.91719711e-01,
          3.74583676e-02, 4.25354153e-01, 4.25354153e-01, 2.05425307e-01,
          1.03735596e-01, 2.88567334e-01, 4.37245369e-01, 4.37245369e-01,
          1.35100707e-01, 1.97704583e-01, 4.37245369e-01, 4.37245369e-01,
          2.49583334e-01, 1.67320028e-01, 1.58211336e-01, 4.14628565e-01,
          4.14628565e-01, 2.18072072e-01, 4.14628565e-01, 3.83193552e-01,
          4.14628565e-01, 2.92729259e-01, 5.54692671e-02, 6.25863075e-02,
          1.47299245e-01, 3.99273843e-01, 3.99273843e-01, 3.99273843e-01,
          1.17810994e-01, 3.99273843e-01, 3.99273843e-01, 3.99273843e-01,
          1.38808461e-02, 2.66088903e-01, 4.59453106e-01, 4.59453106e-01,
          6.48537045e-03, 2.81814169e-02, 2.81406939e-01, 4.59453106e-01,
          4.59453106e-01, 2.19399124e-01, 2.16171458e-01, 4.24022019e-01,
          4.24022019e-01, 3.67242135e-02, 2.40039658e-02, 4.24022019e-01,
          4.24022019e-01, 4.24022019e-01, 3.71764123e-01, 3.71764123e-01,
          3.71764123e-01, 1.54580120e-02, 1.69076920e-01, 3.71764123e-01,
          3.71764123e-01, 3.71764123e-01, 3.71764123e-01, 3.64818931e-01,
          3.64818931e-01, 3.64818931e-01, 3.37294228e-02, 2.52126187e-01,
          3.64818931e-01, 3.64818931e-01, 3.64818931e-01, 3.64818931e-01,
          7.20211565e-02, 1.59471687e-02, 4.19771701e-01, 5.55798829e-01,
          3.20618421e-01, 0., 6.29687216e-03, 5.09163141e-01,
          3.76569927e-01, 3.63289833e-01, 6.33426458e-02, 3.92962009e-01,
          4.18314546e-01, 4.18314546e-01, 0., 7.39051774e-02,
          4.18314546e-01, 4.18314546e-01, 4.19526666e-01, 1.40113398e-01,
          3.30988437e-01, 1.77806482e-01, 4.19526666e-01, 2.97143638e-01,
          3.73188645e-01, 2.81845391e-01, 4.19526666e-01, 4.09812033e-01,
          1.93026081e-01, 2.74392635e-01, 0., 4.09812033e-01,
          4.09812033e-01, 4.09812033e-01, 2.08868966e-01, 4.09812033e-01 ]
      - [ 5.09207189e-01, 5.09207189e-01, 2.04824433e-01, 0.,
          4.51546878e-01, 1.37446746e-01, 2.37829223e-01, 7.27456138e-02,
          3.86958241e-01, 4.48209733e-01, 4.48209733e-01, 8.71116761e-03,
          6.11114800e-02, 4.48209733e-01, 4.85874563e-02, 3.64648849e-01,
          2.29815617e-01, 4.48209733e-01, 4.01701778e-01, 1.19252205e-01,
          4.01701778e-01, 4.01701778e-01, 4.01701778e-01, 0.,
          1.16533384e-01, 4.01701778e-01, 4.01701778e-01, 7.10291639e-02,
          3.19184586e-02, 1.64388612e-01, 4.81482863e-01, 2.41032779e-01,
          0., 2.45602578e-01, 5.52787960e-01, 5.52787960e-01,
          3.79395604e-01, 4.04421955e-01, 4.04421955e-01, 4.80898395e-02,
          1.91156670e-01, 4.04421955e-01, 4.04421955e-01, 3.60378563e-01,
          1.70482039e-01, 2.02518627e-01, 1.47893220e-01, 1.26901630e-03,
          8.90253391e-03, 5.73028266e-01, 4.21423078e-01, 5.73028266e-01,
          2.72156060e-01, 1.51399434e-01, 8.02039802e-02, 1.16775200e-01,
          4.61386561e-01, 5.48248708e-01, 5.48248708e-01, 0.,
          2.19702031e-02, 3.09793681e-01, 2.52923191e-01, 4.61296141e-02,
          2.89499789e-01, 4.23597246e-01, 4.23597246e-01, 1.12504564e-01,
          0., 4.23597246e-01, 4.23597246e-01, 4.23597246e-01,
          2.92531520e-01, 2.87694275e-01, 4.03457642e-01, 4.03457642e-01,
          9.38755721e-02, 7.01695010e-02, 4.03457642e-01, 4.03457642e-01,
          4.03457642e-01, 4.20710087e-01, 9.61720198e-02, 3.26636970e-01,
          2.67429978e-01, 4.20710087e-01, 2.06036102e-02, 3.16109776e-01,
          4.20710087e-01, 4.20710087e-01, 4.86024141e-01, 4.86024141e-01,
          1.48104131e-01, 5.72081236e-03, 4.86024141e-01, 1.34025350e-01,
          9.81957465e-02, 2.63636932e-02, 4.86024141e-01, 3.82209539e-01,
          3.82209539e-01, 3.82209539e-01, 2.34987419e-02, 1.85309529e-01,
          3.82209539e-01, 3.82209539e-01, 2.91178703e-01, 3.82209539e-01,
          9.24439654e-02, 6.81453049e-02, 5.68179071e-01, 5.68179071e-01,
          5.11431694e-01, 0., 2.25447148e-01, 1.04666092e-01,
          1.10172249e-01, 2.36150622e-01, 1.51134759e-01, 3.65756631e-01,
          4.09849018e-01, 4.09849018e-01, 0., 3.79112184e-01,
          4.09849018e-01, 3.68597746e-01, 4.00856465e-01, 4.00856465e-01,
          3.22641045e-01, 8.94841030e-02, 4.00856465e-01, 4.00856465e-01,
          3.25433314e-01, 1.78108633e-01, 3.21741730e-01, 1.12754554e-01,
          7.48447254e-02, 1.36773631e-01, 0., 5.54177582e-01,
          5.54177582e-01, 5.54177582e-01, 1.64453939e-01, 9.51845720e-02 ]
      - [ 4.00063425e-01, 4.00063425e-01, 4.00063425e-01, 0.,
          1.77827552e-01, 4.00063425e-01, 2.57231444e-01, 3.12984079e-01,
          4.00063425e-01, 4.33319956e-01, 4.33319956e-01, 1.07682995e-01,
          0., 4.33319956e-01, 4.33319956e-01, 2.05373615e-01,
          6.74261004e-02, 4.31609511e-01, 5.72800994e-01, 9.24745649e-02,
          0., 0., 5.72800994e-01, 2.71933619e-02, 3.87628330e-03,
          2.59097647e-02, 5.72800994e-01, 4.21100378e-01, 1.11020878e-02,
          8.19825530e-02, 3.41478944e-01, 4.51606572e-01, 0.,
          2.87864298e-01, 4.51606572e-01, 4.51606572e-01, 3.14837068e-01,
          3.74636382e-01, 3.74636382e-01, 0., 3.74636382e-01,
          3.74636382e-01, 3.74636382e-01, 3.29240680e-01, 2.94912308e-01,
          4.65331748e-02, 1.01972938e-01, 1.11259766e-01, 0.,
          5.05833566e-01, 5.05833566e-01, 5.05833566e-01, 4.46533024e-01,
          5.48724607e-02, 0., 0., 0., 0., 9.91558969e-01, 8.23521167e-02,
          1.17388992e-02, 0., 0., 3.43093693e-01, 4.38241005e-01,
          4.38241005e-01, 6.09594919e-02, 3.45563084e-01, 0.,
          4.38241005e-01, 2.46779829e-01, 3.43093693e-01, 3.88646990e-01,
          2.99730510e-01, 3.88646990e-01, 0., 3.88646990e-01, 0.,
          3.88646990e-01, 3.88646990e-01, 3.88646990e-01, 5.12939990e-01,
          9.99459252e-03, 2.99837776e-02, 0., 6.67067245e-02, 0.,
          5.12939990e-01, 4.47332382e-01, 5.12939990e-01, 7.04615593e-01,
          0., 0., 0., 0., 0., 0., 0., 7.04615593e-01, 7.73935486e-03,
          4.85619694e-01, 4.85619694e-01, 0., 4.85619694e-01, 0.,
          4.85619694e-01, 2.27428988e-01, 7.73935486e-03, 4.37401593e-01,
          1.95068702e-01, 4.37401593e-01, 0., 4.37401593e-01, 0.,
          4.16014940e-01, 1.38671666e-01, 4.37401593e-01, 3.70414138e-01,
          2.45909840e-01, 3.70414138e-01, 3.70414138e-01, 3.70414138e-01,
          0., 3.70414138e-01, 3.35540980e-01, 3.70414138e-01,
          3.54755908e-01, 3.29751462e-01, 8.22024867e-02, 3.54755908e-01,
          3.54755908e-01, 3.54755908e-01, 3.54755908e-01, 3.54755908e-01,
          3.54755908e-01, 2.05213189e-01, 0., 0., 0., 2.54883796e-01,
          4.80799168e-01, 4.80799168e-01, 4.80799168e-01, 4.41153169e-01 ]
      - [ 4.08362925e-01, 5.33101916e-01, 5.33101916e-01, 0.,
          1.01025589e-01, 2.31091872e-01, 3.20960462e-01, 2.36398295e-01,
          1.92383096e-01, 3.32778692e-01, 3.32778692e-01, 3.32778692e-01,
          3.32778692e-01, 3.32778692e-01, 3.32778692e-01, 3.32778692e-01,
          3.32778692e-01, 3.32778692e-01, 3.65519941e-01, 1.80734560e-01,
          1.95571586e-01, 4.48905617e-01, 3.78371686e-01, 0.,
          2.08048269e-01, 4.48905617e-01, 4.48905617e-01, 5.61708391e-01,
          4.60891835e-02, 1.51664674e-01, 9.39848423e-02, 0., 0.,
          1.17823824e-01, 5.61708391e-01, 5.61708391e-01, 4.31220770e-01,
          4.61323112e-01, 4.61323112e-01, 0., 6.21250458e-03,
          3.38041037e-01, 4.61323112e-01, 2.38061473e-01, 0.,
          1.08137630e-01, 3.48836839e-01, 3.78538817e-01, 3.78538817e-01,
          3.78538817e-01, 3.78538817e-01, 3.78538817e-01, 3.78538817e-01,
          5.55662774e-02, 2.16745064e-01, 2.04802588e-01, 4.19278443e-01,
          4.19278443e-01, 4.19278443e-01, 1.06311785e-02, 1.66745335e-01,
          4.19278443e-01, 4.19278443e-01, 3.83125633e-01, 3.61523688e-01,
          2.84478277e-01, 3.83125633e-01, 2.57035941e-01, 1.94730744e-01,
          3.05641413e-01, 3.83125633e-01, 3.83125633e-01, 4.30131912e-01,
          4.30131912e-01, 4.30131912e-01, 9.15020332e-03, 4.23939079e-02,
          3.69656146e-01, 4.30131912e-01, 3.28504145e-01, 9.59582999e-02,
          4.02681828e-01, 4.02681828e-01, 1.49144202e-01, 6.97324723e-02,
          6.10291436e-02, 4.02681828e-01, 4.02681828e-01, 3.92915905e-01,
          4.02681828e-01, 4.26039428e-01, 4.26039428e-01, 1.94540530e-01,
          8.06715861e-02, 4.26039428e-01, 4.26039428e-01, 2.45539531e-01,
          3.33729945e-02, 4.04905617e-01, 4.29829419e-01, 4.29829419e-01,
          1.10872500e-01, 1.35378823e-01, 4.29829419e-01, 4.29829419e-01,
          3.62577766e-01, 1.90722793e-01, 2.41319209e-01, 3.14270794e-01,
          3.78928721e-01, 3.78928721e-01, 3.78928721e-01, 3.78928721e-01,
          3.78928721e-01, 3.78928721e-01, 1.62901834e-01, 9.68995169e-02,
          4.10721600e-01, 2.04963773e-01, 9.16977003e-02, 3.69198948e-01,
          4.14593130e-01, 4.14593130e-01, 4.14593130e-01, 1.47576720e-01,
          3.20933729e-01, 3.39611471e-01, 2.59918153e-01, 1.22474082e-01,
          0., 5.10083377e-01, 5.10083377e-01, 4.79583710e-01,
          5.80417514e-02, 2.08021566e-01, 8.19927529e-02, 1.36515602e-01,
          0., 0., 6.62304580e-01, 6.62304580e-01, 3.01220775e-01, 0., 0. ]
      - [ 3.72879118e-01, 3.72879118e-01, 3.72879118e-01, 5.27458340e-02,
          3.72879118e-01, 3.72879118e-01, 3.72879118e-01, 1.59471422e-01,
          3.65825862e-01, 3.63677680e-01, 2.43917629e-01, 3.63677680e-01,
          3.63677680e-01, 3.63677680e-01, 1.05073981e-01, 3.63677680e-01,
          3.63677680e-01, 3.63677680e-01, 2.34492794e-01, 6.80999458e-02,
          2.81363670e-02, 1.97385147e-01, 1.87137216e-01, 0.,
          5.35491943e-01, 5.35491943e-01, 5.35491943e-01, 0., 0., 0., 0.,
          0., 0., 0., 0., 0., 0., 5.19160450e-01, 5.19160450e-01,
          2.96613157e-01, 5.19160450e-01, 3.10316384e-01, 4.42341119e-02,
          0., 0., 3.32965642e-01, 3.32965642e-01, 3.32965642e-01,
          3.32965642e-01, 3.32965642e-01, 3.31276566e-01, 3.32965642e-01,
          3.32965642e-01, 3.32965642e-01, 3.68078917e-01, 1.73253328e-01,
          3.68078917e-01, 3.68078917e-01, 3.68078917e-01, 1.33907080e-01,
          3.68078917e-01, 3.68078917e-01, 3.68078917e-01, 4.64280039e-01,
          9.58018154e-02, 3.10946256e-01, 1.65145963e-01, 0., 0.,
          4.64280039e-01, 4.64280039e-01, 4.64280039e-01, 3.60564053e-01,
          6.05779886e-01, 6.05779886e-01, 0., 0., 0., 0., 0.,
          3.60564053e-01, 2.36744463e-01, 4.25744683e-01, 4.25744683e-01,
          7.46743307e-02, 4.25744683e-01, 3.77598330e-02, 4.25744683e-01,
          3.84615719e-01, 2.44404748e-01, 2.83389062e-01, 2.56098330e-01,
          3.76440763e-01, 3.76440763e-01, 3.76440763e-01, 9.86775104e-03,
          3.76440763e-01, 3.76440763e-01, 3.76440763e-01, 3.86661977e-01,
          1.81179658e-01, 3.86661977e-01, 3.86661977e-01, 2.96742916e-01,
          3.95143889e-02, 3.55184436e-01, 3.86661977e-01, 3.86661977e-01,
          2.25698918e-01, 6.22416914e-01, 6.22416914e-01, 3.09776038e-01,
          1.45392016e-01, 0., 0., 0., 2.25698918e-01, 3.71292979e-01,
          3.25816453e-01, 3.71292979e-01, 2.50964761e-01, 3.71292979e-01,
          0., 3.71292979e-01, 3.71292979e-01, 3.71292979e-01,
          3.94403070e-01, 3.94403070e-01, 3.94403070e-01, 2.88961548e-02,
          3.94403070e-01, 8.20111111e-02, 3.94403070e-01, 2.34896451e-01,
          3.94403070e-01, 3.59810472e-01, 3.59810472e-01, 3.36426139e-01,
          2.34680280e-01, 3.59810472e-01, 3.59810472e-01, 3.59810472e-01,
          2.26641253e-01, 3.59810472e-01 ]
      - [ 4.20996577e-01, 4.20996577e-01, 4.20996577e-01, 0.,
          1.65694579e-01, 4.20996577e-01, 2.80465364e-01, 5.90624288e-02,
          4.20996577e-01, 4.52025265e-01, 3.33776474e-01, 3.58972400e-02,
          0., 4.52025265e-01, 4.52025265e-01, 2.55040169e-01,
          2.08974816e-02, 4.52025265e-01, 4.88061905e-01, 0.,
          1.26195997e-01, 4.88061905e-01, 4.88061905e-01, 3.79886813e-02,
          5.41510433e-03, 1.57827839e-01, 4.88061905e-01, 4.26569313e-01,
          0., 1.07337438e-01, 4.26569313e-01, 4.26569313e-01,
          2.00675204e-01, 1.84770346e-01, 4.26569313e-01, 4.26569313e-01,
          4.07320648e-01, 4.07320648e-01, 4.07320648e-01, 0.,
          1.55929383e-02, 4.07320648e-01, 4.07320648e-01, 4.07320648e-01,
          1.50704095e-02, 4.28539738e-02, 4.89071310e-02, 1.19656101e-01,
          0., 5.05254447e-01, 5.05254447e-01, 5.05254447e-01,
          4.57340449e-01, 3.74354087e-02, 0., 0., 1.28086194e-01,
          6.98250234e-01, 6.98250234e-01, 3.85576934e-02, 5.49621461e-03,
          0., 0., 8.22691768e-02, 0., 1.65266916e-01, 6.11774206e-01,
          6.11774206e-01, 3.43212456e-01, 2.19496518e-01, 1.57761604e-01,
          1.42873228e-01, 4.15116251e-02, 4.72257078e-01, 4.93269891e-01,
          0., 5.10136299e-02, 0., 4.93269891e-01, 4.93269891e-01,
          1.94359288e-01, 0., 0., 0., 0., 3.18972580e-02, 0.,
          6.57569587e-01, 6.57569587e-01, 3.57242644e-01, 0., 0., 0., 0.,
          0., 0., 0., 0., 0., 0., 0., 0., 0., 0., 0., 0., 0., 0., 0.,
          2.10384548e-01, 4.34780270e-01, 4.34780270e-01, 4.34780270e-01,
          0., 4.34780270e-01, 4.34780270e-01, 7.89048672e-02, 0., 0., 0.,
          0., 5.71671247e-01, 0., 5.71671247e-01, 5.71671247e-01,
          1.17760599e-01, 0., 0., 0., 0., 0., 0., 0., 0., 0., 0., 0., 0.,
          0., 0., 0., 0., 0., 0. ]
      - [ 4.37681437e-01, 4.37681437e-01, 4.37681437e-01, 1.67744920e-01,
          4.09504056e-01, 9.74504277e-02, 1.36059523e-01, 7.43441880e-02,
          4.37681437e-01, 4.40064281e-01, 4.40064281e-01, 2.48015709e-02,
          2.43445747e-02, 4.40064281e-01, 4.40064281e-01, 1.50462553e-01,
          5.89447431e-02, 4.40064281e-01, 4.43228811e-01, 4.43228811e-01,
          7.98750855e-03, 5.60347959e-02, 4.43228811e-01, 4.43228811e-01,
          1.00548796e-01, 0., 4.43228811e-01, 3.50939035e-01,
          1.05963215e-01, 3.50939035e-01, 3.50939035e-01, 3.50939035e-01,
          3.50939035e-01, 3.50939035e-01, 3.50939035e-01, 3.50939035e-01,
          4.03892368e-01, 4.18026924e-01, 4.18026924e-01, 4.18026924e-01,
          4.18026924e-01, 1.08885035e-01, 1.52024403e-01, 1.55932084e-01,
          2.72812814e-01, 3.16991299e-01, 2.68389523e-01, 3.22517395e-01,
          3.46411347e-01, 3.46411347e-01, 3.46411347e-01, 3.46411347e-01,
          3.46411347e-01, 3.46411347e-01, 1.17967702e-01, 2.94665303e-02,
          7.05310423e-03, 4.94796634e-02, 4.75003570e-01, 4.75003570e-01,
          4.41457659e-01, 4.75003570e-01, 3.25887799e-01, 2.90947072e-02,
          4.30223614e-01, 4.30223614e-01, 4.30223614e-01, 1.37676984e-01,
          4.97181006e-02, 4.30223614e-01, 4.30223614e-01, 2.19014257e-01,
          4.04591143e-01, 4.00443673e-01, 4.04591143e-01, 2.04968348e-01,
          4.04591143e-01, 2.10797057e-01, 2.94313222e-01, 8.80883783e-02,
          4.04591143e-01, 3.94873828e-01, 1.83391124e-01, 3.94873828e-01,
          3.94873828e-01, 3.51774335e-01, 0., 2.43004143e-01,
          3.94873828e-01, 3.94873828e-01, 1.82516083e-01, 6.58762679e-02,
          2.61355639e-01, 4.47063029e-01, 2.26587698e-01, 0.,
          4.61240023e-01, 4.61240023e-01, 4.61240023e-01, 4.24530953e-01,
          4.32382733e-01, 4.32382733e-01, 2.81512737e-01, 6.37232512e-02,
          3.08239937e-01, 4.32382733e-01, 2.76147753e-01, 3.20788799e-03,
          3.89060050e-01, 3.61757100e-01, 3.89060050e-01, 1.01083949e-01,
          3.89060050e-01, 3.89060050e-01, 3.29850733e-01, 8.24061707e-02,
          3.66010875e-01, 2.59011775e-01, 8.10011849e-02, 4.29294586e-01,
          4.29294586e-01, 4.29294586e-01, 0., 2.43739355e-02,
          4.29294586e-01, 4.29294586e-01, 2.43547410e-01, 1.09186076e-01,
          3.29707950e-01, 3.96431774e-01, 3.96431774e-01, 3.25602382e-01,
          2.85387486e-01, 3.96431774e-01, 3.96431774e-01, 3.71487767e-01,
          3.71487767e-01, 3.71487767e-01, 0., 3.71487767e-01,
          3.71487767e-01, 3.71487767e-01, 1.87873185e-01, 3.64654928e-01 ]
      - [ 3.76562148e-01, 3.76562148e-01, 3.76562148e-01, 0.,
          3.76562148e-01, 3.54616672e-01, 3.76562148e-01, 2.94467896e-01,
          2.73456126e-01, 4.79920059e-01, 6.30248934e-02, 1.17293023e-01,
          4.79920059e-01, 4.79920059e-01, 8.57281685e-02, 1.33397907e-01,
          1.76180273e-01, 4.79920059e-01, 5.36913157e-01, 0.,
          2.04734895e-02, 1.43627763e-01, 5.36913157e-01, 0., 0.,
          3.29792172e-01, 5.36913157e-01, 4.15058821e-01, 3.11621521e-02,
          2.36235529e-01, 4.15058821e-01, 4.15058821e-01, 0.,
          2.78758556e-01, 4.15058821e-01, 4.15058821e-01, 7.71752000e-02,
          4.69095856e-01, 4.69095856e-01, 0., 2.29313187e-02,
          3.29589218e-01, 4.69095856e-01, 4.69095856e-01, 0., 0., 0.,
          5.42540438e-02, 3.80608559e-01, 5.14719546e-01, 2.28570506e-01,
          5.14719546e-01, 5.14719546e-01, 0., 0., 0., 3.41387950e-02,
          2.39493981e-01, 9.65322316e-01, 0., 0., 0., 0., 3.12171400e-01,
          3.30046803e-01, 3.64040703e-01, 3.64040703e-01, 3.64040703e-01,
          0., 3.64040703e-01, 3.56865138e-01, 3.64040703e-01,
          3.52929503e-01, 3.52929503e-01, 3.52929503e-01, 0.,
          3.52929503e-01, 3.52929503e-01, 3.52929503e-01, 3.52929503e-01,
          3.52929503e-01, 4.90850836e-01, 8.53601471e-03, 2.56080441e-02,
          0., 4.90850836e-01, 7.62271807e-02, 4.75790560e-01,
          1.98439181e-01, 4.90850836e-01, 4.03817028e-01, 3.16065341e-01,
          4.03817028e-01, 0., 4.03817028e-01, 0., 4.03817028e-01,
          2.84126014e-01, 4.03817028e-01, 3.88890713e-01, 3.88890713e-01,
          3.88890713e-01, 0., 3.88890713e-01, 1.85110837e-01,
          3.88890713e-01, 2.33308703e-01, 3.88890713e-01, 3.92110586e-01,
          2.99037248e-01, 3.87931973e-01, 3.10913742e-01, 3.92110586e-01,
          2.69189924e-02, 2.74318248e-01, 3.49676639e-01, 3.92110586e-01,
          4.37343895e-01, 2.77546560e-03, 8.32639635e-03, 0.,
          4.37343895e-01, 2.41524652e-01, 4.37343895e-01, 4.14899349e-01,
          4.37343895e-01, 2.45031387e-01, 2.12820143e-01, 4.85591233e-01,
          0., 4.85591233e-01, 0., 4.85591233e-01, 3.49828869e-01,
          2.45031387e-01, 2.97507882e-01, 3.33243102e-01, 5.30560672e-01,
          0., 5.30560672e-01, 2.88329542e-01, 3.11553210e-01,
          9.01510790e-02, 2.09340975e-01 ]
      - [ 4.46174860e-01, 4.46174860e-01, 4.46174860e-01, 0.,
          1.66012883e-01, 1.38530493e-01, 3.72404963e-01, 1.17552720e-01,
          4.46174860e-01, 4.39678192e-01, 4.39678192e-01, 9.29739103e-02,
          0., 4.39678192e-01, 4.39678192e-01, 1.42512813e-01,
          8.32278188e-03, 4.39678192e-01, 3.86079520e-01, 2.24623784e-01,
          1.96406201e-01, 3.86079520e-01, 3.86079520e-01, 3.86079520e-01,
          1.12993561e-01, 3.86079520e-01, 3.86079520e-01, 1.78536519e-01,
          7.41263330e-02, 3.28565896e-01, 4.60598379e-01, 3.83423232e-02,
          0., 4.60598379e-01, 4.60598379e-01, 4.60598379e-01,
          3.72675866e-01, 3.72675866e-01, 3.72675866e-01, 0.,
          3.72675866e-01, 3.72675866e-01, 3.72675866e-01, 2.09015608e-01,
          3.45348358e-01, 4.21417892e-01, 4.29438651e-01, 2.55980551e-01,
          0., 4.29438651e-01, 4.29438651e-01, 4.25424874e-01,
          7.79818147e-02, 1.10774644e-01, 7.60385767e-02, 4.12529409e-01,
          4.22828048e-01, 4.22828048e-01, 4.22828048e-01, 4.22828048e-01,
          1.73734874e-01, 2.19709158e-01, 1.61937088e-01, 0.,
          2.71195501e-01, 4.59208488e-01, 4.59208488e-01, 6.39675418e-03,
          0., 4.59208488e-01, 4.59208488e-01, 2.79885143e-01,
          2.45516688e-01, 2.51793176e-01, 4.03024435e-01, 4.03024435e-01,
          2.18178347e-01, 1.12027489e-01, 4.03024435e-01, 4.03024435e-01,
          4.03024435e-01, 4.68993872e-01, 0., 6.39048070e-02,
          4.48311597e-01, 3.48878235e-01, 2.73062401e-02, 8.90009403e-02,
          4.68993872e-01, 4.68993872e-01, 4.67672110e-01, 4.67672110e-01,
          4.67672110e-01, 0., 1.44472774e-02, 0., 0., 3.46772611e-01,
          4.67672110e-01, 3.18132713e-02, 4.60707486e-01, 4.60707486e-01,
          0., 0., 4.84552123e-02, 4.60707486e-01, 4.60707486e-01,
          3.78196746e-01, 1.79122090e-01, 3.14277299e-02, 3.84048134e-01,
          4.94587511e-01, 4.94587511e-01, 0., 0., 3.91793728e-01,
          4.14438069e-01, 3.70231628e-01, 8.91323984e-02, 4.12519842e-01,
          4.12519842e-01, 4.12519842e-01, 0., 0., 4.12519842e-01,
          4.12519842e-01, 4.55823630e-01, 1.66910306e-01, 3.00623417e-01,
          1.73345581e-01, 4.55823630e-01, 2.55621910e-01, 3.64376828e-02,
          3.96445453e-01, 4.55823630e-01, 2.74578601e-01, 3.64289522e-01,
          3.77050132e-01, 0., 3.77050132e-01, 3.77050132e-01,
          3.77050132e-01, 3.47897887e-01, 3.13740045e-01 ]
      - [ 6.10841215e-01, 6.10841215e-01, 0., 0., 0., 0., 0., 0.,
          4.97641414e-01, 4.72123116e-01, 4.72123116e-01, 1.96466893e-01,
          0., 7.35540912e-02, 4.36126322e-01, 2.93937564e-01,
          7.72566199e-02, 4.72123116e-01, 3.91240507e-01, 3.91240507e-01,
          3.63363832e-01, 0., 3.91240507e-01, 3.91240507e-01,
          3.17070425e-01, 7.03384876e-02, 3.82492393e-01, 3.62931728e-01,
          3.62931728e-01, 3.62931728e-01, 0., 3.58738065e-01,
          3.62931728e-01, 3.62931728e-01, 3.62931728e-01, 2.78144270e-01,
          4.25018281e-01, 4.25018281e-01, 4.25018281e-01, 0.,
          7.19056726e-02, 4.25018281e-01, 2.18752623e-01, 2.64555007e-01,
          3.87530297e-01, 4.01024878e-01, 4.01024878e-01, 2.85250753e-01,
          0., 4.01024878e-01, 4.01024878e-01, 4.01024878e-01,
          1.80563122e-01, 2.79137999e-01, 4.05355424e-01, 4.05355424e-01,
          4.05355424e-01, 0., 4.05355424e-01, 4.05355424e-01,
          4.05355424e-01, 8.51130560e-02, 5.31823784e-02, 2.44625255e-01,
          4.30219620e-01, 4.30219620e-01, 0., 1.01954930e-01,
          4.30219620e-01, 4.30219620e-01, 4.30219620e-01, 4.66116192e-03,
          3.93177092e-01, 3.93177092e-01, 3.93177092e-01, 0.,
          3.93177092e-01, 3.93177092e-01, 3.93177092e-01, 1.69162735e-01,
          1.99816540e-01, 1.11311428e-01, 2.61929601e-01, 2.89290279e-01,
          0., 4.78800446e-01, 4.78800446e-01, 4.78800446e-01,
          3.70566100e-01, 7.39093348e-02, 4.34823781e-01, 4.68362719e-01,
          4.68362719e-01, 0., 1.08425235e-02, 4.32389617e-01,
          4.08728123e-01, 1.15697674e-01, 0., 1.90402925e-01,
          4.38034534e-01, 4.38034534e-01, 0., 0., 4.38034534e-01,
          4.38034534e-01, 4.38034534e-01, 0., 1.33507952e-01,
          1.61056519e-01, 4.83169556e-01, 0., 5.19977152e-01,
          3.58032286e-01, 5.19977152e-01, 1.75575256e-01, 1.33507952e-01,
          0., 0., 0., 0., 7.04459906e-01, 3.59132916e-01, 5.79537630e-01,
          1.76114976e-01, 0., 3.75566453e-01, 3.75566453e-01,
          3.75566453e-01, 3.75566453e-01, 3.75566453e-01, 2.88290411e-01,
          3.33622903e-01, 2.76275367e-01, 1.42314225e-01, 3.28806728e-01,
          2.86404669e-01, 2.37440109e-01, 2.78882623e-01, 3.66617620e-01,
          3.66617620e-01, 3.66617620e-01, 3.66617620e-01, 3.66617620e-01 ]
      - [ 3.52929503e-01, 3.52929503e-01, 3.52929503e-01, 3.52929503e-01,
          3.52929503e-01, 0., 3.52929503e-01, 3.52929503e-01,
          3.52929503e-01, 3.74746293e-01, 1.14946604e-01, 3.74746293e-01,
          3.74746293e-01, 3.74746293e-01, 0., 3.74746293e-01,
          3.74746293e-01, 3.74746293e-01, 3.73185337e-01, 1.46289378e-01,
          3.73185337e-01, 3.73185337e-01, 3.73185337e-01, 0.,
          3.73185337e-01, 3.73185337e-01, 3.73185337e-01, 4.70655441e-01,
          7.06566200e-02, 2.63524324e-01, 3.61670285e-01, 0., 0.,
          3.54269147e-01, 4.70655441e-01, 4.70655441e-01, 3.11558664e-01,
          4.12759662e-01, 4.15511906e-01, 6.56851456e-02, 4.15511906e-01,
          0., 4.15511906e-01, 3.30266654e-01, 3.11558664e-01,
          1.88096806e-01, 8.99696052e-02, 4.08240229e-01, 4.16238129e-01,
          4.16238129e-01, 0., 4.16238129e-01, 4.16238129e-01,
          3.04450572e-01, 1.91913217e-01, 1.98386416e-01, 3.91556799e-01,
          3.91556799e-01, 3.91556799e-01, 0., 3.91556799e-01,
          3.91556799e-01, 3.91556799e-01, 3.05761784e-01, 1.06270701e-01,
          3.69524539e-01, 4.28083330e-01, 2.93244809e-01, 0.,
          3.44431728e-01, 4.28083330e-01, 4.28083330e-01, 3.55218351e-01,
          3.93010706e-01, 3.93010706e-01, 9.78758857e-02, 2.96693385e-01,
          0., 3.93010706e-01, 3.93010706e-01, 3.93010706e-01,
          3.88104886e-01, 3.04614991e-01, 3.88104886e-01, 0.,
          3.88104886e-01, 0., 3.88104886e-01, 3.87563288e-01,
          3.88104886e-01, 3.87526065e-01, 3.87526065e-01, 3.09300005e-01,
          3.22196297e-02, 3.87526065e-01, 3.87526065e-01, 3.73224199e-01,
          9.61531699e-02, 3.87526065e-01, 3.44435275e-01, 3.44435275e-01,
          3.44435275e-01, 3.44435275e-01, 3.44435275e-01, 2.67760336e-01,
          3.44435275e-01, 3.07267934e-01, 3.44435275e-01, 2.98146009e-01,
          3.34760904e-01, 4.14761156e-01, 2.20790833e-01, 4.14761156e-01,
          0., 4.14761156e-01, 2.95668483e-01, 3.77692789e-01,
          4.20677423e-01, 1.62041277e-01, 4.20677423e-01, 0.,
          4.20677423e-01, 0., 4.20677423e-01, 3.00253630e-01,
          4.14137632e-01, 3.85356635e-01, 3.72469544e-01, 1.86766461e-01,
          0., 4.95272934e-01, 4.95272934e-01, 3.68515164e-01,
          8.32342505e-02, 1.99038669e-01, 1.03958219e-01, 1.36529461e-01,
          2.86934078e-01, 0., 5.27725160e-01, 5.27725160e-01,
          5.27725160e-01, 2.02891022e-01, 7.94023946e-02 ]
      - [ 3.55715364e-01, 3.55715364e-01, 3.55715364e-01, 1.39931649e-01,
          3.55715364e-01, 3.55715364e-01, 3.55715364e-01, 3.01879734e-01,
          3.55715364e-01, 3.95667791e-01, 9.89546403e-02, 3.95667791e-01,
          3.95667791e-01, 3.95667791e-01, 0., 2.16649845e-01,
          3.95667791e-01, 3.95667791e-01, 4.08634037e-01, 6.38678893e-02,
          2.87296206e-01, 4.08634037e-01, 4.08634037e-01, 0.,
          2.72746503e-01, 4.08634037e-01, 4.08634037e-01, 4.12851572e-01,
          3.03423643e-01, 7.55387619e-02, 2.65243888e-01, 3.82052153e-01,
          0., 4.12851572e-01, 4.12851572e-01, 4.12851572e-01,
          1.14359610e-01, 4.31193501e-01, 4.31193501e-01, 2.28479475e-01,
          6.35447800e-02, 0., 4.31193501e-01, 4.31193501e-01,
          4.27390367e-01, 8.56205374e-02, 6.69359788e-02, 2.21232578e-01,
          4.66205567e-01, 4.66205567e-01, 0., 4.66205567e-01,
          4.66205567e-01, 2.55338371e-01, 3.66254717e-01, 3.66254717e-01,
          3.66254717e-01, 3.66254717e-01, 3.66254717e-01, 1.92923099e-01,
          1.90950349e-01, 3.43226492e-01, 3.66254717e-01, 4.09636557e-01,
          4.09636557e-01, 1.74785390e-01, 1.20577529e-01, 4.09636557e-01,
          4.09636557e-01, 4.09636557e-01, 2.33162507e-01, 2.39674345e-01,
          1.53320119e-01, 4.88958746e-01, 4.88958746e-01, 1.21244013e-01,
          0., 0., 4.88958746e-01, 4.88958746e-01, 2.42219400e-02,
          4.54176992e-01, 4.54176992e-01, 1.87140554e-01, 0.,
          5.43484986e-02, 4.54176992e-01, 4.54176992e-01, 2.45620430e-01,
          2.68424571e-01, 3.92797410e-01, 3.92797410e-01, 3.57001424e-01,
          0., 3.92797410e-01, 3.92797410e-01, 3.92797410e-01,
          1.44417375e-01, 2.76261419e-01, 3.10548604e-01, 4.63995785e-01,
          1.83350608e-01, 0., 4.63995785e-01, 4.63995785e-01,
          4.63995785e-01, 5.92401437e-02, 2.50968523e-02, 2.91897476e-01,
          3.96944314e-01, 3.96944314e-01, 1.59276739e-01, 3.96944314e-01,
          3.03781122e-01, 3.96944314e-01, 3.68475139e-01, 1.64758250e-01,
          4.27370936e-01, 4.27370936e-01, 2.06556067e-01, 0.,
          4.27370936e-01, 4.27370936e-01, 4.27370936e-01, 1.68163881e-01,
          1.07501857e-01, 2.95799971e-01, 4.05393958e-01, 1.35843500e-01,
          0., 4.84156281e-01, 4.84156281e-01, 4.84156281e-01,
          1.23793900e-01, 7.95123428e-02, 0., 0., 0., 0., 7.04459906e-01,
          3.59132916e-01, 5.79537630e-01, 1.76114976e-01, 0. ]
      - [ 3.68602008e-01, 3.68602008e-01, 2.64031231e-01, 3.68602008e-01,
          3.68602008e-01, 0., 3.68602008e-01, 3.33766818e-01,
          3.68602008e-01, 4.81148809e-01, 2.62001187e-01, 1.18966717e-02,
          8.34587589e-02, 4.81148809e-01, 7.06189722e-02, 4.61460911e-02,
          4.66705084e-01, 4.81148809e-01, 3.38808924e-01, 3.38808924e-01,
          3.38808924e-01, 3.05112720e-01, 3.38808924e-01, 3.38808924e-01,
          3.19909424e-01, 3.35306138e-01, 3.38808924e-01, 1.72650278e-01,
          1.56765074e-01, 4.73790169e-01, 1.91684172e-01, 0.,
          7.89484680e-02, 4.73790169e-01, 4.73790169e-01, 4.73790169e-01,
          3.73103529e-01, 3.42113495e-01, 3.73103529e-01, 2.09745780e-01,
          3.73103529e-01, 0., 3.73103529e-01, 3.73103529e-01,
          3.73103529e-01, 1.65645093e-01, 6.93242624e-03, 2.65794490e-02,
          4.05636765e-02, 5.55465400e-01, 3.43231261e-02, 5.55465400e-01,
          5.20159960e-01, 2.75294006e-01, 0., 5.25510013e-01,
          5.25510013e-01, 3.56933028e-02, 2.11353227e-01, 1.12675749e-01,
          5.25510013e-01, 3.24934483e-01, 4.52443734e-02, 4.76962812e-02,
          2.98883915e-01, 5.42288899e-01, 7.81394262e-03, 0.,
          5.80448322e-02, 5.42288899e-01, 5.42288899e-01, 1.31590202e-01,
          7.55293295e-02, 4.20550108e-01, 4.20550108e-01, 4.20550108e-01,
          0., 0., 4.20550108e-01, 4.20550108e-01, 3.25241894e-01,
          4.84469324e-01, 5.01703285e-02, 1.72599316e-01, 1.54956535e-01,
          0., 0., 4.84469324e-01, 4.84469324e-01, 4.84469324e-01,
          4.09964293e-01, 4.09964293e-01, 4.09964293e-01, 0., 0.,
          3.78715008e-01, 3.06431174e-01, 2.93762773e-01, 4.09964293e-01,
          3.71903837e-01, 3.71903837e-01, 3.71903837e-01, 0.,
          1.67622015e-01, 3.71903837e-01, 3.71903837e-01, 3.71903837e-01,
          3.71903837e-01, 3.99757832e-01, 3.99757832e-01, 3.99757832e-01,
          3.99757832e-01, 3.99757832e-01, 0., 1.57368198e-01,
          1.11371718e-01, 3.99757832e-01, 5.37916183e-01, 2.57688034e-02,
          1.79492999e-02, 8.76154006e-02, 5.37916183e-01, 3.20536256e-01,
          1.04694292e-01, 6.48038983e-02, 5.37916183e-01, 4.16626036e-01,
          3.01735461e-01, 4.16626036e-01, 0., 4.16626036e-01,
          4.16626036e-01, 1.67233050e-01, 9.45550948e-02, 4.16626036e-01,
          1.16232887e-01, 3.30000341e-01, 4.25398082e-01, 0.,
          4.25398082e-01, 4.25398082e-01, 4.25398082e-01, 3.47648084e-01,
          1.69195414e-01 ]
      - [ 4.14573431e-01, 4.14573431e-01, 4.14573431e-01, 0.,
          4.14573431e-01, 2.70725399e-01, 2.42093414e-01, 6.78342655e-02,
          4.14573431e-01, 4.38633770e-01, 3.23616713e-01, 3.69765401e-01,
          3.49751338e-02, 4.38633770e-01, 3.25761139e-01, 2.54574656e-01,
          6.93796650e-02, 4.38633770e-01, 3.76322955e-01, 1.15438320e-01,
          9.53378826e-02, 3.76322955e-01, 3.52294505e-01, 3.76322955e-01,
          3.76322955e-01, 3.76322955e-01, 3.76322955e-01, 4.23923254e-01,
          0., 4.02601734e-02, 2.82437325e-01, 4.23923254e-01,
          1.25773773e-01, 4.23923254e-01, 4.23923254e-01, 4.23923254e-01,
          2.46367708e-01, 2.47709617e-01, 4.42579657e-01, 0.,
          4.42579657e-01, 4.42579657e-01, 4.42579657e-01, 1.85786277e-01,
          2.35581219e-01, 4.40554954e-02, 7.80793354e-02, 2.43555069e-01,
          6.53622523e-02, 6.69237673e-01, 6.69237673e-01, 1.54147923e-01,
          1.51554141e-02, 4.40554954e-02, 3.78284186e-01, 1.73568651e-01,
          3.78284186e-01, 3.78284186e-01, 3.78284186e-01, 3.78284186e-01,
          2.08843946e-01, 2.52755314e-01, 3.78284186e-01, 3.64631683e-01,
          5.63500151e-02, 2.38326490e-01, 3.95384610e-01, 3.95384610e-01,
          1.46540254e-01, 3.95384610e-01, 3.95384610e-01, 3.95384610e-01,
          4.02830988e-01, 2.08904445e-01, 4.02830988e-01, 0.,
          3.75460625e-01, 0., 4.02830988e-01, 4.02830988e-01,
          4.02830988e-01, 0., 0., 0., 0., 0., 0., 0., 0., 0.,
          3.98948252e-01, 3.86757374e-01, 3.98948252e-01, 3.98948252e-01,
          3.98948252e-01, 0., 8.12461600e-02, 2.09842548e-01,
          3.98948252e-01, 3.69449973e-01, 1.75060540e-01, 3.71740639e-01,
          3.71740639e-01, 3.71740639e-01, 0., 3.71740639e-01,
          3.71740639e-01, 3.71740639e-01, 3.60372841e-01, 2.95498908e-01,
          3.60372841e-01, 3.60372841e-01, 3.60372841e-01, 0.,
          3.60372841e-01, 3.60372841e-01, 3.60372841e-01, 4.96705860e-01,
          5.51561676e-02, 0., 0., 4.96705860e-01, 4.96705860e-01,
          7.16256052e-02, 0., 4.96705860e-01, 4.96894419e-01,
          4.96894419e-01, 5.19109666e-02, 2.54062898e-02, 4.96894419e-01,
          6.32417202e-02, 9.01480485e-03, 0., 4.96894419e-01,
          3.73627663e-01, 1.19808473e-01, 3.52031827e-01, 3.01789463e-01,
          3.73627663e-01, 3.47229093e-01, 2.96565711e-01, 3.73627663e-01,
          3.73627663e-01 ]
      - [ 4.42733109e-01, 4.42733109e-01, 4.42733109e-01, 0.,
          1.03538230e-01, 4.42733109e-01, 6.92420676e-02, 0.,
          4.42733109e-01, 5.03555954e-01, 5.03555954e-01, 1.62922680e-01,
          0., 2.55780995e-01, 5.03555954e-01, 1.73026353e-01,
          7.59141985e-03, 3.35114300e-01, 4.01662588e-01, 4.01662588e-01,
          3.06440622e-01, 0., 4.01662588e-01, 4.01662588e-01,
          3.03541034e-01, 5.72732352e-02, 4.01662588e-01, 4.11524147e-01,
          9.63141471e-02, 1.92294866e-01, 2.17483789e-01, 4.11524147e-01,
          4.11524147e-01, 2.35744596e-01, 4.11524147e-01, 4.11524147e-01,
          3.99656683e-01, 3.99656683e-01, 3.99656683e-01, 2.86506534e-01,
          1.19315982e-01, 3.99656683e-01, 3.49194497e-01, 1.61013454e-01,
          3.36037427e-01, 3.98124546e-01, 3.98124546e-01, 1.76866457e-01,
          2.32132971e-01, 3.98124546e-01, 3.98124546e-01, 3.98124546e-01,
          1.38649866e-01, 3.14826578e-01, 3.01283300e-01, 4.40790504e-01,
          9.82951894e-02, 3.58547308e-02, 4.74483490e-01, 4.74483490e-01,
          4.74483490e-01, 1.44205362e-01, 5.51955774e-02, 2.17617713e-02,
          6.54714555e-02, 1.64545476e-01, 5.38980782e-01, 5.50305307e-01,
          5.50305307e-01, 2.45382234e-01, 7.45333284e-02, 2.70098783e-02,
          3.82150173e-01, 3.82150173e-01, 3.82150173e-01, 1.38063490e-01,
          3.38621140e-01, 3.82150173e-01, 3.20368439e-01, 1.72124088e-01,
          3.82150173e-01, 3.72883618e-01, 3.72883618e-01, 2.69982010e-01,
          7.23215640e-02, 3.72883618e-01, 3.72883618e-01, 3.72883618e-01,
          3.28291774e-01, 3.39363337e-01, 1.75077409e-01, 0.,
          1.13666235e-02, 7.97403082e-02, 4.81507748e-01, 4.81507748e-01,
          4.81507748e-01, 4.81507748e-01, 1.75077409e-01, 0., 0., 0., 0.,
          0., 0., 0., 0., 0., 3.67717922e-01, 3.67717922e-01,
          3.67717922e-01, 2.03844890e-01, 3.67717922e-01, 3.67717922e-01,
          3.67717922e-01, 9.08751190e-02, 3.67717922e-01, 3.76114309e-01,
          3.20319384e-01, 1.79348871e-01, 0., 4.40969855e-01,
          4.40969855e-01, 4.40969855e-01, 2.96244174e-01, 2.19633296e-01,
          0., 0., 0., 0., 0., 3.13372493e-01, 8.23524296e-01,
          4.64098215e-01, 0., 0., 0., 0., 0., 0., 0., 0., 0., 0. ]
      - [ 3.75874072e-01, 3.75874072e-01, 3.62980753e-01, 0.,
          3.75874072e-01, 3.75874072e-01, 3.75874072e-01, 1.29622236e-01,
          3.75874072e-01, 4.17064965e-01, 2.02046379e-01, 4.17064965e-01,
          0., 4.17064965e-01, 1.64832920e-01, 4.17064965e-01,
          2.41091534e-01, 4.17064965e-01, 3.91504943e-01, 2.96790928e-01,
          3.91504943e-01, 3.91504943e-01, 3.91504943e-01, 1.90229371e-01,
          1.07238628e-01, 3.06489944e-01, 3.91504943e-01, 3.98228198e-01,
          8.87767896e-02, 3.57909650e-01, 3.98228198e-01, 3.98228198e-01,
          1.04532421e-01, 2.37034932e-01, 3.98228198e-01, 3.98228198e-01,
          1.53419867e-01, 4.34028953e-01, 4.34028953e-01, 0.,
          7.66349807e-02, 4.34028953e-01, 4.34028953e-01, 4.34028953e-01,
          1.56039089e-01, 0., 0., 0., 0., 6.35029018e-01, 3.65294427e-01,
          6.35029018e-01, 2.31724396e-01, 0., 2.31782021e-03,
          4.33250576e-01, 4.33250576e-01, 4.33250576e-01, 1.05197400e-01,
          4.96152602e-02, 4.33250576e-01, 4.33250576e-01, 2.08826214e-01,
          7.88041763e-03, 4.46272045e-01, 4.46272045e-01, 3.30899626e-01,
          1.36406884e-01, 4.46072407e-02, 4.46272045e-01, 4.46272045e-01,
          2.62209803e-01, 1.99033290e-01, 2.16341957e-01, 4.25930083e-01,
          4.25930083e-01, 4.73822616e-02, 0., 4.25930083e-01,
          4.25930083e-01, 4.25930083e-01, 5.36904573e-01, 0.,
          4.85444488e-03, 3.40554006e-02, 6.68016449e-02, 0.,
          3.52410018e-01, 5.36904573e-01, 5.36904573e-01, 3.17111820e-01,
          4.00101960e-01, 4.00101960e-01, 4.00101960e-01, 2.29165018e-01,
          0., 3.10896337e-01, 3.25489998e-01, 4.00101960e-01,
          1.00619070e-01, 3.68634671e-01, 3.68634671e-01, 3.03457707e-01,
          3.68634671e-01, 2.80637056e-01, 3.68634671e-01, 3.68634671e-01,
          3.68634671e-01, 3.43701273e-01, 5.67715690e-02, 3.95721376e-01,
          4.21603054e-01, 4.21603054e-01, 0., 8.27220231e-02,
          4.21603054e-01, 4.21603054e-01, 4.44242626e-01, 0.,
          9.37192887e-02, 4.44242626e-01, 4.44242626e-01, 0.,
          4.65104915e-03, 4.44242626e-01, 4.44242626e-01, 5.47919929e-01,
          1.32909760e-01, 1.84987098e-01, 1.97642699e-01, 5.47919929e-01,
          4.88533154e-02, 6.96380669e-03, 2.22792812e-02, 5.47919929e-01,
          3.56505245e-01, 3.24023426e-01, 3.56505245e-01, 4.21297066e-02,
          3.56505245e-01, 3.56505245e-01, 3.56505245e-01, 3.56505245e-01,
          3.56505245e-01 ]
      - [ 3.79443616e-01, 3.79443616e-01, 3.79443616e-01, 3.71311635e-01,
          1.40267760e-01, 8.58317688e-02, 3.79443616e-01, 3.33777487e-01,
          3.79443616e-01, 4.61982578e-01, 3.55836719e-01, 1.51829332e-01,
          6.55983314e-02, 4.61982578e-01, 1.28435373e-01, 3.76667082e-01,
          2.06768230e-01, 4.61982578e-01, 5.56919575e-01, 0.,
          2.71565150e-02, 1.90511197e-01, 5.56919575e-01, 0., 0.,
          1.64098889e-01, 5.56919575e-01, 4.64721680e-01, 0.,
          4.52932902e-02, 3.17746162e-01, 4.64721680e-01, 0.,
          1.68757662e-01, 4.64721680e-01, 4.64721680e-01, 2.88398147e-01,
          4.13418621e-01, 4.13418621e-01, 2.64299184e-01, 2.36262798e-01,
          3.02662700e-01, 4.13418621e-01, 4.13418621e-01, 1.08433425e-01,
          1.27322093e-01, 2.09728003e-01, 3.91918540e-01, 1.27271116e-01,
          4.93455946e-01, 1.69634402e-01, 4.93455946e-01, 4.93455946e-01,
          7.61886016e-02, 2.29780525e-01, 0., 7.79309124e-02,
          5.46708941e-01, 7.43213117e-01, 0., 0., 7.76840076e-02,
          2.76438445e-01, 1.42476484e-01, 0., 6.29522577e-02,
          4.41629171e-01, 6.01087987e-01, 0., 2.34552965e-01,
          4.66212511e-01, 3.75530809e-01, 1.28285706e-01, 3.44520420e-01,
          3.94885153e-01, 3.94885153e-01, 2.84065485e-01, 2.32145395e-02,
          3.94885153e-01, 3.94885153e-01, 3.94885153e-01, 6.52306974e-02,
          1.69928476e-01, 4.68789250e-01, 2.40104511e-01, 2.41828449e-02,
          0., 5.81524134e-01, 5.81524134e-01, 8.19971412e-02, 0., 0., 0.,
          0., 0., 0., 0., 0., 0., 0., 0., 0., 0., 0., 0., 0., 0., 0.,
          3.28085124e-01, 3.87543529e-01, 3.87543529e-01, 3.87543529e-01,
          3.87543529e-01, 0., 3.87543529e-01, 3.03650081e-01,
          2.12920725e-01, 1.45602450e-01, 1.60567313e-01, 1.46536246e-01,
          4.44810808e-01, 4.91092592e-01, 0., 4.91092592e-01,
          4.91092592e-01, 7.25798607e-02, 0., 0., 0., 0., 0., 0., 0., 0.,
          0., 0., 0., 0., 0., 0., 0., 0., 0., 0. ]
      - [ 4.36594099e-01, 4.36594099e-01, 4.36594099e-01, 0.,
          7.04293624e-02, 4.36594099e-01, 3.86369437e-01, 1.05681941e-01,
          2.60328472e-01, 4.20987338e-01, 4.20987338e-01, 1.47702113e-01,
          1.72582000e-01, 4.20987338e-01, 4.20987338e-01, 2.39906967e-01,
          2.20694784e-02, 4.20987338e-01, 4.08260405e-01, 2.02709455e-02,
          1.34252593e-01, 4.08260405e-01, 4.08260405e-01, 2.50978231e-01,
          2.84805268e-01, 4.08260405e-01, 4.08260405e-01, 1.19230777e-01,
          0., 2.89226715e-02, 2.02901319e-01, 4.84494448e-01, 0.,
          4.84494448e-01, 4.84494448e-01, 4.84494448e-01, 3.98519725e-01,
          3.98519725e-01, 3.98519725e-01, 2.13169977e-01, 1.86297581e-01,
          3.98519725e-01, 3.98519725e-01, 2.77806342e-01, 2.11197436e-01,
          4.30174321e-01, 4.30174321e-01, 5.00601791e-02, 2.74450649e-02,
          4.30174321e-01, 4.30174321e-01, 2.20795959e-01, 1.35805607e-01,
          4.30174321e-01, 5.19011617e-01, 2.59075779e-02, 2.96073556e-02,
          2.07704589e-01, 5.19011617e-01, 2.08582915e-02, 3.54504660e-02,
          3.74588758e-01, 5.19011617e-01, 3.80456924e-01, 2.32591897e-01,
          1.59568787e-01, 3.80456924e-01, 3.80456924e-01, 2.75158912e-01,
          3.42327476e-01, 3.80456924e-01, 3.80456924e-01, 3.63316923e-01,
          3.63316923e-01, 3.63316923e-01, 2.74723917e-01, 3.05571437e-01,
          3.63316923e-01, 3.63316923e-01, 3.63316923e-01, 1.88488290e-01,
          2.52923995e-01, 2.30780184e-01, 1.14854835e-02, 4.31638621e-02,
          5.93885660e-01, 5.93885660e-01, 3.47365081e-01, 1.54660329e-01,
          1.57677934e-01, 3.22147489e-01, 4.26530421e-01, 4.84542966e-01,
          2.32557654e-01, 6.03695393e-01, 0., 0., 9.58679765e-02,
          2.13918626e-01, 3.65355134e-01, 3.65355134e-01, 3.65355134e-01,
          1.83202177e-01, 3.65355134e-01, 3.59617919e-01, 3.65355134e-01,
          3.58263969e-01, 1.94130406e-01, 3.00642736e-02, 2.30398878e-01,
          4.16754961e-01, 4.16754961e-01, 4.16754961e-01, 0.,
          4.16754961e-01, 4.16754961e-01, 2.70972222e-01, 0., 0., 0., 0.,
          4.95230168e-01, 0., 5.75211465e-01, 5.75211465e-01,
          2.95409709e-01, 1.08131826e-01, 5.41332424e-01, 5.87113321e-01,
          0., 5.87113321e-01, 0., 0., 0., 0., 3.74713019e-02,
          3.95691991e-01, 4.90094334e-01, 0., 4.90094334e-01,
          3.97993058e-01, 4.27835703e-01, 1.23701245e-01, 0. ]
      - [ 3.75131428e-01, 3.75131428e-01, 3.75131428e-01, 3.75131428e-01,
          3.75131428e-01, 3.75131428e-01, 1.05769530e-01, 0.,
          3.75131428e-01, 3.53368938e-01, 3.53368938e-01, 3.22079957e-01,
          3.53368938e-01, 3.53368938e-01, 2.33048230e-01, 2.98671842e-01,
          3.53368938e-01, 3.53368938e-01, 4.97234195e-01, 2.47365404e-02,
          2.24150028e-02, 3.37224118e-02, 4.97234195e-01, 4.44627553e-02,
          4.28714342e-02, 4.97234195e-01, 4.97234195e-01, 3.76350611e-01,
          1.22696549e-01, 3.76350611e-01, 2.70089060e-01, 3.76350611e-01,
          2.41658747e-01, 3.76350611e-01, 3.76350611e-01, 3.76350611e-01,
          2.45049194e-01, 4.29458439e-01, 4.29458439e-01, 3.86618197e-01,
          4.29458439e-01, 4.29458439e-01, 1.29132122e-01, 2.06712503e-02,
          1.77050143e-01, 1.38320267e-01, 3.65459859e-01, 4.14850801e-01,
          1.92089438e-01, 4.14850801e-01, 4.14850801e-01, 4.14850801e-01,
          3.14208090e-01, 1.38320267e-01, 1.58022851e-01, 1.21013306e-01,
          3.75796169e-01, 8.94889385e-02, 6.32083237e-01, 3.23750079e-01,
          4.36181962e-01, 2.43226469e-01, 2.26021379e-01, 7.53525794e-02,
          3.73666227e-01, 4.15850878e-01, 4.15850878e-01, 1.79685444e-01,
          1.27964735e-01, 4.15850878e-01, 4.15850878e-01, 3.31891179e-01,
          4.74923104e-01, 4.74923104e-01, 4.74923104e-01, 0.,
          8.26094896e-02, 1.22637711e-01, 4.74923104e-01, 2.09366590e-01,
          1.65378168e-01, 4.02503878e-01, 4.02503878e-01, 4.02503878e-01,
          0., 2.51334876e-01, 1.72888368e-01, 4.02503878e-01,
          4.02503878e-01, 3.04749966e-01, 5.74995935e-01, 5.74995935e-01,
          2.62443144e-02, 0., 0., 2.10825671e-02, 3.40212211e-02,
          1.03386668e-02, 5.74995935e-01, 3.76429409e-01, 3.76429409e-01,
          3.76429409e-01, 3.76429409e-01, 0., 1.88232198e-01,
          3.76429409e-01, 3.76429409e-01, 3.32585663e-01, 4.24561650e-01,
          4.24561650e-01, 4.24561650e-01, 4.06337261e-01, 4.24561650e-01,
          1.28884912e-01, 2.51193762e-01, 7.76072741e-02, 1.54615998e-01,
          4.29229409e-01, 1.84088305e-01, 1.34645268e-01, 5.31830378e-02,
          4.29229409e-01, 4.29229409e-01, 4.29229409e-01, 1.40273377e-01,
          4.29229409e-01, 4.88603413e-01, 4.88603413e-01, 0., 0.,
          4.88603413e-01, 1.98460445e-01, 2.82895863e-02, 0.,
          4.88603413e-01, 4.11388457e-01, 3.62103283e-01, 2.88175672e-01,
          0., 4.11388457e-01, 4.11388457e-01, 3.19579542e-01,
          5.13174273e-02, 4.11388457e-01 ]
      - [ 4.25962299e-01, 4.25962299e-01, 2.86231786e-01, 0.,
          3.32786500e-01, 4.25962299e-01, 3.38793725e-01, 6.42330125e-02,
          3.73939455e-01, 3.86377811e-01, 3.68284553e-01, 3.86377811e-01,
          0., 3.86377811e-01, 2.99004078e-01, 3.86377811e-01,
          1.57047436e-01, 3.86377811e-01, 4.13388699e-01, 1.76193669e-01,
          2.86894053e-01, 4.13388699e-01, 4.13388699e-01, 0.,
          1.67532176e-01, 4.13388699e-01, 4.13388699e-01, 2.02539548e-01,
          3.92489731e-02, 2.12356344e-01, 4.56738859e-01, 2.70810574e-01,
          0., 4.56738859e-01, 4.56738859e-01, 4.56738859e-01,
          4.01649773e-01, 4.01649773e-01, 4.01649773e-01, 0.,
          1.60851061e-01, 4.01649773e-01, 4.01649773e-01, 2.63164699e-01,
          3.06995481e-01, 4.07380193e-01, 2.15204209e-01, 1.09637246e-01,
          0., 4.07380193e-01, 4.07380193e-01, 4.07380193e-01,
          4.07380193e-01, 3.28335345e-01, 1.33277550e-01, 3.30323547e-01,
          4.46990877e-01, 4.46990877e-01, 4.46990877e-01, 0.,
          1.23225436e-01, 3.76733661e-01, 3.34877998e-01, 1.96927860e-01,
          1.46825314e-01, 4.10251379e-01, 4.10251379e-01, 3.06647211e-01,
          0., 4.10251379e-01, 4.10251379e-01, 4.10251379e-01,
          3.87316495e-01, 3.87316495e-01, 3.87316495e-01, 0.,
          3.87316495e-01, 3.87316495e-01, 3.87316495e-01, 2.98335284e-01,
          8.39179233e-02, 1.81370422e-01, 2.07840547e-01, 1.45605728e-01,
          0., 9.99649987e-02, 5.41590869e-01, 5.41590869e-01,
          5.41590869e-01, 8.56899098e-02, 4.74058002e-01, 3.10388654e-01,
          4.74058002e-01, 4.74058002e-01, 0., 0., 0., 0., 4.74058002e-01,
          3.54433864e-01, 3.42191726e-01, 3.54433864e-01, 3.54433864e-01,
          3.54433864e-01, 0., 3.54433864e-01, 3.54433864e-01,
          3.54433864e-01, 3.56721640e-01, 3.56721640e-01, 3.56721640e-01,
          1.13705806e-01, 3.56721640e-01, 3.04556638e-01, 3.56721640e-01,
          3.56721640e-01, 3.56721640e-01, 4.82874602e-01, 1.99950397e-01,
          0., 0., 4.82874602e-01, 4.82874602e-01, 1.40597418e-01,
          5.25129735e-02, 4.82874602e-01, 5.20342767e-01, 4.27239388e-01,
          0., 0., 5.20342767e-01, 0., 0., 0., 5.20342767e-01,
          3.97837579e-01, 3.01451892e-01, 2.46760115e-01, 0.,
          3.97837579e-01, 3.97837579e-01, 3.95655572e-01, 2.33708560e-01,
          3.97837579e-01 ]
      - [ 3.57855141e-01, 3.23710769e-01, 3.57855141e-01, 3.51104528e-01,
          3.57855141e-01, 0., 3.57855141e-01, 3.57855141e-01,
          3.57855141e-01, 3.03423792e-01, 1.59930214e-01, 4.02101994e-01,
          2.64403433e-01, 4.02101994e-01, 0., 4.02101994e-01,
          4.02101994e-01, 4.02101994e-01, 1.98217735e-01, 0.,
          6.13020733e-02, 4.30052608e-01, 0., 0., 3.59982878e-01,
          5.64262450e-01, 5.64262450e-01, 0., 0., 0., 0., 0., 0., 0., 0.,
          0., 3.35789680e-01, 2.00301021e-01, 3.74207735e-01,
          3.74207735e-01, 3.74207735e-01, 2.65504330e-01, 2.69697368e-01,
          3.74207735e-01, 3.74207735e-01, 2.05074593e-01, 1.20968468e-01,
          4.14693505e-01, 4.14693505e-01, 4.14693505e-01, 5.97319454e-02,
          2.75221765e-01, 4.14693505e-01, 4.14693505e-01, 3.14123869e-01,
          1.47931138e-02, 2.08906487e-01, 4.91212279e-01, 2.03207240e-01,
          0., 2.95631200e-01, 4.91212279e-01, 4.91212279e-01,
          4.90258992e-01, 0., 0., 0., 1.83542877e-01, 0., 4.90258992e-01,
          4.90258992e-01, 4.90258992e-01, 0., 4.13727500e-02,
          2.98863649e-01, 5.08328915e-01, 5.08328915e-01, 2.60403425e-01,
          4.20216411e-01, 3.52750689e-01, 1.35168687e-01, 1.78065121e-01,
          1.66107014e-01, 4.50125784e-01, 4.50125784e-01, 4.50125784e-01,
          1.68647412e-02, 2.83281773e-01, 3.63495737e-01, 3.40152085e-01,
          3.30231100e-01, 2.32193023e-01, 3.93779099e-01, 3.93779099e-01,
          3.93779099e-01, 0., 2.40395486e-01, 3.93779099e-01,
          3.93779099e-01, 3.56880009e-01, 2.01886311e-01, 2.17764050e-01,
          3.99593323e-01, 3.76518488e-01, 0., 3.99593323e-01,
          3.99593323e-01, 3.99593323e-01, 0., 0., 0., 0., 0., 0., 0., 0.,
          0., 0., 0., 1.40422478e-01, 9.85106170e-01, 0., 0., 0., 0., 0.,
          5.01053631e-02, 2.20956609e-01, 5.49406469e-01, 5.49406469e-01,
          5.49406469e-01, 0., 1.45798281e-01, 1.20488524e-01,
          4.31774482e-02, 8.10433179e-02, 5.47750667e-02, 4.28872257e-01,
          4.83169615e-01, 2.29657724e-01, 0., 2.20392853e-01,
          4.83169615e-01, 4.83169615e-01 ]
      - [ 4.64433342e-01, 4.64433342e-01, 2.21990883e-01, 1.57578722e-01,
          1.83243543e-01, 4.64433342e-01, 1.57729641e-01, 0.,
          4.64433342e-01, 4.30101067e-01, 4.30101067e-01, 1.70350924e-01,
          1.69528332e-02, 4.30101067e-01, 4.30101067e-01, 7.61342645e-02,
          1.88854039e-01, 4.30101067e-01, 3.96734804e-01, 2.19149753e-01,
          3.34599614e-01, 2.04694405e-01, 3.96734804e-01, 8.47186223e-02,
          3.96713972e-01, 3.96734804e-01, 3.96734804e-01, 4.40084517e-01,
          0., 2.50738934e-02, 1.75900951e-01, 1.56838432e-01, 0.,
          4.79351908e-01, 5.07597148e-01, 5.07597148e-01, 4.10434097e-01,
          4.10434097e-01, 4.10434097e-01, 2.21894309e-01, 4.10434097e-01,
          4.10434097e-01, 2.44186386e-01, 3.73854190e-02, 2.08224282e-01,
          4.18926209e-01, 4.18926209e-01, 3.44704032e-01, 2.75229216e-02,
          3.36977631e-01, 4.18926209e-01, 2.76190490e-01, 8.28315411e-03,
          3.99794549e-01, 1.78960606e-01, 1.79075614e-01, 3.94802630e-01,
          3.94802630e-01, 3.94802630e-01, 3.94802630e-01, 1.70302853e-01,
          3.94802630e-01, 3.51585209e-01, 8.36201608e-02, 7.80973732e-02,
          3.75339538e-01, 4.16969210e-01, 3.82635742e-01, 0.,
          4.16969210e-01, 4.16969210e-01, 4.16969210e-01, 3.10739279e-01,
          3.99944395e-01, 3.99944395e-01, 3.99944395e-01, 1.34524629e-01,
          2.01368392e-01, 3.99944395e-01, 3.99944395e-01, 2.02538431e-01,
          3.98054451e-01, 1.49943829e-01, 1.70239359e-01, 1.70951530e-01,
          3.50852758e-01, 3.98054451e-01, 3.98054451e-01, 3.98054451e-01,
          3.98054451e-01, 4.81596678e-01, 4.81596678e-01, 4.42674845e-01,
          1.66067198e-01, 1.67351484e-01, 1.12712249e-01, 1.18732005e-01,
          1.45040289e-01, 4.81596678e-01, 3.41688931e-01, 3.41688931e-01,
          3.41688931e-01, 3.41688931e-01, 2.50151128e-01, 3.41688931e-01,
          3.41688931e-01, 3.41688931e-01, 3.41688931e-01, 8.91513899e-02,
          2.03254923e-01, 5.19267738e-01, 5.19267738e-01, 5.19267738e-01,
          0., 1.25761047e-01, 2.66008586e-01, 2.23741427e-01,
          4.39262390e-01, 8.68745893e-03, 1.68349385e-01, 4.39262390e-01,
          4.39262390e-01, 4.39387672e-02, 2.25244239e-02, 4.39262390e-01,
          4.39262390e-01, 4.20722485e-01, 4.20722485e-01, 5.11675961e-02,
          2.93368161e-01, 4.20722485e-01, 4.20722485e-01, 1.47111833e-01,
          2.08663493e-02, 4.20722485e-01, 3.44314098e-01, 2.68628091e-01,
          3.58793251e-02, 0., 5.10375679e-01, 5.10375679e-01,
          4.63255137e-01, 1.17682219e-01, 2.31260061e-01 ]
      - [ 2.55937606e-01, 6.38888121e-01, 6.38888121e-01, 0.,
          5.56669310e-02, 3.33030000e-02, 4.74718306e-03, 9.59510431e-02,
          3.13566953e-01, 3.46413016e-01, 3.50285769e-01, 4.16754782e-01,
          0., 1.49298429e-01, 1.90017179e-01, 4.16754782e-01,
          4.16754782e-01, 4.16754782e-01, 4.16415185e-01, 4.16415185e-01,
          4.16415185e-01, 0., 9.70848724e-02, 1.07151806e-01,
          4.16415185e-01, 3.28519762e-01, 4.16415185e-01, 4.05064166e-01,
          1.80214077e-01, 2.48617738e-01, 0., 2.93803990e-01,
          3.98794442e-01, 4.05064166e-01, 4.05064166e-01, 4.05064166e-01,
          0., 6.12072825e-01, 6.12072825e-01, 0., 1.15858272e-01,
          2.03752935e-01, 4.15990055e-01, 1.28982022e-01, 0.,
          5.76109700e-02, 4.06676054e-01, 4.06676054e-01, 0.,
          4.06676054e-01, 4.06676054e-01, 4.06676054e-01, 4.06676054e-01,
          1.74870845e-02, 2.25287646e-01, 4.61304992e-01, 4.61304992e-01,
          0., 8.62396881e-02, 4.61304992e-01, 4.61304992e-01,
          2.89347887e-01, 4.76344526e-02, 4.12376858e-02, 7.87265301e-02,
          1.83991060e-01, 0., 4.87398475e-01, 4.87398475e-01,
          4.87398475e-01, 4.87398475e-01, 5.61395325e-02, 0.,
          5.57138622e-01, 5.57138622e-01, 0., 0., 0., 5.57138622e-01,
          2.50968724e-01, 1.55155370e-02, 4.39260811e-01, 4.39260811e-01,
          4.39260811e-01, 0., 0., 0., 4.39260811e-01, 4.39260811e-01,
          1.75675467e-01, 4.39529657e-01, 4.39529657e-01, 4.39529657e-01,
          0., 0., 6.11218177e-02, 4.39529657e-01, 4.39529657e-01,
          1.61064953e-01, 0., 1.87530667e-02, 5.62592037e-02, 0., 0.,
          1.87340602e-01, 6.90829396e-01, 6.90829396e-01, 0.,
          4.17237669e-01, 4.17237669e-01, 4.17237669e-01, 3.27342659e-01,
          4.17237669e-01, 0., 8.78321007e-02, 1.02605969e-01,
          4.17237669e-01, 3.78390342e-01, 3.78390342e-01, 3.78390342e-01,
          3.76377478e-02, 3.78390342e-01, 3.22716773e-01, 2.97449291e-01,
          2.93742567e-01, 3.78390342e-01, 9.40559059e-02, 1.63754612e-01,
          1.57391787e-01, 0., 5.10895073e-01, 5.10895073e-01,
          5.10895073e-01, 3.88177305e-01, 2.72135064e-02, 0., 0., 0., 0.,
          4.17255580e-01, 5.23027837e-01, 5.23027837e-01, 5.23027837e-01,
          0. ]
      - [ 3.47593814e-01, 3.47593814e-01, 3.47593814e-01, 1.73076630e-01,
          3.47593814e-01, 3.47593814e-01, 3.47593814e-01, 3.47593814e-01,
          3.47593814e-01, 4.05745745e-01, 2.47191444e-01, 2.19679177e-01,
          4.05745745e-01, 1.27440006e-01, 2.17243984e-01, 4.05745745e-01,
          4.05745745e-01, 4.05745745e-01, 4.88822609e-01, 0., 0., 0., 0.,
          1.98311985e-01, 4.88822609e-01, 4.88822609e-01, 4.88822609e-01,
          0., 0., 0., 0., 0., 0., 0., 0., 0., 3.54016796e-02,
          4.01766628e-01, 4.24203932e-01, 3.28975290e-01, 4.24203932e-01,
          4.40409221e-02, 4.24203932e-01, 4.24203932e-01, 5.59682772e-02,
          3.32938015e-01, 3.32938015e-01, 3.32938015e-01, 3.32938015e-01,
          3.32938015e-01, 3.31499070e-01, 3.32938015e-01, 3.32938015e-01,
          3.32938015e-01, 3.70466113e-01, 2.73442984e-01, 2.31478050e-01,
          3.70466113e-01, 2.48588786e-01, 3.46299559e-01, 3.70466113e-01,
          3.70466113e-01, 3.70466113e-01, 0., 0., 0., 0., 2.13298321e-01,
          0., 6.26794279e-01, 6.26794279e-01, 4.03117388e-01,
          3.91879112e-01, 3.91879112e-01, 3.91879112e-01, 0.,
          3.91879112e-01, 2.15512186e-01, 3.91879112e-01, 1.68000475e-01,
          3.91879112e-01, 3.35876286e-01, 3.35876286e-01, 3.35876286e-01,
          3.35876286e-01, 3.35876286e-01, 3.35876286e-01, 3.06824356e-01,
          3.35876286e-01, 3.35876286e-01, 3.80623996e-01, 2.65483320e-01,
          2.84051299e-01, 3.80623996e-01, 3.80623996e-01, 1.33963436e-01,
          3.20486486e-01, 3.80623996e-01, 3.80623996e-01, 4.27353621e-01,
          4.25305098e-01, 1.91472918e-02, 1.34324044e-01, 2.56734371e-01,
          0., 4.27353621e-01, 4.27353621e-01, 4.27353621e-01,
          3.46382290e-01, 3.46382290e-01, 3.46382290e-01, 1.91556305e-01,
          3.46382290e-01, 3.46382290e-01, 3.46382290e-01, 3.46382290e-01,
          3.46382290e-01, 3.86984617e-01, 3.88393611e-01, 2.34910339e-01,
          3.42564732e-01, 3.88393611e-01, 3.88393611e-01, 3.88393611e-01,
          2.16852486e-01, 1.52989000e-01, 3.42883319e-01, 9.22785699e-02,
          3.06303591e-01, 5.04027784e-01, 5.04027784e-01, 9.21410974e-03,
          9.51681659e-02, 2.61331260e-01, 4.35357422e-01, 4.01560634e-01,
          4.77385111e-02, 1.41929567e-01, 4.01560634e-01, 4.01560634e-01,
          1.94910496e-01, 3.59611779e-01, 4.01560634e-01, 4.01560634e-01 ]
      - [ 4.96513098e-01, 4.96513098e-01, 4.42513734e-01, 0.,
          4.34535518e-02, 2.59962883e-02, 2.27027372e-01, 7.44405761e-02,
          4.96513098e-01, 4.41381603e-01, 4.41381603e-01, 2.46206760e-01,
          0., 4.41381603e-01, 1.28671899e-01, 3.39395911e-01,
          1.54778242e-01, 4.41381603e-01, 4.82699960e-01, 9.62573066e-02,
          2.18879580e-01, 6.24333285e-02, 4.82699960e-01, 5.92263555e-03,
          4.55524102e-02, 4.82699960e-01, 4.82699960e-01, 5.64638257e-01,
          1.91517975e-02, 6.41467124e-02, 4.69416268e-02, 1.26400962e-01,
          0., 1.23491451e-01, 5.64638257e-01, 5.64638257e-01,
          4.29540604e-01, 4.29540604e-01, 4.29540604e-01, 5.35757132e-02,
          1.36442333e-01, 4.29540604e-01, 4.29540604e-01, 1.87388033e-01,
          1.28772423e-01, 2.74933755e-01, 2.56521553e-01, 2.69198567e-01,
          0., 4.94880021e-01, 4.94880021e-01, 4.94880021e-01,
          1.13336638e-01, 1.83394745e-01, 1.82278812e-01, 2.40126014e-01,
          4.80198234e-01, 4.80198234e-01, 4.80198234e-01, 3.19152363e-02,
          2.11531855e-02, 3.05046856e-01, 3.43550742e-01, 1.45469964e-01,
          1.75285682e-01, 3.96684259e-01, 3.96684259e-01, 3.96684259e-01,
          0., 3.96684259e-01, 3.96684259e-01, 3.96684259e-01,
          1.06842548e-01, 3.69543910e-01, 3.69543910e-01, 3.69543910e-01,
          2.71221727e-01, 3.17262620e-01, 3.69543910e-01, 3.69543910e-01,
          3.57578486e-01, 4.25935030e-01, 2.15654865e-01, 1.06611334e-01,
          3.76362652e-01, 2.73413777e-01, 2.52102375e-01, 3.37121159e-01,
          4.25935030e-01, 4.25935030e-01, 4.25773829e-01, 4.25773829e-01,
          2.08456308e-01, 6.99709430e-02, 4.25773829e-01, 4.25773829e-01,
          1.97549671e-01, 4.42062169e-02, 4.25773829e-01, 3.61221045e-01,
          3.61221045e-01, 3.61221045e-01, 2.42068902e-01, 3.61221045e-01,
          3.61221045e-01, 3.61221045e-01, 3.61221045e-01, 1.56298459e-01,
          1.05597913e-01, 1.90047562e-01, 5.21442950e-01, 5.21442950e-01,
          5.21442950e-01, 0., 1.44183576e-01, 2.46154919e-01,
          2.24575356e-01, 4.33027357e-01, 9.43505540e-02, 1.88983068e-01,
          4.33027357e-01, 4.33027357e-01, 4.20756608e-01, 7.63983056e-02,
          1.34662822e-01, 4.33027357e-01, 4.65892851e-01, 1.98272303e-01,
          5.85225550e-03, 4.10553440e-02, 5.31300426e-01, 5.31300426e-01,
          2.27513343e-01, 2.76163337e-03, 3.46808344e-01, 1.76530093e-01,
          1.89230040e-01, 0., 0., 5.79823017e-01, 5.79823017e-01,
          4.94014859e-01, 8.27397928e-02, 6.28764704e-02 ]
      - [ 4.39425439e-01, 4.39425439e-01, 4.39425439e-01, 4.39425439e-01,
          4.23136838e-02, 0., 6.56595156e-02, 1.55033424e-01,
          4.39425439e-01, 4.49682236e-01, 2.07826018e-01, 1.58446684e-01,
          3.18563521e-01, 1.29892677e-01, 0., 4.49682236e-01,
          4.49682236e-01, 4.49682236e-01, 4.62480038e-01, 0., 0., 0., 0.,
          0., 5.03744185e-01, 5.13432682e-01, 5.13432682e-01, 0., 0., 0.,
          0., 0., 0., 0., 0., 0., 3.00685853e-01, 4.59898919e-01,
          4.59898919e-01, 4.59898919e-01, 4.59898919e-01, 0.,
